<<<<<<< HEAD
B,200,130,-200,20,100,-30,50000
R,200,130,-200,20,100,-30,50000
G,200,130,-200,20,100,-30,50000
B,200.0003975882127,130.0003975882127,-199.99910239495185,20.000897605048152,100.0020523495522,-29.997947650447802,50000.00000272083
R,198.50020943267648,128.50020943267648,-202.49977031490013,17.50022968509987,90.841844662472,-39.158155337528,50000.0
G,198.99519048568413,128.99519048568413,-205.2242816754207,14.775718324579278,93.23487816760075,-36.76512183239925,49999.005246354434
G,198.00816149250792,128.7154842019751,-206.45095111850603,14.059696851603132,90.75016154734249,-37.96622378063011,49998.51133119267
R,197.03145119118705,128.46870677731548,-205.3319845249001,17.43112154370522,88.33153082503989,-39.32123899140046,49998.85037579499
B,199.83055139912656,129.94505194151557,-200.83901414275425,19.558437602543513,95.48134190583448,-33.91078073276256,49999.00254717382
G,197.5590391471115,128.36527930766937,-209.74256209554653,11.259920149743525,87.68421465349599,-40.44030134736575,49997.57911000982
R,195.90163843021202,128.33598473882483,-207.89992273439455,17.311962503183665,82.49558630467118,-40.67996560367762,49997.45625220948
B,199.67476541010964,129.82146364760504,-201.75266943304047,18.731504913795284,87.32981657147347,-41.88549971961226,49997.5402198005
B,199.67578230880798,129.8224782923751,-201.750448660543,18.73372414859919,87.33428945059134,-41.88103288233595,49997.5402222475
R,194.286488926047,129.0126179788287,-210.23395862609797,19.223909897996396,78.99448855013426,-38.32414754258042,49996.600314045405
G,197.38529444444217,128.19826745691395,-210.44554052436476,10.562893133776313,82.6029973883652,-45.49524551031112,49996.66552978016
G,198.25697464542603,129.0697612232118,-207.93065833708272,13.077554145563349,87.56328295845134,-40.53572237476436,49996.665532821484
R,193.0647202697683,128.36117975166775,-211.71473493246458,18.860439716354957,69.67712506664321,-45.121191309787484,49995.9288601324
B,198.43058427677047,128.5772802603376,-207.83162428172028,12.652548527421906,82.03169041724742,-47.183631915679875,49997.115855562144
G,198.25853717959257,129.07114920063484,-207.92654178482178,13.081462247705579,87.57165486631466,-40.52806194583793,49996.66553550126
R,193.73010446077845,129.67113467150338,-209.57780186682072,22.28651423964974,64.3163327457725,-47.61486501966504,49994.9478311282
B,197.8028421216578,129.07191213591358,-211.30133495309914,13.959098376809862,78.67084445653047,-46.2277192253539,49995.804619777606
G,198.260096488661,129.0725339731876,-207.92243423840677,13.085361367732723,87.58000895878092,-40.52041924965081,49996.665538181034
R,194.60108572552096,130.84105301057065,-207.14954945642026,25.312640798699697,59.477590246329996,-50.949357794477116,49993.96680212795
B,197.18142765581615,129.5728716963532,-214.75437061140616,15.28232323035649,75.34096921856077,-45.240835825794896,49994.49338399514
G,198.2616525945584,129.0739155627494,-207.9183356369263,13.089251566500058,87.58834535656736,-40.51279416568122,49996.665540860806
R,195.4737337565041,132.01042795692945,-204.71876597971473,28.336878106156572,54.64402419224947,-54.28762518391063,49992.98577313188
B,196.83334105174828,130.3471591142009,-217.48519974684794,17.327754597930735,73.55174777632901,-42.713298643916424,49993.18214821473
G,198.26320551895998,129.0752939909478,-207.91424592016418,13.093132904168034,87.59666417901066,-40.50518657478662,49996.66554354058
R,196.34730750155646,133.179543333069,-202.28682747972582,31.359899868319864,49.813692195706025,-57.62812645381363,49992.004744139995
B,196.48478971477587,131.1209817971232,-220.21722663757788,19.37198820563477,71.7600466058692,-40.18824119793628,49991.87091243516
G,198.26475528329303,129.07666927916304,-207.91016502858824,13.097005440213437,87.60496554408918,-40.497596359181486,49996.66554622034
R,197.23864990989068,134.33683065551443,-199.83047678436782,34.34814039190025,45.0529973645788,-61.04100574377173,49991.02371515443
B,196.135571973583,131.8941380737978,-222.95098964461712,21.414485692435537,69.96472195500853,-37.66680724004634,49990.559676656434
G,198.26630153316447,129.07804357556643,-207.9060962143932,13.100871662723948,87.61324927631921,-40.49001422840779,49996.66554831198
R,198.18078782894767,134.9275629888985,-197.84872445363104,35.801064717667394,45.60374071521015,-61.63263531420433,49990.31526666198
B,194.93641817126775,132.62922851304904,-223.67394631673807,23.473358899970048,70.27380538090914,-34.64363968286201,49989.68489095064
G,198.26784459576933,129.0794141107372,-207.90203356490144,13.104728402101307,87.62152139566834,-40.4824510034564,49996.66555081202
R,198.09883488515487,134.98400567554611,-198.1184300207454,35.67114027566927,41.46698616066841,-65.48261225398639,49989.98676807474
B,194.27472073838433,131.96753108016563,-227.44990111889186,19.697404097816253,65.17585428445457,-39.741590779316574,49988.863767524745
G,198.2693836647122,129.0807829845076,-207.89797935269556,13.108583739615291,87.6297735915279,-40.47489392804633,49996.665553271516
R,197.90322813695133,134.33129373782657,-196.89500448916598,36.18398485603833,38.88306263582612,-69.36948937625544,49989.57080397354
B,193.57990990860552,131.35959803666807,-228.44134402126886,18.84496565348929,63.63583999426943,-40.95146948163286,49988.53526876945
G,198.2709196532004,129.0821487977067,-207.8939337445827,13.112430496365194,87.63800876818635,-40.46735379058121,49996.66555573101
R,197.7604217309706,133.50776576709922,-196.00031129640456,36.295391443299586,37.27418008086671,-73.90448234770493,49989.15483987325
B,193.1292642565341,130.9946784925589,-229.1559232028831,18.267548244614645,63.586004157636324,-40.67554610800948,49988.20677001519
G,198.27245258152166,129.08351157057658,-207.88989668417605,13.116268728684295,87.64622703737653,-40.45983047951476,49996.66555819049
R,197.61795592429192,132.68351748836213,-195.10620187819507,36.405067664744564,35.66776485426334,-78.44243139153005,49988.738875773895
B,192.6804732126398,130.63107166783672,-229.8686990089472,17.691067189225897,63.546159249563495,-40.39169098322831,49987.878271261165
G,198.2739833839812,129.08487034788504,-207.88586873400305,13.12009391581886,87.65442831947,-40.45233216313002,49996.6655604477
R,197.91639222563515,132.64234261945037,-194.38841297705454,36.6721131318343,32.98709970664883,-82.32885780158819,49988.260376643404
B,192.5884870172971,130.80894399393495,-231.79829846252005,16.053035460019004,63.52532669633646,-39.41942409068434,49987.1338081784
G,198.27551116778037,129.0862261262831,-207.8818492161054,13.123910693852414,87.6626129228073,-40.44485044478948,49996.6655627049
R,198.21543488729037,132.59953564690255,-193.67083669103073,36.93522637340899,30.311271277703025,-86.2215454051404,49987.781877514004
B,192.50958452587136,130.9998994872049,-233.7381152849091,14.404786040081598,63.344879477995924,-38.60677379551463,49986.38934509621
G,198.27703595252234,129.0875789253292,-207.8778380759871,13.1277191172284,87.67078095536728,-40.43738521669714,49996.66556496209
R,198.58813349160295,132.31761472728158,-192.99711878267243,36.63644838824153,28.30866636858068,-91.02093006097505,49987.303378385695
B,192.45040576255295,131.21057592812306,-235.69444619337239,12.740020865801474,62.91788387090397,-38.04068189874808,49985.644882014676
G,198.27864311050132,129.08885680673248,-207.8739458024563,13.13131655426929,87.67869934979493,-40.43033289570635,49996.66556716688
R,198.14449642769827,131.87634345846325,-194.00263255905486,35.635666202031814,26.04550563935762,-93.2734443647893,49987.303378385695
B,192.19966015023618,130.96997921827415,-237.36360701183966,11.081008949802044,63.216581925126384,-37.7135669176157,49985.00477108532
G,198.2802474138405,129.09013187011385,-207.8700614659957,13.13490608894708,87.68660203744007,-40.423296171660695,49996.66556937167
R,197.70090873785074,131.43506000955418,-195.00807691628512,34.634830326678426,23.782518878946767,-95.52607987634404,49987.303378385695
B,191.94905622764895,130.7295212444607,-239.03245719540405,9.422304715011451,63.515913269458714,-37.38582691671673,49984.36466015755
G,198.2818488803012,129.09140413315134,-207.86618501730393,13.138487770484126,87.69448911600422,-40.416274947112164,49996.66557157645
R,197.25735842601952,130.9937693031309,-196.01346789032812,33.63395856345133,21.51966479196908,-97.77879676020687,49987.303378385695
B,191.69856199071222,130.48916993375485,-240.70106618582588,7.7638386508204995,63.815730576560924,-37.0576094161681,49983.72454923138
G,198.28344752745778,129.0926736133365,-207.86231640759596,13.142061647587008,87.70236068216398,-40.40926912563611,49996.665573781225
R,196.81383746825048,130.55247427006503,-197.01881626905077,32.63306203413502,19.256915861642238,-100.03157000993889,49987.303378385695
B,191.44815623489262,130.24890400883973,-242.3694802585327,6.105564409018154,64.11593751631911,-36.7290109498774,49983.0844383068
G,198.2890294957337,129.0971070910004,-207.84879794627935,13.154543003842786,87.72987022436163,-40.38480245735701,49996.665584184375
R,196.64212782782363,130.3697715462832,-202.69362165496096,26.936270481514917,10.117691003725067,-109.21944476491181,49985.97355932012
B,191.2424330244919,131.35857258274945,-250.4261894887723,2.4255154339815164,56.47552163273114,-35.896345048772744,49979.732640301736
B,195.12319250689256,135.23826042415155,-240.43770885910462,12.412917234745558,76.00682762541297,-16.368020557539197,49979.732650901286
R,198.97318809079104,132.37247753745936,-195.9751054720035,32.99807812088987,1.3551300591980429,-119.44206007238856,49984.2941855417
G,194.1562202280717,129.0762542175957,-221.08907166602586,13.0954088994059,75.94743018270461,-40.49985056698115,49991.7717962959
R,201.7527109610679,132.77979049025907,-189.69897311491098,34.025193413110166,23.274770605972712,-117.43270758804394,49982.744489313016
G,197.56008356381545,133.5848980510299,-211.16495088562354,25.229090675189155,86.36388544208418,-25.366151807973132,49991.232186336885
B,193.8520165718161,134.09585955844707,-243.18032231315453,9.86277761240828,71.48533496910534,-20.663702333350734,49978.69733491601
R,201.7527109610679,132.77979049025907,-189.69897311491098,34.025193413110166,23.274770605972712,-117.43270758804394,49982.744489313016
G,197.56008356381545,133.5848980510299,-211.16495088562354,25.229090675189155,86.36388544208418,-25.366151807973132,49991.232186336885
B,193.8520165718161,134.09585955844707,-243.18032231315453,9.86277761240828,71.48533496910534,-20.663702333350734,49978.69733491601
B,195.25924196613394,135.50248065234493,-238.96512243128234,14.077366032844807,79.90952646807938,-12.24118385041527,49978.697345468616
R,204.08331874033584,134.7827454732897,-182.9811551776848,40.08770575786175,14.510296702870972,-127.6538726847524,49981.065115520614
G,193.4240327635207,133.56077984907475,-224.41439048428725,25.16076674431592,74.5634682886484,-25.499240977188535,49986.33839845273
R,206.57801575338223,135.19416096957923,-175.56371652247438,41.12523152492674,37.31650594623813,-125.62406338527407,49979.68262212577
G,193.34629594215414,133.48607597075716,-224.59141911725044,24.989803997450647,70.26588004746648,-29.783996454553634,49985.785673693856
B,194.678396490517,134.92252318360778,-240.2356034226774,12.807773048329562,77.5555866460308,-14.59086123944077,49977.27115258809
R,206.57801575338223,135.19416096957923,-175.56371652247438,41.12523152492674,37.31650594623813,-125.62406338527407,49979.68262212577
G,193.34629594215414,133.48607597075716,-224.59141911725044,24.989803997450647,70.26588004746648,-29.783996454553634,49985.785673693856
B,194.678396490517,134.92252318360778,-240.2356034226774,12.807773048329562,77.5555866460308,-14.59086123944077,49977.27115258809
R,207.14152664613513,139.36221918965379,-169.28834299935517,51.87053196869397,53.03355511812936,-104.30649568215028,49978.13292588162
G,194.04341452634122,134.4014788905774,-222.47336764911228,27.544424136855152,65.81417773702091,-33.30368151966206,49985.24606373094
B,193.4054891580369,133.7784177773618,-242.9831510062413,10.252726153428412,73.02411304012402,-18.89639505280738,49976.235836595886
R,207.14152664613513,139.36221918965379,-169.28834299935517,51.87053196869397,53.03355511812936,-104.30649568215028,49978.13292588162
G,194.04341452634122,134.4014788905774,-222.47336764911228,27.544424136855152,65.81417773702091,-33.30368151966206,49985.24606373094
B,193.4054891580369,133.7784177773618,-242.9831510062413,10.252726153428412,73.02411304012402,-18.89639505280738,49976.235836595886
G,197.11068000394965,137.46756560889554,-213.62824717848974,36.388268373719676,83.25655996503615,-15.866114897538466,49985.2460717311
R,204.3396308373355,137.8860752075476,-170.70066341191992,53.442142899025065,44.98938172723746,-106.31708940536551,49977.607927015364
B,191.3176071094657,131.69053572879062,-254.80539114795738,-1.5695139882876834,61.27703850088267,-30.64346959204874,49972.98084764388
B,195.54766033880213,134.17293035286335,-245.4489696348422,5.340182609854053,81.30157942647469,-17.60956336659381,49972.98085583888
R,204.30571252397758,138.21868115248154,-179.75267468237718,44.78687595501426,50.77826331463219,-98.6049263220477,49976.06381950186
G,196.17673814168282,136.53477831492538,-218.03184148075945,31.986465483626997,55.43905203632422,-43.67831181208568,49980.6375084579
R,205.80311172489684,143.1599357564704,-172.09715972959967,57.31840997042913,61.38475366161852,-79.78526922322604,49974.67636378771
G,197.9144520665901,139.78270600163412,-208.3056561866539,44.73307830133552,71.75623392418407,-20.9167126958606,49979.47576902662
B,195.3774581887523,134.14191689587557,-245.8239288463521,5.283763344582994,77.15511328594852,-21.036381215322002,49971.29631652372
R,205.80311172489684,143.1599357564704,-172.09715972959967,57.31840997042913,61.38475366161852,-79.78526922322604,49974.67636378771
G,197.9144520665901,139.78270600163412,-208.3056561866539,44.73307830133552,71.75623392418407,-20.9167126958606,49979.47576902662
B,195.3774581887523,134.14191689587557,-245.8239288463521,5.283763344582994,77.15511328594852,-21.036381215322002,49971.29631652372
B,197.93300825403279,136.69572505483163,-238.57455184899632,12.530702451079733,90.20178958189561,-7.996664918079967,49971.29632760867
R,204.22310572857742,146.90846092764411,-176.38515841021655,66.49630879239567,68.6454463421879,-60.22940026236182,49970.93355650249
G,197.12687403615604,138.99892562370817,-209.74325049457855,43.301407177777385,46.918808952315956,-45.736668466191496,49976.37078322936
B,197.93475433959887,136.69711671761792,-238.57053756191732,12.534347003827554,90.21079347512485,-7.989338341557964,49971.29633684454
R,202.62811437664263,145.47072910588017,-178.80210744991874,64.18202887496135,40.276603142180974,-88.08755713324399,49966.67882094755
G,197.84479265037265,141.7055085135693,-212.71229337912885,44.30969284451609,43.559361044823916,-40.6041723916248,49973.58508670903,-50000
B,197.0368137716561,137.3425164268302,-238.89798097556223,15.032277424608807,87.18790203920159,-5.605575380353718,49970.40384623644,-50000
R,198.51470500858437,142.37542087178102,-224.19195638501296,32.83002983863197,43.994731977756544,-40.16880145869217,49970.70956879888,-50000
B,197.03888147035252,137.3441668687899,-238.8936952560409,15.03628784326123,87.19799845768841,-5.597143224972894,49970.403856241996,-50000.0
B,197.04208748127647,137.3438438784513,-238.88974635203604,15.032619532136529,87.19618715863571,-5.610707538117,49970.4038597989,-50000.0
R,198.14537256262201,142.03768409937058,-225.44585310201268,31.613401990699618,10.172210719814593,-73.8688531855091,49966.138066727086,-50000.0
G,194.3196833000156,134.64022847682614,-273.43300472883317,-19.44706910882951,48.50043545515741,-44.243840299593415,49963.12213662545,-50000.0
G,200.36564109541712,138.18495600061456,-259.89377037188785,-9.407623101386317,77.5590212262503,-24.68621089316223,49963.12214715758,-50000.0
R,197.87815320148914,141.7913154042224,-226.2517207967983,30.849235627883363,-1.2591993390958809,-85.2074289862885,49965.444451327894,-50000.69361539919
B,190.47353945278766,131.90962578952946,-261.74563443878384,-6.431690716207839,72.39904099110075,-19.0839147464871,49966.729756497014,-50000.0
B,195.93718974204216,137.37227095415318,-247.64796670796986,7.664961612707394,99.89116317569412,8.40542038270879,49966.72977165324,-50000.0
R,197.80683497116456,141.73029292691302,-226.45723042552555,30.66431750518653,-13.943916472876802,-97.84626659635998,49964.64444188675,-50001.49362484034
G,199.5166476859984,143.20968785576804,-264.4922996396847,4.823536463466599,88.61629486180864,3.0372933748481508,49956.1310216643,-50000.0
B,195.93895551542286,137.37316772432175,-247.6445935652037,7.667474909648824,99.8992527218358,8.41035867456046,49966.72978476114,-50000.0
R,196.38405748401826,140.30751543976672,-230.37695754582543,26.744590384886656,-28.529794389330995,-112.43214451281418,49964.64444188675,-50001.49362484034
G,194.21236872645,140.7138613854496,-287.86086217158305,-5.630011036074592,55.787936127444816,-14.115413649797862,49950.11300901673,-50000.0
G,200.25642231059777,144.25894277244737,-272.8258636304113,4.410421341701234,84.84180653822833,5.44420327316552,49950.11302524306,-50000.0
R,198.63862412016442,143.32737769583983,-241.6822882907121,16.007703635351586,-55.57046131237405,-135.786448620679,49958.67282406976,-50001.49362484034
B,193.3093019887991,134.80022050400007,-278.9491945802257,-23.46527985646915,62.056904195602044,-29.2107771171825,49959.343533718566,-50000.0
B,197.69087314189886,139.17606826974057,-266.66336582449225,-11.186909904915659,86.48725893218128,-4.803907446995712,49959.34354664987,-50000.0
R,198.20433693185456,142.89309050752996,-243.21281666732344,14.477175258740264,-68.59985146483822,-148.81583877314318,49958.12524241364,-50002.04120649646
G,192.55948137176148,143.54888697970054,-287.0548614614947,2.827090395412593,58.923740810527775,2.9830515831006577,49945.56781756298,-50000.0
B,197.70814809188664,139.19229460851435,-266.6169247923297,-11.141529249805874,86.57732150926164,-4.717837215346118,49959.34355985871,-50000.0
R,197.90034896261375,142.58910253828915,-244.28412977321605,13.405862152847652,-81.9007896651525,-162.11677697345746,49957.491910550896,-50002.674538359206
G,189.33807492620318,146.4451344465209,-298.7628330666074,11.898617244855192,54.75862859132765,21.120947816409352,49939.61117835773,-50000.0
B,197.72423656473796,139.20733594215008,-266.57375593268034,-11.099419210332414,86.66133927058009,-4.637806097853497,49959.34357306742,-50000.0
R,197.59635906389295,142.28511263956835,-245.35546533537018,12.334526590693518,-95.20159462199057,-175.4175819302955,49956.858587558214,-50003.30786135189
G,186.1949759830828,149.27257292644038,-310.41416156505056,20.763717132074298,50.86525348379856,38.85520976724955,49933.65453914529,-50000.0
B,197.74191007432697,139.224005142877,-266.53083247453793,-11.058089365172854,86.71857927008385,-4.584556852935647,49959.34358441931,-50000.0
R,195.03586695176406,139.14087603095328,-246.1876181134278,10.958611600413244,-114.01549767208456,-196.43853476574262,49955.583590477836,-50003.30786135189
G,180.46962362659477,143.54722056995234,-329.24983088910784,1.9280478080170056,21.485081930202014,9.475038213653,49930.11229685192,-50000.0
B,197.75642490548523,139.2374752097192,-266.49201522179595,-11.020328423054819,86.79452638926983,-4.512587180902207,49959.343597627805,-50000.0
R,194.73187432479654,138.83688340398575,-247.258989036094,9.887240677747046,-127.31606160753839,-209.73909870119644,49954.950283025515,-50003.94116880421
G,180.98521323933852,144.21552154148037,-341.4982389659385,4.315735300165345,29.721635676427372,14.572959106206284,49924.15565784442,-50000.0
B,197.77026501745553,139.25027004322953,-266.45507716824125,-10.984441253810541,86.86697790890489,-4.444102736384079,49959.34361023298,-50000.0
R,194.61990910978747,138.7249181889767,-248.0360068725745,9.110222841266552,-140.10336722323703,-222.52640431689508,49954.950283025515,-50003.94116880421
G,182.4559566729996,145.36542714991492,-351.0342671684207,7.765452125469031,42.2959002705294,21.303284952222796,49917.339957388605,-50000.0
B,197.78352512289834,139.26248604088562,-266.41974885252665,-10.950162584508663,86.93642697274464,-4.378616213598581,49959.34362283804,-50000.0
R,194.50794369596875,138.61295277515796,-248.8130343393176,8.333195374523433,-152.89061022074543,-235.31364731440348,49954.950283025515,-50003.94116880421
G,183.91774895188297,146.51871357722493,-360.5577803978991,11.225311407399072,54.840198022168764,28.053392043899102,49910.52425693138,-50000.0
B,197.79628065660748,139.2741985861325,-266.3858223958122,-10.917284590739374,87.00325662924077,-4.315744763096203,49959.34363544299,-50000.0
R,194.39597799904402,138.50098707823324,-249.5900694169166,7.556160296924432,-165.6777990575037,-248.10083615116176,49954.950283025515,-50003.94116880421
G,184.1653032918723,148.16675330882802,-368.1091055954581,16.169430602208326,63.40927176424563,37.69923926599062,49903.70855647277,-50000.0
B,197.8118297978135,139.28449155911235,-266.3528168370672,-10.891397619199191,87.0512159431556,-4.284367167395015,49959.34364618184,-50000.0
R,195.19883128294535,135.8407789267427,-265.95296467187893,-10.797981760571762,-146.84064773624243,-253.82647593177256,49950.81610786827,-50003.94116880421
G,188.24894082604553,152.25039084300124,-351.85998564309324,32.4185505545732,49.44875819655706,23.738725698302048,49899.147633541856,-50003.79723706445
R,203.51295563350774,135.8617940084275,-258.549327556131,-10.741432561582267,-124.61537289652479,-253.70278151746473,49950.8161185132,-50003.94116880421
G,189.5636864540818,154.30013539729669,-360.8848236680544,27.4362066240375,43.45660496787087,24.36156280594848,49892.59790080384,-50003.79723706445
B,193.372733027384,135.05463951618728,-291.6464963294859,-35.879998488698604,50.10240631946131,-40.606277283358835,49953.746090239045,-50000.0
R,207.66054225255778,135.9174528958034,-253.29938700835262,-10.661008736325444,-111.3926852781946,-253.50701443166398,49950.8161185132,-50003.94116880421
G,192.40295059902445,157.13939954223935,-350.39213512804395,37.92889516404796,54.88316518607501,35.788123024152625,49892.59790080384,-50003.79723706445
B,197.51972888951977,139.3287107068983,-288.5077229500213,-32.48059213753418,67.51420725604554,-22.772217010114133,49952.114509871215,-50000.0
R,211.80807866933455,135.97318096136036,-248.0494507142546,-10.580447701823424,-98.17007894919882,-253.310933589143,49950.8161185132,-50003.94116880421
G,192.2846467032826,157.02109564649749,-348.2756734717374,40.045356820354506,49.92091938089941,30.825877218977027,49892.59790080384,-50003.79723706445
B,201.36275458695033,143.29881193442216,-284.80152876725083,-28.513764838726132,85.65395605966778,-4.2102081898680765,49950.482929456564,-50000.0
B,202.99445112464494,144.93000190499097,-280.34553041998964,-24.05857377896613,93.66471586357498,3.798555826491649,49950.48293556725,-50000.0
R,211.61704072512472,135.81463063334252,-248.47326563871633,-10.970875750520293,-101.92208587488074,-256.9398371671181,49950.5627943521,-50004.194492965304
G,191.99181657196775,156.72826551518264,-347.9160076760988,40.405022615993076,53.05784263399886,33.962800472076474,49890.92035967319,-50003.79723706445
B,203.00001106377238,144.93518062108853,-280.3327042313429,-24.04635434626378,93.67877247679517,3.8111179461550857,49950.48294166245,-50000.0
R,211.42600606557096,135.65607566117865,-248.89708437163455,-11.361316146162162,-105.67408543057743,-260.5687631173833,49950.30947068574,-50004.44781663167
G,190.53822655892031,155.2746755021352,-350.0109560551434,38.31007423694841,49.49323502316152,30.39819286123913,49889.24281854016,-50003.79723706445
B,203.0055062953645,144.9402948205039,-280.32002198585553,-24.03427855139028,93.69276670187541,3.8236184409155953,49950.48294775762,-50000.0
R,211.2349744309647,135.49751637787946,-249.32090665895882,-11.751767995385379,-109.4260780631544,-264.1977096694367,49950.056147494244,-50004.70113982316
G,190.24677281648346,154.98322175969835,-349.65653782994707,38.664492462144736,52.64048140456329,33.545439242640896,49887.565277411966,-50003.79723706445
B,203.01093939727494,144.94534707963066,-280.30747808827056,-24.022340801424473,93.70669989650078,3.8360586626195348,49950.482953852756,-50000.0
R,211.04394558925438,135.33895308288535,-249.74473227112543,-12.14223049519584,-113.17806417820897,-267.8266752397542,49949.80282475894,-50004.95446255847
G,189.95313094732987,154.68957989054476,-348.4724236532289,39.84860663886293,55.510889941153984,36.41584777923159,49885.88773628139,-50003.79723706445
B,203.01631519645076,144.9503397988855,-280.29506532271637,-24.01053588619105,93.72057121873549,3.8484398664550192,49950.48296001378,-50000.0, 1000
R,210.94034493352214,135.2678234983036,-249.90990442953137,-12.274034174575924,-116.63627422362454,-271.1618435781559,49949.508677940954,-50005.24860937645, 1000
G,186.80048450453324,151.53693344774814,-349.90621000485555,38.414820287236275,52.01855582847514,32.92351366655274,49885.88773628139,-50003.79723706445, 1000
B,203.0200493921525,144.95380773565645,-280.28545553381883,-24.00119877095109,93.73998754169419,3.8668333964637487,49950.482963014925,-50000.0,1000.0
R,212.00741806628758,135.49568180754594,-249.92968186895627,-11.623967735569469,-123.30696452936247,-269.794693722702,49946.563470795976,-50005.24860937645,1000.0
G,186.1719584808412,150.9084074240561,-360.2374282432365,28.08360204885533,44.3916818745882,25.296639712665808,49885.37774434113,-50004.307229004706,987.2563758679047
B,203.02375950269024,144.9572517856473,-280.2759106055326,-23.991926317923475,93.75927488595121,3.8850987017040284,49950.482966016054,-50000.0,1000.0
R,213.07450201875753,135.72353453673728,-249.94945962211318,-10.973917218157851,-129.97762899737023,-268.427577347554,49943.61826365577,-50005.24860937645,1000.0
G,186.0968358005843,150.8332847437992,-369.1054417079601,19.215588584131687,39.8882194680724,20.793177306150007,49884.86775287754,-50004.8172204683,974.5127637580058
B,203.02744602915362,144.96067244830147,-280.26642918500016,-23.98271717589697,93.77843594451977,3.903238468933261,49950.482969017175,-50000.0,1000.0
R,214.141595759194,135.9513822464582,-249.96923745681144,-10.323881022971129,-136.64826998697018,-267.0604910892285,49940.67305652036,-50005.24860937645,1000.0
G,186.02199125778853,150.75844020100342,-377.97266654727923,10.348363744812549,35.386376688637625,16.29133452671523,49884.3577618649,-50005.32721148094,961.7691629442112
B,203.03110945504903,144.96407020551413,-280.25700996679404,-23.973570041055524,93.79747331590086,3.9212552905290483,49950.48297201829,-50000.0,1000.0
R,215.20869840241934,136.17922541932884,-249.9890151930057,-9.673857773058748,-143.31888952450336,-265.69343205200465,49937.72784938977,-50005.24860937645,1000.0
G,185.94726782463562,150.6837167678505,-386.8395423368062,1.4814879552856066,30.88524262472892,11.790200462806524,49883.847771353474,-50005.83720199236,949.025574603655
B,203.03475024716323,144.96744552249433,-280.24765169059106,-23.96448365465369,93.81638950872113,3.9391516691224306,49950.48297501939,-50000.0,1000.0
R,216.2758091828502,136.40706447383357,-250.00879269024173,-9.023846274448383,-149.9894893644684,-264.3263977249763,49934.782642264,-50005.24860937645,1000.0
G,185.8726121910545,150.60906113426938,-395.70621850040243,-7.385188208310641,26.384507650138378,7.28946548821598,49883.33778140244,-50006.347191943394,936.2820001066316
B,203.03836885637253,144.9707988485732,-280.23835313899224,-23.955456800837794,93.83518694607989,3.95693002194043,49950.48297802048,-50000.0,1000.0
R,217.34292743452428,136.6348997749061,-250.02856984090022,-8.373845485947108,-156.66007103337935,-262.95938591854116,49931.837435143076,-50005.24860937645,1000.0
G,185.79799980582916,150.53444874904406,-404.5727635015628,-16.251733209471006,21.8840293581139,2.7889871961915036,49882.827792082135,-50006.8571812637,923.5384410601633
B,203.04196571840203,144.97413061796192,-280.2291131354776,-23.946488304601782,93.8538679696272,3.974592684879997,49950.48298102157,-50000.0,1000.0
R,218.41005257243094,136.86273164319348,-250.04834655818792,-7.723854492711592,-163.33063587536935,-261.59239470881687,49928.89222802702,-50005.24860937645,1000.0
G,185.72341731098504,150.45986625419994,-413.4392141120364,-25.118183819944605,17.38373060146862,-1.7113115604537743,49882.317803477024,-50007.36716986881,910.794899364786
B,203.04554125453842,144.97744125046367,-280.21993054248543,-23.937577029867665,93.8724348433934,3.9921419163335083,49950.482984022645,-50000.0,1000.0
R,219.47718408045262,137.09056036169275,-250.06812277371353,-7.073872487314169,-170.00118507795668,-260.22542239782126,49925.94702091584,-50005.24860937645,1000.0
G,185.6488566135027,150.38530555671758,-422.3055920653142,-33.98456177322246,12.88356506602943,-6.211477095892966,49881.80781568977,-50007.87715765607,898.0513772891255
B,203.04906367031603,144.9809502855552,-280.2106384367116,-23.928301322996177,93.89084928181249,4.010485117225122,49950.48298896431,-50000.0,1000.0
R,218.73489001433026,137.07484120540616,-252.4979007921352,-7.160936085417972,-178.97339243711562,-260.38891355768646,49924.98737924465,-50005.24860937645,1000.0
G,185.9488247671001,150.685273710315,-436.102273148087,-47.78124285599528,9.487599154864112,-9.607443007058285,49881.80781568977,-50007.87715765607,880.3818795454367
B,203.05256560474731,144.98443836602223,-280.2014025649522,-23.91908222639242,93.90914615093834,4.0287160572380545,49950.48299348621,-50000.0,1000.0
R,218.1801912258183,136.13787182249413,-255.42486595183644,-9.9731276608699,-186.18799927261986,-266.80157399706127,49924.15545918057,-50005.24860937645,1000.0
G,185.80941015428849,150.54585909750338,-447.6251635204018,-59.30413322831009,5.241345107823508,-13.853697054098888,49881.80781568977,-50007.87715765607,865.0071454553879
B,203.0560469088972,144.98790581629194,-280.19222240465643,-23.90991884118033,93.9273325413475,4.04683651889808,49950.48299800809,-50000.0,1000.0
R,217.6254995485213,135.20089987643613,-258.3518297082685,-12.785326035626381,-193.4025819173132,-273.21424935943276,49923.323539352445,-50005.24860937645,1000.0
G,185.6700058411819,150.4064547843968,-459.1479804438423,-70.82695015175055,0.9951674481161996,-18.099874713806194,49881.80781568977,-50007.87715765607,849.6324744085462
B,203.05950796859742,144.99135302219554,-280.18309691253694,-23.900810124073033,93.94541052702856,4.064848576191614,49950.48300252996,-50000.0,1000.0
R,217.07081435976536,134.26392569541147,-261.2787918933849,-15.597530240456823,-200.6171422114538,-279.62693764831454,49922.49161977405,-50005.24860937645,1000.0
G,185.53060891161888,150.26705785483378,-470.67071981565977,-82.349689523568,-3.250945666463979,-22.345987828386374,49881.80781568977,-50007.87715765607,834.2578840160785
B,203.0629491575144,144.99478035739892,-280.17402507816746,-23.89175506464466,93.96338211654968,4.082754237684646,49950.483007051815,-50000.0,1000.0
R,216.5161351031194,133.32694957519269,-264.20575234696634,-18.409739395459876,-207.83168180333695,-286.03963705906364,49921.65970046046,-50005.24860937645,1000.0
G,185.39121680199156,150.12766574520646,-482.19337050416294,-93.87234021207118,-7.497001148419746,-26.59204331034214,49881.80781568977,-50007.87715765607,818.8834004853668
B,203.06637083768646,144.99818818394,-280.16500592253357,-23.88275268388124,93.98124925594611,4.1005554494103045,49950.483011573655,-50000.0,1000.0
R,215.96146127779997,132.38997178541905,-267.1327109121841,-21.221952691746235,-215.04620217670933,-292.45234594089794,49920.82778142821,-50005.24860937645,1000.0
G,185.2518268827309,149.9882758259458,-493.7159108173383,-105.39488052524653,-11.743000826584547,-30.838042988506942,49881.80781568977,-50007.87715765607,803.5090653221539
B,203.06977336003084,145.00157685273544,-280.15603849666553,-23.87380203281341,93.99901383144466,4.118254097593319,49950.48301609548,-50000.0,1000.0
R,215.40679242988313,131.4529925748575,-270.05966743170575,-24.034169375939793,-222.26070467367094,-298.8650627649311,49919.99586269551,-50005.24860937645,1000.0
G,185.1124358442928,149.8488847875077,-505.2382997694272,-116.91726947733545,-15.988938729035503,-35.083980890957896,49881.80781568977,-50007.87715765607,788.134950184342
B,203.07315706482214,145.00494670405942,-280.1471218803471,-23.8649021912253,94.01667767203622,4.135852011222558,49950.48302061729,-50000.0,1000.0
R,214.85212814491803,130.5160121759097,-272.9866217441248,-26.846388736743783,-229.47519051397634,-305.2777860966596,49919.16394428247,-50005.24860937645,1000.0
G,184.973038300316,149.7094872435309,-516.7604535201156,-128.43942322802383,-20.234790519853117,-39.329832681775514,49881.80781568977,-50007.87715765607,772.7611957408509
B,203.07652228214468,145.0082980679958,-280.1382551808954,-23.856052266434496,94.03424255190673,4.1533509644819295,49950.48302513909,-50000.0,1000.0
R,214.2974680416273,129.5790308085697,-275.91357368053394,-29.658610092970374,-236.6896608114501,-311.6905145716615,49918.332026211385,-50005.24860937645,1000.0
G,184.83362195460572,149.5700708978206,-528.28216390794,-139.96113361584827,-24.4804638311277,-43.57550599305009,49881.80781568977,-50007.87715765607,757.3881446133155
B,203.07986933232007,145.01163126486574,-280.1294375320073,-23.84725139213824,94.05171019273581,4.170752679049114,49950.48302966087,-50000.0,1000.0
R,213.74281176644564,128.64204868399875,-278.84052306107935,-32.470832782533044,-243.9041165880842,-318.10324687348475,49917.50010850707,-50005.24860937645,1000.0
G,184.69413473195596,149.43058367517085,-539.8026021714327,-151.48157187934092,-28.72530043445074,-47.82034259637313,49881.80781568977,-50007.87715765607,742.0171373093328
B,203.08319931557466,145.01494679660905,-280.1206704075516,-23.838498265411307,94.06908053900888,4.188059755746092,49950.48303344716,-50000.0,1000.0
R,212.6770769024228,127.65628828491067,-282.16878411344766,-35.716353782360024,-249.55302282095454,-323.4637463785803,49917.50010850707,-50005.24860937645,996.9970328189409
G,183.56068065339403,148.29712959660893,-547.2124426666435,-158.8914123745517,-33.47677027828293,-52.57181244020532,49881.80781568977,-50007.87715765607,731.3230157626384
B,203.08651116581558,145.0182447383695,-280.1119473587154,-23.82979261798381,94.08635709138368,4.205272713902293,49950.48303800979,-50000.0,1000.0
R,211.85080316887672,126.88576204808604,-286.2583661610291,-39.74826166615044,-255.23212828861082,-328.94182282868815,49917.50010850707,-50005.24860937645,993.1340883522973
G,182.4834154368392,147.2198643800541,-550.5170585538384,-162.19602826174662,-39.26524511300079,-58.36028727492318,49881.80781568977,-50007.87715765607,727.7499760890199
B,203.0898057552356,145.02152541938577,-280.10327090920447,-23.82113356979943,94.10354127589477,4.222393304523408,49950.48304257241,-50000.0,1000.0
R,211.02398556248363,126.11488294706896,-290.34596588758086,-43.777989485429195,-260.9142862966205,-334.4222618151522,49917.50010850707,-50005.24860937645,989.273915116239
G,181.51190454862228,146.24835349183718,-553.9409867651377,-165.61995647304596,-45.66056012335328,-64.75560228527567,49881.80781568977,-50007.87715765607,724.3371087837836
B,203.09308336894412,145.02478912476678,-280.0946402878759,-23.81252034971562,94.12063462483309,4.239423059898598,49950.48304713501,-50000.0,1000.0
R,210.19708168728687,125.34394839058429,-294.4332404001356,-47.807360097315524,-266.59688432460075,-339.903028655656,49917.50010850707,-50005.24860937645,985.4142030109391
G,180.54066310153303,145.27711204474792,-557.364681334144,-169.04365104205223,-52.05661494888956,-71.15165711081195,49881.80781568977,-50007.87715765607,720.9255151232363
B,203.09634601038718,145.02804391563623,-280.0860539691129,-23.803947299453824,94.13756057709205,4.256314501718131,49950.483049816714,-50000.0,1000.0
R,208.4452756704128,126.36376208109826,-293.65411672501955,-45.959708677749944,-264.4718649559173,-333.40538309906987,49915.72254541274,-50005.24860937645,985.4142030109391
G,180.34027860834033,145.07672755155522,-558.7527671420622,-170.43173684997038,-55.26164685662354,-74.35668901854594,49881.80781568977,-50007.87715765607,719.5499201247894
B,203.09959227026258,145.0312823249971,-280.0775118770838,-23.79541847583124,94.15439892063834,4.273118335086655,49950.483052498406,-50000.0,1000.0
R,206.69347111097073,127.38357210230312,-292.8749979162946,-44.11206773891332,-262.34685306041985,-326.90776408682217,49913.94498083348,-50005.24860937645,985.4142030109391
G,180.13988407069363,144.87633301390852,-560.140814461238,-171.81978416914617,-58.4666995879639,-77.5617417498863,49881.80781568977,-50007.87715765607,718.1744382123671
B,203.10282242720663,145.0345046137671,-280.069013260511,-23.786933173034548,94.17115216563195,4.289835961998914,49950.48305519078,-50000.0,1000.0
R,205.80866767624113,128.4033781562546,-293.6888845010403,-42.26443856684067,-266.59293832896043,-320.4101740833742,49911.95741426545,-50005.24860937645,985.4142030109391
G,179.72039196436788,144.45684090758277,-563.2016666324635,-174.88063634037155,-62.202980137994714,-81.29802229991711,49881.80781568977,-50007.87715765607,715.1262132980406
B,203.1060427625592,145.03771108211902,-280.06055158637923,-23.778490592416432,94.1878413789984,4.306468967112995,49950.48306058659,-50000.0,1000.0
R,205.04092288688975,127.76473154447031,-297.9726737895529,-46.42762883417731,-270.25919968843414,-323.55547710155076,49911.95741426545,-50005.24860937645,981.2953906143738
G,178.4237492447815,143.1601981879964,-563.9635058061633,-175.64247551407135,-68.8294901682981,-87.92453233022049,49881.80781568977,-50007.87715765607,714.9652292984143
B,203.10924142344916,145.0409018749453,-280.05213799560795,-23.770090315255587,94.20442621503534,4.323018185545515,49950.48306327894,-50000.0,1000.0
R,204.1561192568911,128.7845407689622,-298.78655409659706,-44.579989707929684,-274.5052722973692,-317.05786167158107,49909.96984975915,-50005.24860937645,981.2953906143738
G,178.0042443876693,142.7406933308842,-567.0242374145168,-178.70320712242486,-72.56580226099642,-91.66084442291881,49881.80781568977,-50007.87715765607,711.9172592256656
B,203.11242470529749,145.04407728878468,-280.0437659195817,-23.761731552757592,94.22092882898659,4.339485182128873,49950.483065971275,-50000.0,1000.0
R,203.2713175036889,129.80434791525076,-299.60043602256087,-42.73235652021401,-278.751344169256,-310.56026005669975,49907.98228481371,-50005.24860937645,981.2953906143738
G,177.58473405287106,142.32118299608595,-570.0849247774024,-181.76389448531046,-76.30212994273063,-95.39717210465302,49881.80781568977,-50007.87715765607,708.8693770114704
B,203.115598888005,145.04723760470216,-280.03542883150874,-23.753413557928962,94.23737129300217,4.355871438755615,49950.48307136703,-50000.0,1000.0
R,202.50355675163766,129.16570955280642,-303.8841563384076,-46.89545513176319,-282.41766210767,-313.705521661674,49907.98228481371,-50005.24860937645,977.1766820576153
G,176.28811505049495,141.02456399370985,-570.8467538263538,-182.52572353426194,-82.92847405894376,-102.02351622086616,49881.80781568977,-50007.87715765607,708.7085449178402
B,203.11875210028828,145.05038294908525,-280.0271379222945,-23.745135962079814,94.25371308856344,4.372177691015904,49950.48307405934,-50000.0,1000.0
R,201.61875494625917,130.18551953534728,-304.69803277774844,-45.04781330238478,-286.45372236770345,-307.2078974757113,49905.99472166685,-50005.24860937645,977.1766820576153
G,175.86859703522788,140.60504597844277,-573.8583546930766,-185.53732440098472,-86.6648161122406,-105.759858274163,49881.80781568977,-50007.87715765607,705.7098198618206
B,203.1218966645889,145.0535136467345,-280.0188807804445,-23.73689791329673,94.26999723166331,4.388405627295666,49950.48307945506,-50000.0,1000.0
R,200.85097580554685,129.54689167672643,-308.98168089923627,-49.21081270847875,-290.12010409556194,-310.35310608866956,49905.99472166685,-50005.24860937645,973.0580811386179
G,174.57198931997942,139.30843826319432,-574.6201832940372,-186.29915300194534,-93.29107992899421,-112.3861220909166,49881.80781568977,-50007.87715765607,705.5490474048473
B,203.12502069841761,145.05662981277072,-280.01066862729914,-23.728699073354836,94.2861830697929,4.404555922588138,49950.483082147344,-50000.0,1000.0
R,199.96617418629336,130.5667040192019,-309.7955527535764,-47.36316391984196,-294.156153867527,-303.85546313561747,49904.007160022375,-50005.24860937645,973.0580811386179
G,174.1524656823809,138.8889146255958,-577.6317387207157,-189.31070842862377,-97.02743124111606,-116.12247340303846,49881.80781568977,-50007.87715765607,702.5504172994771
B,203.12813046757188,145.05973171418592,-280.00249497417786,-23.72053873335686,94.3022926726126,4.420629982800844,49950.483084839616,-50000.0,1000.0
R,199.08137408428206,131.58651459309087,-310.6094259412563,-45.515520054615884,-298.1922032254516,-297.35783186160137,49902.01959802416,-50005.24860937645,973.0580811386179
G,173.73293965122693,138.46938859444182,-580.6432756230919,-192.322245331,-100.76378765142671,-119.8588298133491,49881.80781568977,-50007.87715765607,699.5518239073293
B,203.13123222381117,145.06281960397942,-279.9943533702196,-23.712416222202684,94.31834803466023,4.436629138871118,49950.48309023528,-50000.0,1000.0
R,198.31358549647774,130.94789207163205,-314.8930304663022,-49.67846200983556,-301.8586195341034,-300.5030151519233,49902.01959802416,-50005.24860937645,968.9395465073968
G,172.43634351328717,137.17279245650207,-581.4051015845795,-193.0840712924876,-107.38996848897767,-126.48501065090007,49881.80781568977,-50007.87715765607,699.3911124011889
B,203.13431406932702,145.06589358186235,-279.9862550783919,-23.704331243338885,94.33430842085075,4.452553982911948,49950.48309292753,-50000.0,1000.0
R,197.42878563226301,131.96770481424724,-315.706899542549,-47.83081192386841,-305.8946591390825,-294.00536677279314,49900.032037368,-50005.24860937645,968.9395465073968
G,172.01681383310705,136.75326277632195,-584.4166077437641,-196.09557745167217,-111.12632903324527,-130.22137119516768,49881.80781568977,-50007.87715765607,696.3925818399935
B,203.13738829984607,145.06895394607108,-279.97818775911554,-23.696283016693414,94.35021670378593,4.468406060425168,49950.48309832315,-50000.0,1000.0
R,196.66098454990944,131.32909003468305,-319.99045376827087,-51.993684662370015,-309.561119397378,-297.1505121865506,49900.032037368,-50005.24860937645,964.8210871794782
G,170.72022403840415,135.45667298161905,-585.1784335374568,-196.857403245365,-117.7524643288029,-136.84750649072532,49881.80781568977,-50007.87715765607,696.2318988500223
B,203.1404430082135,145.0720007869108,-279.9701627007672,-23.688271271151176,94.36603209799165,4.4841859129342865,49950.48310101537,-50000.0,1000.0
R,195.77618507318047,132.34890465739244,-320.8043192631434,-50.14602936399835,-313.5971499013905,-290.6528489979412,49898.04447787723,-50005.24860937645,964.8210871794782
G,170.30069153622395,135.03714047943885,-588.1899149667953,-199.86888467470345,-121.48882721076966,-140.58386937269208,49881.80781568977,-50007.87715765607,693.2334178301217
B,203.1434844353728,145.07503434659458,-279.96217348172127,-23.680295364832915,94.381776539595,4.499894813065899,49950.483103707586,-50000.0,1000.0
R,194.8913868626409,133.36871777298086,-321.6181858367096,-48.29837817497544,-317.63318006402636,-284.1551956734045,49896.05691811035,-50005.24860937645,964.8210871794782
G,169.88115775456882,134.6176066977837,-591.2013857198601,-202.8803554277683,-125.22519207225368,-144.3202342341761,49881.80781568977,-50007.87715765607,690.2349571886593
B,203.1465188094787,145.07805485459096,-279.9542137147957,-23.672354690281377,94.39747189632033,4.515533965192734,49950.48310910315,-50000.0,1000.0
R,194.1235794283093,132.73010688057707,-325.90170874258826,-52.46120999693464,-321.2996642267225,-287.30032346009796,49896.05691811035,-50005.24860937645,960.702675810377
G,168.58457508369835,133.32102402691325,-591.9632096931288,-203.64217940103694,-131.85127619324462,-150.94631835516702,49881.80781568977,-50007.87715765607,690.074306837031
B,203.1495342105125,145.08106238825306,-279.9462947233557,-23.66444901141336,94.41307731332869,4.531103841176345,49950.483111795336,-50000.0,1000.0
R,193.2387816181204,133.74992175077895,-326.7155720553468,-50.61355406674206,-325.33568586020186,-280.80265643102206,49894.069359398476,-50005.24860937645,960.702675810377
G,168.16503933176296,132.90148827497785,-594.9746618055467,-206.65363151345485,-135.58764156985032,-154.68268373177273,49881.80781568977,-50007.87715765607,687.0758826308528
B,203.15254291167335,145.08405722343684,-279.9384042284321,-23.656577608694416,94.4286355423466,4.546605866138749,49950.483117190866,-50000.0,1000.0
R,192.47096516436616,133.11131683573726,-330.9990576348565,-54.7763345448868,-329.00220207875583,-283.94775561162606,49894.069359398476,-50005.24860937645,956.5843204514705
G,166.86846083660052,131.60490977981542,-595.7364853411514,-207.41545504905952,-142.21369577352806,-161.30873793545047,49881.80781568977,-50007.87715765607,686.9152488678917
B,203.15553298506077,145.0870394295554,-279.93055357483877,-23.64874026751871,94.4441056860265,4.56204046923698,49950.48311988303,-50000.0,1000.0
R,191.58616784716043,134.13113325408446,-331.812918055484,-52.92867456839908,-333.0382156925539,-277.4500765106717,49892.08180161733,-50005.24860937645,956.5843204514705
G,166.44892350225774,131.18537244547264,-598.7479216396349,-210.4268913475431,-145.95006100754253,-165.04510316946494,49881.80781568977,-50007.87715765607,683.9168549837043
B,203.15851329394795,145.0900094667384,-279.92273021427695,-23.640933890460996,94.45952404810238,4.577417225540247,49950.4831252062,-50000.0,1000.0
R,189.9470944341007,135.50535260708963,-334.79455246125843,-50.28454934175504,-345.95266934660606,-272.31198900301627,49890.62941554889,-50005.24860937645,956.5843204514705
G,165.90445724937373,130.64090619258863,-603.1382749851107,-214.81724469301886,-151.00759597867253,-170.10263814059493,49881.80781568977,-50007.87715765607,679.5285943461744
B,203.16148414582034,145.09296682421805,-279.91494349300456,-23.633163537487835,94.47486369231143,4.592719240467857,49950.48313028536,-50000.0,1000.0
R,189.36991846233022,136.8838406433003,-338.29007596100473,-47.63213944424954,-344.6497062927871,-267.1579854640997,49888.87298238267,-50005.24860937645,956.5843204514705
G,165.79566794533568,130.53211688855058,-603.9028721493514,-215.58184185725955,-155.36588621313524,-174.46092837505765,49881.80781568977,-50007.87715765607,678.7654338814098
B,203.16444291143398,145.09591209554588,-279.90718937789575,-23.625425790595145,94.49013833463238,4.607956720758095,49950.48313536452,-50000.0,1000.0
R,188.7927569541158,138.26230813679012,-341.78564686050555,-44.97981503107654,-343.31205746572437,-262.0040324015328,49887.116534351306,-50005.24860937645,956.5843204514705
G,165.68687772739213,130.42332667060703,-604.6593967475252,-216.33836645543332,-159.72417566130582,-178.81921782322823,49881.80781568977,-50007.87715765607,678.0103501904126
B,203.1673897467824,145.09884543671495,-279.89946744690104,-23.617720227733777,94.50534927961276,4.623130504039195,49950.48314044366,-50000.0,1000.0
R,188.21561433882934,139.64074914247882,-345.2812794978739,-42.32760179134875,-341.9742821938929,-256.85014418172796,49885.36006696969,-50005.24860937645,956.5843204514705
G,165.5780866506325,130.3145355938474,-605.4159254168572,-217.09489512476534,-164.0824642903313,-183.1775064522537,49881.80781568977,-50007.87715765607,677.2552663709727
B,203.17031936468297,145.1017671875999,-279.8917798902466,-23.610045983116855,94.52049661764964,4.638242302585162,49950.48314313577,-50000.0,1000.0
R,187.33082120926036,140.66056003386902,-346.095143746057,-40.479956296622156,-346.01029595460517,-250.35250102714042,49883.37250822422,-50005.24860937645,956.5843204514705
G,165.15854658928401,129.8949955324989,-608.4273334582658,-220.10630316617394,-167.81882893843618,-186.9138711003586,49881.80781568977,-50007.87715765607,674.2569249425998
B,203.17324685557588,145.10467732868423,-279.8841182203399,-23.602403060990937,94.53559312547189,4.653292113317401,49950.483148274434,-50000.0,1000.0
R,187.42112612337357,140.06117709944328,-354.98195861352303,-50.011051894068736,-343.4972953170468,-250.62268295510378,49883.37250822422,-50005.24860937645,946.8158965240259
G,165.04342657887304,129.77987552208793,-608.8024323202395,-220.48140202814758,-173.6422316392502,-192.73727380117262,49881.530482882874,-50008.15449046296,673.8909489600982
B,203.1761533587814,145.10757596497396,-279.87649301426194,-23.59479116680071,94.55061707320063,4.668280521985244,49950.48315096652,-50000.0,1000.0
R,186.53633213688232,141.08099007336017,-355.7958198122104,-48.16340016268376,-347.53330438697884,-244.12502414660625,49881.38495049807,-50005.24860937645,946.8158965240259
G,164.6238857327134,129.3603346759283,-611.8138310487943,-223.49280075670234,-177.37859524783798,-196.47363740976039,49881.530482882874,-50008.15449046296,670.8926244988056
B,203.17904852293114,145.1104632622575,-279.8688983928952,-23.587209857247238,94.56558049768594,4.6832084076232725,49950.483153658584,-50000.0,1000.0
R,185.65153913597177,142.10080178738963,-356.609681895108,-46.31575176889389,-351.5693133900274,-237.62737353810454,49879.3973925522,-50005.24860937645,946.8158965240259
G,164.20434446116803,128.94079340438293,-614.8252251475143,-226.50419485542227,-181.11495887119634,-200.21000103311874,49881.530482882874,-50008.15449046296,667.894308191526
B,203.18194198882628,145.11333937855358,-279.8613284981205,-23.579658710002402,94.58049539415771,4.698076607698997,49950.48315879721,-50000.0,1000.0
R,185.7417767922959,141.50148842927592,-365.496477552794,-55.846700371603724,-349.0566632207199,-237.89735360527104,49879.3973925522,-50005.24860937645,937.0476672112026
G,164.08922240881014,128.82567135202504,-615.2003282564012,-226.8792979643092,-186.93834381058588,-206.03338597250828,49881.253151643716,-50008.43182170212,667.5283382955512
B,203.18481488702574,145.11620440998547,-279.8537939309983,-23.572137454545445,94.59533998506951,4.712885660188329,49950.483161489254,-50000.0,1000.0
R,184.8569830537352,142.52130206386187,-366.31033689051816,-53.99904635150028,-353.09266777726543,-231.39968863432782,49877.409835527156,-50005.24860937645,937.0476672112026
G,163.66968053372395,128.40612947693884,-618.2117144481163,-229.89068415602424,-190.6747061733633,-209.7697483352857,49881.253151643716,-50008.43182170212,664.5300361106902
B,203.18768374545016,145.1190585250729,-279.8462820054882,-23.564645643514005,94.6101440448305,4.727636451749242,49950.48316714406,-50000.0,1000.0
R,184.25280942882753,141.8485579244936,-371.2516874204647,-59.00445264689747,-355.22855945074537,-233.8122955543651,49877.409835527156,-50005.24860937645,932.0186450893783
G,162.84156860898972,127.5780175522046,-619.1957617079545,-230.87473141586247,-197.27095374316295,-216.36599590508536,49881.253151643716,-50008.43182170212,663.6464863331533
B,203.19053491273078,145.1219018256838,-279.8388060450495,-23.557182994593717,94.62487267441239,4.742329543330176,49950.48316983609,-50000.0,1000.0
R,183.36801594626246,142.86837290140429,-372.06554456369827,-57.15679524594246,-359.26455797984715,-227.3146204357054,49875.42227920884,-50005.24860937645,932.0186450893783
G,162.42202616739226,127.15847511060716,-622.2071399440615,-233.8861096519695,-201.00731469214915,-220.10235685407156,49881.253151643716,-50008.43182170212,660.6481981190258
B,203.1933816621654,145.12473442984395,-279.831355747206,-23.549749183597587,94.63954000383647,4.756965578558551,49950.48317454901,-50000.0,1000.0
R,183.0105362550033,143.66777742840105,-375.36574440165214,-56.27484735211857,-354.0990227911978,-224.57254905790404,49873.48505924437,-50005.24860937645,932.0186450893783
G,162.2891229046023,127.02557184781719,-622.7327043886536,-234.41167409656163,-204.54560062089556,-223.64064278281796,49881.253151643716,-50008.43182170212,660.1317714180135
B,203.19621350964863,145.12755645127535,-279.8239269886417,-23.54234389914612,94.65415934990905,4.771545175591275,49950.48318065026,-50000.0,1000.0
R,182.44236697625885,145.01904480752478,-379.6429230863215,-53.67651463146701,-356.74026262671424,-218.57379517820868,49871.72871469202,-50005.24860937645,932.0186450893783
G,161.6180739721507,126.35452291536562,-624.3448254179348,-236.02379512584284,-209.97155329595185,-229.06659545787426,49881.253151643716,-50008.43182170212,658.5211281997892
B,203.19903493668184,145.13036805229817,-279.8165263294494,-23.534966713995054,94.66872310404246,4.786069180825825,49950.4831867515,-50000.0,1000.0
R,181.8741982544967,146.370309808286,-383.92010209457675,-51.078185516575736,-359.3814990158347,-212.57505052488563,49869.97236973391,-50005.24860937645,932.0186450893783
G,160.94702544362536,125.68347438684026,-625.9569462454816,-237.6359159533897,-215.39750241018578,-234.4925445721082,49881.253151643716,-50008.43182170212,656.9104878347193
B,203.20184606450772,145.13316935415494,-279.8091534416076,-23.527617300123165,94.68323191697759,4.800538245002554,49950.48319285273,-50000.0,1000.0
R,181.30603009417882,147.72157236937593,-388.1972814279974,-48.479860080556705,-362.02273189054415,-206.5763153053256,49868.21602435806,-50005.24860937645,932.0186450893783
G,160.2759773049057,125.01242624812059,-627.5690668574615,-239.24803656536955,-220.8234480994984,-239.9184902614208,49881.253151643716,-50008.43182170212,655.2998501731098
B,203.20464701199052,145.13596047570977,-279.80180800353145,-23.52029533594593,94.69768642666456,4.814953006071042,49950.48319895394,-50000.0,1000.0
R,180.737862500433,149.07283242628375,-392.4744610880742,-45.88153840066498,-364.66396117786417,-200.5775897383694,49866.45967855195,-50005.24860937645,932.0186450893783
G,159.60492954324468,124.34137848645959,-629.1811872406125,-240.8601569485206,-226.24939049326767,-245.34443265519008,49881.253151643716,-50008.43182170212,653.6892150819973
B,203.20743789568144,145.13874153351372,-279.79448969989573,-23.513000506138336,94.71208725861521,4.829314089542614,49950.483205055134,-50000.0,1000.0
R,180.16969547907888,150.424089911101,-396.7516410761941,-43.2832205585251,-367.3051867995848,-194.57887405497183,49864.70333230249,-50005.24860937645,932.0186450893783
G,158.93388214832325,123.67033109153816,-630.7933073787907,-242.4722770866987,-231.67532971766113,-250.77037187958354,49881.253151643716,-50008.43182170212,652.0785824539278
B,203.21021882988197,145.1415126418681,-279.7871982214637,-23.505732501463946,94.72643502624317,4.843622108830375,49950.48321115632,-50000.0,1000.0
R,179.60152903665696,151.77534475230948,-401.02882139362373,-40.6849066403767,-369.94640867197165,-188.5801684989228,49862.946985595954,-50005.24860937645,932.0186450893783
G,158.26283510791026,122.99928405112516,-632.4054272648096,-244.0843969727176,-237.1012658859043,-256.19630804782673,49881.253151643716,-50008.43182170212,650.4679521678796
B,203.21298992670478,145.14427391288544,-279.77993326492236,-23.498491018609965,94.74073033119193,4.857877665577315,49950.4832172575,-50000.0,1000.0
R,179.03336326708964,153.1265968148471,-405.3060020905745,-38.08659690767279,-372.58762662407275,-182.58147368585358,49861.19063841798,-50005.24860937645,932.0186450893783
G,157.591788410419,122.32823735363391,-634.0175468928605,-245.69651660076846,-242.52719910505581,-261.6222412669783,49881.253151643716,-50008.43182170212,648.8573241115378
B,203.215751296032,145.1470254565402,-279.7726945363345,-23.491275760047607,94.75497291769443,4.872081349934425,49950.48322335876,-50000.0,1000.0
R,178.46519825096902,154.47784596986762,-408.86318494886643,-35.488291597959076,-375.2288404687747,-176.58279018433626,49859.43429075308,-50005.24860937645,932.0186450893783
G,156.92074206286642,121.65719100608132,-636.0296956055766,-247.70866531348457,-247.7131113990003,-266.80815356092273,49881.253151643716,-50008.43182170212,646.8466688268376
B,203.21850304609134,145.14976738096746,-279.7654817395644,-23.484086433232747,94.76916421191244,4.886233742143314,49950.48322946001,-50000.0,1000.0
R,177.89703411929605,155.8290914906888,-412.4203684112604,-32.88999182856232,-377.8700493307437,-170.58412071856733,49857.67794243094,-50005.24860937645,932.0186450893783
G,156.24969604188513,120.98614498510004,-638.0418433538239,-249.7208130617318,-252.89902140998652,-271.99406357190895,49881.253151643716,-50008.43182170212,644.8360162770865
B,203.2212452827701,145.1524997920544,-279.7582945881473,-23.476922751700897,94.7833047820144,4.900335410371945,49950.48323556125,-50000.0,1000.0
R,177.32887089304407,157.180333237735,-415.9775524892436,-30.29169778619674,-380.51125302849556,-164.58546578443276,49855.92159342299,-50005.24860937645,932.0186450893783
G,155.57865033700756,120.31509928022246,-640.0539901676076,-251.73295987551555,-258.08492920642556,-277.179971368348,49881.253151643716,-50008.43182170212,642.8253663383983
B,203.22397810999055,145.15522279372314,-279.7511328009371,-23.469784434306195,94.7973951856021,4.914386912221629,49950.48324166248,-50000.0,1000.0
R,176.7607085951797,158.53157106173182,-419.5347371949738,-27.693409670979975,-383.1524513664633,-158.58682591300703,49854.16524369873,-50005.24860937645,932.0186450893783
G,154.90760493830095,119.64405388151584,-642.0661360754799,-253.74510578338783,-263.2708348537205,-282.3658770156429,49881.253151643716,-50008.43182170212,640.8147188951168
B,203.22670162976104,145.15793648798186,-279.7439961019678,-23.46267120508285,94.81143596998625,4.928388795002596,49950.48324776369,-50000.0,1000.0
R,176.192547250828,159.88280480282967,-423.091922541332,-25.095127697620548,-385.7936441337498,-152.5882016736977,49852.408893225576,-50005.24860937645,932.0186450893783
G,154.2365598363284,118.97300877954332,-644.0782811046378,-255.75725081254575,-268.45673841443585,-287.5517805763583,49881.253151643716,-50008.43182170212,638.8040738391022
B,203.22941594179014,145.16064097493933,-279.736884227232,-23.455582793195937,94.82542568431931,4.942341595833362,49950.48325386534,-50000.0,1000.0
R,176.13438585712623,160.21403638938855,-425.0393118420786,-24.95684675712396,-388.0448305811857,-151.80958250815,49850.652541951014,-50005.24860937645,932.0186450893783
G,153.34650228856532,118.08295123178021,-645.4993893740932,-257.1783590820011,-273.10601888986355,-292.201061051786,49881.253151643716,-50008.43182170212,637.3844669630807
B,203.2321211453331,145.16333635345043,-279.7297969024858,-23.448518931228666,94.83936684688511,4.956245845028289,49950.48325996699,-50000.0,1000.0
R,176.07622389579427,160.5452718119211,-426.98670010666075,-24.818559985872824,-390.296021386076,-151.03094910278688,49848.896191607026,-50005.24860937645,932.0186450893783
G,152.45644521195163,117.19289415516651,-646.9204975866863,-258.5994672945942,-277.7552980187603,-296.85034018068274,49881.253151643716,-50008.43182170212,635.96486132482
B,203.23481733693836,145.1660227200634,-279.7227338665412,-23.441479357993206,94.8532599756373,4.970102060540564,49950.48326606862,-50000.0,1000.0
R,176.01806141078697,160.87651089141215,-428.9340874002851,-24.68026769213867,-392.54721630730023,-150.2523021567676,49847.13984214507,-50005.24860937645,932.0186450893783
G,151.5663885923098,116.30283753552467,-648.3416057361508,-260.0205754440587,-282.40457582988194,-301.49961799180437,49881.253151643716,-50008.43182170212,634.5452568810578
B,203.237504611429,145.16870016960124,-279.71569486287996,-23.434463816971526,94.86710557925329,4.983910751047154,49950.48327217024,-50000.0,1000.0
R,175.95989844246253,161.20775346106254,-430.8814737819689,-24.5419701607744,-394.7984151205233,-149.47364231937019,49845.38349352035,-50005.24860937645,932.0186450893783
G,150.67633241612216,115.41278135933703,-649.7627138168328,-261.44168352474077,-287.05385235116677,-306.1488945130892,49881.253151643716,-50008.43182170212,633.1256535907605
B,203.2401830619461,145.17136879520487,-279.7086796395364,-23.42747205619825,94.88090415736725,4.997672416181784,49950.483278271844,-50000.0,1000.0
R,175.90173502794687,161.53899936519616,-432.82885930525885,-24.403667655520586,-397.04961761670256,-148.69497019464228,49843.627145691404,-50005.24860937645,932.0186450893783
G,149.786276670489,114.52272561370388,-651.1838218236363,-262.86279153154425,-291.70312760975827,-310.7981697716807,49881.253151643716,-50008.43182170212,631.7060514149739
B,203.24285564421524,145.17402868368416,-279.70169004367204,-23.4205038394934,94.89465773723754,5.01138752439226,49950.48328399886,-50000.0,1000.0
R,175.35378453360048,159.94012429838904,-435.28252550158066,-28.002314947075213,-399.3056577070382,-155.3812129823515,49842.836808651475,-50005.24860937645,932.0186450893783
G,149.09288436289722,113.82933330611212,-652.7439443422619,-264.4229140501699,-296.4535730838615,-315.54861524578394,49881.253151643716,-50008.43182170212,630.1504007029729
B,203.24551671945247,145.17667993408617,-279.6947216433499,-23.41355890160368,94.90836372694089,5.025056601375104,49950.48329010044,-50000.0,1000.0
R,175.29561838714966,160.27138806236997,-437.2299072315834,-27.863986205292797,-401.5568808898921,-154.6024746445037,49841.0804646856,-50005.24860937645,932.0186450893783
G,148.20282945165818,112.93927839487307,-654.1650521785599,-265.84402188646783,-301.10284586307927,-320.1978880250017,49881.253151643716,-50008.43182170212,628.7308006838937
B,203.24816924046235,145.17932263029977,-279.68777629364234,-23.406637014259896,94.92202413801695,5.038680099859412,49950.48329620201,-50000.0,1000.0
R,175.2374519888853,160.60265431088033,-439.1772883419681,-27.725653866589937,-403.80810660100514,-153.82372726795316,49839.32412130381,-50005.24860937645,932.0186450893783
G,147.31277493534535,112.04922387856023,-655.5861599287172,-267.26512963662503,-305.7521174571977,-324.84715961912013,49881.253151643716,-50008.43182170212,627.3112016724298
B,203.25081329406387,145.1819568591438,-279.6808537596962,-23.39973794260921,94.93563943611055,5.0522584854895864,49950.48330230357,-50000.0,1000.0
R,175.1792853592535,160.93392294930797,-441.1246688609682,-27.58731808468646,-406.0593347158823,-153.044971213535,49837.567778481956,-50005.24860937645,932.0186450893783
G,146.42272080318614,111.15916974640102,-657.0072675894146,-268.6862372973225,-310.4013878903861,-329.49643005230854,49881.253151643716,-50008.43182170212,625.8916036367235
B,203.25344896559068,145.1845827059518,-279.67395381067917,-23.392861455819432,94.94921007888117,5.0657922159246835,49950.48330840511,-50000.0,1000.0
R,175.12111851729492,161.2651938883017,-443.07204881465793,-27.448979003878915,-408.3105651172532,-152.26620682120034,49835.811436197364,-50005.24860937645,932.0186450893783
G,145.53266704486043,110.26911598807531,-658.4283751576859,-270.1073448655938,-315.0506571861324,-334.14569934805485,49881.253151643716,-50008.43182170212,624.4720065464046
B,203.25607633892668,145.18720025460755,-279.6670762196828,-23.386007326982455,94.96273651619498,5.079281741030465,49950.483314506644,-50000.0,1000.0
R,175.0629514807611,161.59646704338755,-445.0194282271576,-27.310636759790324,-410.561797694544,-151.4874344115958,49834.055094428724,-50005.24860937645,932.0186450893783
G,144.6426136504747,109.37906259368955,-659.8494826308868,-271.52845233879464,-319.6999253672647,-338.79496752918715,49881.253151643716,-50008.43182170212,623.0524103724987
B,203.2586983607385,145.18980958288958,-279.6602228582811,-23.379175344364697,94.97622072673462,5.092727480701418,49950.48332023359,-50000.0,1000.0
R,174.51499755721758,159.99761831987917,-447.4730885652407,-30.90924571309285,-412.81786664684154,-158.17358040478763,49833.264763185776,-50005.24860937645,932.0186450893783
G,143.94922255534777,108.68567149856264,-661.4096039737657,-273.0885736816736,-324.450362612136,-343.54540477405845,49881.253151643716,-50008.43182170212,621.4967661112968
B,203.26130938349087,145.19241078103843,-279.65338931844246,-23.372365266550247,94.98966007127926,5.106129913291753,49950.483326335096,-50000.0,1000.0
R,174.45682897613298,160.32890383663278,-449.42046541846065,-30.77088575181482,-415.0691124217279,-157.39476247930008,49831.508423995074,-50005.24860937645,932.0186450893783
G,143.05916986900152,107.79561881221639,-662.8307112414938,-274.5096809494017,-329.09962860156776,-348.1946707634902,49881.253151643716,-50008.43182170212,620.0771717190481
B,203.26391235134906,145.1950039243313,-279.6465774785162,-23.365576888580872,95.00305651505062,5.1194894452350574,49950.48333243659,-50000.0,1000.0
R,174.3986603009275,160.66019108548585,-451.367841843544,-30.632523377434133,-417.3203597272957,-156.6159383558505,49829.75208520594,-50005.24860937645,932.0186450893783
G,142.16911751903484,106.90556646224972,-664.2518184080284,-275.93078811593625,-333.74889354170307,-352.8439357036255,49881.253151643716,-50008.43182170212,618.6575781629648
B,203.2665073427338,145.19758909118877,-279.6397871263824,-23.358809998336916,95.0164104785467,5.132806497028942,49950.48333853807,-50000.0,1000.0
R,174.34049154214946,160.99148001058273,-453.3152178549275,-30.494158676858003,-419.57160849256474,-155.8371082436476,49827.99574680465,-50005.24860937645,932.0186450893783
G,141.27906549704508,106.01551444025998,-665.6729254717608,-277.35189517966865,-338.39815745291907,-357.4931996148415,49881.253151643716,-50008.43182170212,617.2379854189128
B,203.26909443477885,145.2001663587445,-279.63301805340484,-23.352064387182406,95.02972237534784,5.146081482253343,49950.48334463954,-50000.0,1000.0
R,174.28232270970216,161.3227705586939,-455.2625934661339,-30.355791732514806,-421.8228586501345,-155.05827234168447,49826.239408778194,-50005.24860937645,932.0186450893783
G,140.3890137949515,105.12546273816639,-667.0940324312895,-278.7730021391974,-343.04742035503386,-362.1424625169563,49881.253151643716,-50008.43182170212,615.818393463788
B,203.27167656753664,145.20273579818533,-279.626272148973,-23.34533986122714,95.04299414868494,5.159314785369329,49950.48335036643,-50000.0,1000.0
R,173.73436706706184,159.7239387909274,-457.7162500986881,-33.95437660046246,-424.07894462511496,-161.7443565169741,49825.449081143925,-50005.24860937645,932.0186450893783
G,139.6956235946672,104.4320725378821,-668.6541528119554,-280.3331225198633,-347.79785153888713,-366.89289370080957,49881.253151643716,-50008.43182170212,614.2627537493429
B,203.27424808708358,145.20529749331845,-279.61954502252564,-23.338636196469746,95.05622312479291,5.172506850150285,49950.48335646787,-50000.0,1000.0
R,173.67619729225956,160.05523868160418,-459.6636237148504,-33.81599644965346,-426.3302039340634,-160.96548632080425,49823.69274502365,-50005.24860937645,932.0186450893783
G,138.80557251661386,103.54202145982875,-670.0752595517368,-281.75422925964466,-352.44711245445063,-371.54215461637307,49881.253151643716,-50008.43182170212,612.8431633330658
B,203.27681193126494,145.20785151312356,-279.61283856943135,-23.331953204999227,95.06941123502463,5.185658049179276,49950.483362569306,-50000.0,1000.0
R,173.6180275038659,160.38653988008664,-461.6109969965694,-33.67761453003829,-428.5814642249098,-160.18661150720555,49821.9364092061,-50005.24860937645,932.0186450893783
G,137.91552173581252,102.6519706790274,-671.4963661843145,-283.17533589222234,-357.09637241769576,-376.1914145796182,49881.253151643716,-50008.43182170212,611.4235736413078
B,203.27936817235476,145.2103979298746,-279.6061525942092,-23.325290691334853,95.08255886683926,5.1987687699150715,49950.48336867073,-50000.0,1000.0
R,173.559857707974,160.7178423492384,-463.55836995264013,-33.53923089762897,-430.8327254524039,-159.40773221339623,49820.180073682364,-50005.24860937645,932.0186450893783
G,137.02547124531947,101.76192018853435,-672.9174727089553,-284.5964424168631,-361.7456314463675,-380.84067360828993,49881.253151643716,-50008.43182170212,610.003984654574
B,203.28191688148002,145.2129368146984,-279.5994869044835,-23.318648463101066,95.09566640153074,5.211839393651216,49950.483374772135,-50000.0,1000.0
R,173.50168791032655,161.04914605345797,-465.5057425913815,-33.40084560590616,-433.0839875733618,-158.6288485707078,49818.42373844392,-50005.24860937645,932.0186450893783
G,136.13542103843903,100.87186998165393,-674.3385791250606,-286.0175488329684,-366.39488955773817,-385.4899317196606,49881.253151643716,-50008.43182170212,608.584396354146
B,203.2844609928005,145.2154682329115,-279.5928434055075,-23.31202634229901,95.10873575075917,5.2248702732960695,49950.48338049896,-50000.0,1000.0
R,172.95373133266102,159.45032719987145,-467.9593962936508,-36.999412423203076,-435.3400852274268,-165.31488593423515,49817.6334135125,-50005.24860937645,932.0186450893783
G,135.4420316442959,100.17848058751079,-675.8986985752439,-287.57766828315164,-371.1453152906043,-390.2403574525267,49881.253151643716,-50008.43182170212,607.0287605870045
B,203.2869948467033,145.21799226258722,-279.58621772229606,-23.305424120448457,95.12176420997872,5.237861821806202,49950.48338660035,-50000.0,1000.0
R,172.89556097096713,159.7816384982725,-469.90676749425916,-36.861016799982615,-437.59135426525165,-164.5359747298766,49815.87707974363,-50005.24860937645,932.0186450893783
G,134.55198199196983,99.28843093518472,-677.3198047656938,-288.9987744736015,-375.7945715941033,-394.8896137560257,49881.253151643716,-50008.43182170212,605.609173629072
B,203.289521375394,145.22050896708785,-279.57961176539715,-23.29884162484523,95.1347536803323,5.250814381572753,49950.48339270172,-50000.0,1000.0
R,172.83739064635307,160.11295105931183,-471.8541386099096,-36.72261976243168,-439.84262429609703,-163.7570593243075,49814.120746211716,-50005.24860937645,932.0186450893783
G,133.66193260439817,98.39838154761307,-678.7409108466255,-290.4198805545332,-380.44382702986945,-399.53886919179195,49881.253151643716,-50008.43182170212,604.1895873049671
B,203.29204064565977,145.22301841320046,-279.5730253541831,-23.292278674861816,95.14770451978995,5.263728310565419,49950.48339880308,-50000.0,1000.0
R,172.77922036232542,160.44426484383933,-473.8015096360112,-36.5842213525477,-442.09389526974934,-162.97813984734248,49812.36441291065,-50005.24860937645,932.0186450893783
G,132.77188347576944,97.50833241898435,-680.1620168178736,-291.8409865257813,-385.0930816134221,-404.1881237753446,49881.253151643716,-50008.43182170212,602.7700015987176
B,203.2945527232615,145.22552066668584,-279.5664583108043,-23.285735092648906,95.16061708080642,5.276603961238568,49950.48340490443,-50000.0,1000.0
R,172.72105012219302,160.7755798144615,-475.7488805683291,-36.445821610554454,-444.3451671384835,-162.19921642304206,49810.60807983454,-50005.24860937645,932.0186450893783
G,131.8818346004668,96.61828354368168,-681.5831226793597,-293.2620923872675,-389.74233535988026,-408.83737752180275,49881.253151643716,-50008.43182170212,601.3504164949475
B,203.2970605370891,145.22801578761246,-279.5599125546941,-23.279210714414575,95.17349324681958,5.289441658296067,49950.4834106312,-50000.0,1000.0
R,172.17309310648926,159.17677230900134,-478.20253273981257,-40.04437402615739,-446.60127473579666,-168.88521394229411,49809.817757008066,-50005.24860937645,932.0186450893783
G,131.18844593655732,95.92489487977221,-683.1432412373689,-294.82221094527665,-394.4927561631589,-413.5877983250814,49881.253151643716,-50008.43182170212,599.7947841868828
B,203.29955842244382,145.2305038489241,-279.55338372480713,-23.272705345564383,95.18633028575287,5.3022417871283105,49950.483416732524,-50000.0,1000.0
R,172.11492255177387,159.5080939240169,-480.14990282998707,-39.90596585621479,-448.85255242506844,-168.10626691712378,49808.06142510196,-50005.24860937645,932.0186450893783
G,130.2983975576007,95.03484650081562,-684.5643468726875,-296.2433165805952,-399.14200825804727,-418.23705041996976,49881.253151643716,-50008.43182170212,598.3752002645743
B,203.30204930647983,145.23298490895345,-279.54687374528,-23.26621882700973,95.19913007170241,5.315004663097389,49950.48342283384,-50000.0,1000.0
R,172.056752065094,159.83941650957937,-482.09727280788195,-39.76755659713192,-451.1038307277999,-167.32731667395825,49806.305093386865,-50005.24860937645,932.0186450893783
G,129.40834941608057,94.14479835929548,-685.9854523985651,-297.66442210647295,-403.7912595593038,-422.8863017212263,49881.253151643716,-50008.43182170212,596.9556169014235
B,203.30453325106836,145.2354590295717,-279.54038244879274,-23.259750991430916,95.2118929362208,5.327730617755576,49950.48342893514,-50000.0,1000.0
R,171.99858164846717,160.17074003888558,-484.0446426711884,-39.629146278110596,-453.35510961132866,-166.54836330181547,49804.54876185841,-50005.24860937645,932.0186450893783
G,128.5183015070791,93.25475045029401,-687.4065578152037,-299.08552752311147,-408.44051008056175,-427.53555224248424,49881.253151643716,-50008.43182170212,595.5360340841802
B,203.3070103171592,145.23792627172853,-279.53390967051996,-23.253301674002692,95.22461920590932,5.340419977703786,49950.48343503643,-50000.0,1000.0
R,171.94041130379276,160.50206448620017,-485.99201241778184,-39.490734927244254,-455.6063890444771,-165.76940688619501,49802.792430512374,-50005.24860937645,932.0186450893783
G,127.62825382583358,92.3647027690485,-688.8276631228607,-300.5066328307685,-413.0897598351147,-432.1848019970372,49881.253151643716,-50008.43182170212,594.1164518000602
B,203.30948342891224,145.24038669078396,-279.52745734261475,-23.2468707236796,95.2373107388865,5.353073042344087,49950.48344076314,-50000.0,1000.0
R,171.39245417025217,158.90326633563564,-488.4456633461874,-43.08927575097425,-457.8625040809421,-172.455371815368,49802.00210937571,-50005.24860937645,932.0186450893783
G,126.93486582664495,91.67131476985988,-690.3877808299497,-302.06675053785756,-417.8401761581316,-436.9352183200541,49881.253151643716,-50008.43182170212,592.5608225481558
B,203.31194691706656,145.24284035507648,-279.5210211165516,-23.24045795833378,95.24996477836525,5.36569017232132,49950.48344686441,-50000.0,1000.0
R,171.33428367722703,159.2345960785409,-490.39303217035877,-42.95085754343819,-460.1137875715412,-171.67639642387144,49800.24577898533,-50005.24860937645,932.0186450893783
G,126.04481859244915,90.78126753566407,-691.8088859143912,-303.48785562229904,-422.4894243984563,-441.5844665603788,49881.253151643716,-50008.43182170212,591.1412413117927
B,203.31440370423584,145.2452873184199,-279.51460292867375,-23.234063231109953,95.26258317414224,5.378271658715662,49950.483452965665,-50000.0,1000.0
R,171.2761132720931,159.56592658744975,-492.34040086962534,-42.8124384791541,-462.36507142056865,-170.89741850616235,49798.489448752625,-50005.24860937645,932.0186450893783
G,125.15477157248402,89.89122051569895,-693.2299908910078,-304.9089605989156,-427.1386719103561,-446.2337140722786,49881.253151643716,-50008.43182170212,589.7216605723751
R,171.37766228510955,159.660865641365,-491.6082477421322,-42.09257646147414,-454.4671478848155,-163.03254476591513,49798.489448752625,-50005.24860937645,932.7301226546762
R,171.37766228510955,159.660865641365,-491.6082477421322,-42.09257646147414,-454.4671478848155,-163.03254476591513,49798.489448752625,-50005.24860937645,932.7301226546762
R,171.37766228510955,159.660865641365,-491.6082477421322,-42.09257646147414,-454.4671478848155,-163.03254476591513,49798.489448752625,-50005.24860937645,932.7301226546762
R,171.37766228510955,159.660865641365,-491.6082477421322,-42.09257646147414,-454.4671478848155,-163.03254476591513,49798.489448752625,-50005.24860937645,932.7301226546762
R,171.37766228510955,159.660865641365,-491.6082477421322,-42.09257646147414,-454.4671478848155,-163.03254476591513,49798.489448752625,-50005.24860937645,932.7301226546762
R,171.37766228510955,159.660865641365,-491.6082477421322,-42.09257646147414,-454.4671478848155,-163.03254476591513,49798.489448752625,-50005.24860937645,932.7301226546762
R,171.37766228510955,159.660865641365,-491.6082477421322,-42.09257646147414,-454.4671478848155,-163.03254476591513,49798.489448752625,-50005.24860937645,932.7301226546762
R,171.37766228510955,159.660865641365,-491.6082477421322,-42.09257646147414,-454.4671478848155,-163.03254476591513,49798.489448752625,-50005.24860937645,932.7301226546762
G,173.92314764005903,159.77755623891395,-490.3116691752973,-41.79882215659575,-446.38985660790144,-162.33240118062156,49797.5341616649,-50005.24860937645,932.7301226546762
B,174.93799704618343,161.79909753466603,-487.7894050270958,-36.90937237925165,-442.88298870306494,-150.2031534061091,49796.553403386366,-50005.24860937645,932.7301226546762
R,172.05797729537386,160.32633210210437,-487.0180190616537,-37.52684740301283,-446.48541977233066,-155.125059401055,49798.489448752625,-50005.24860937645,937.2845742323539
R,177.38120948753755,163.5032923410731,-481.3354918465476,-34.18269277088668,-425.1833061214941,-143.26266394441453,49798.489463682505,-50005.24860937645,937.2845742323539
G,174.14597103832975,160.00037963718466,-489.8149136125709,-41.30206659386931,-448.8118396002796,-164.75438417299975,49795.840970953315,-50005.24860937645,944.7263698824968
B,177.37630153615027,164.39875113726228,-492.77315476190705,-41.36086886559701,-441.2722826614644,-147.5120548602529,49792.78278238637,-50005.24860937645,932.7301226546762
R,182.7044358932328,166.68022307136442,-475.6529484639952,-30.8385475240412,-403.8811711624696,-131.4003507620795,49798.48947834664,-50005.24860937645,937.2845742323539
G,174.3687926578108,160.2232012566657,-489.3181641925035,-40.805317173801924,-451.2337917956606,-167.17633636838073,49794.14778026599,-50005.24860937645,956.7225989574806
B,179.814605900718,166.99840459327157,-497.7569047963071,-45.81236568125881,-439.6615771602196,-144.82095694314626,49789.01216138891,-50005.24860937645,932.7301226546762
B,183.86733254013564,171.05110329041256,-487.9547214945704,-36.01020193451815,-419.53716703546473,-124.69664815312137,49789.01216494695,-50005.24860937645,932.7301226546762
R,183.82652060979336,168.9118351432826,-475.52179461449157,-27.82248216213162,-412.10777361162314,-121.98774415440073,49794.66924122787,-50005.24860937645,937.2845742323539
G,174.91938615752989,160.7737947563848,-491.10760170439437,-42.59475468569281,-448.80096775822614,-164.74351233094632,49794.14778026599,-50005.24860937645,954.6589704788253
B,187.9200534063994,175.10379690218915,-478.15255014366903,-26.2080497150994,-399.41278340557847,-104.57236356849144,49789.01216847148,-50005.24860937645,932.7301226546762
R,184.948606378418,171.14344356805867,-475.39063940603114,-24.80642080035054,-420.33437015247557,-112.57515180522617,49790.849004108146,-50005.24860937645,937.2845742323539
G,175.4699557105679,161.3243643094228,-492.8969645178669,-44.384117499165335,-446.3682497145085,-162.3107942872287,49794.14778026599,-50005.24860937645,952.5954283950574
B,191.9727676572499,179.15648455387864,-468.3503926960281,-16.405910994417788,-379.2884303140514,-84.44810733702495,49789.012171963,-50005.24860937645,932.7301226546762
R,186.07069315361062,173.37504827446966,-475.259482758096,-21.79036339029574,-428.5609607971322,-103.16257384278934,49787.028766987525,-50005.24860937645,937.2845742323539
G,176.0204975870785,161.8749061859334,-494.6862405460764,-46.17339352737485,-443.9356541877653,-159.87819876048547,49794.14778026599,-50005.24860937645,950.531986621351
R,191.39390831607054,176.5519163461775,-469.57691738358346,-18.44624623472514,-407.25881409627505,-91.30048176159059,49787.02877465393,-50005.24860937645,937.2845742323539
G,176.02042364873645,161.87483224759137,-494.6869514334441,-46.17410441474255,-443.93555554857465,-159.8781001212948,49794.14778026599,-50005.24860937645,950.5308732553917
B,193.29172688177417,180.63664874344983,-469.34115344195317,-16.87081700527884,-384.30892091994275,-88.51462611919801,49786.367476645275,-50005.24860937645,932.7301226546762
R,196.7171159214188,179.72870842714494,-463.8943009916451,-15.102152746249038,-385.9565767898131,-79.43859935591065,49787.028782113215,-50005.24860937645,937.2845742323539
G,176.02034971083032,161.87475830968523,-494.68766231671617,-46.174815298014636,-443.93545691780304,-159.8780014905232,49794.14778026599,-50005.24860937645,950.5297598976249
B,194.61068756659907,182.11681433268225,-470.33191075947735,-17.33571957733057,-389.3294047654395,-92.58113828159021,49783.722781344986,-50005.24860937645,932.7301226546762
R,202.04031478998917,182.90535924425578,-458.2115835630353,-11.758102831912352,-364.65414433992174,-67.57710448421658,49787.02878943898,-50005.24860937645,937.2845742323539
G,176.02027644883248,161.8746850476874,-494.68824759947023,-46.175400580768674,-443.9352932221576,-159.87783779487776,49794.14778026599,-50005.24860937645,950.5287716230774
B,197.16767009705495,184.68705862470802,-472.1023781392994,-19.062887685441847,-391.92103979063654,-95.09425204215057,49779.88146802424,-50005.24860937645,932.7301226546762
R,207.3635031873961,186.0816489144275,-452.5285952131199,-8.414164169402172,-343.35115055356823,-55.716589967448435,49787.028796570325,-50005.24860937645,937.2845742323539
G,176.02020318716384,161.87461178601876,-494.68883287977997,-46.17598586107839,-443.935129533699,-159.87767410641916,49794.14778026599,-50005.24860937645,950.5277833541297
B,199.72465347385412,187.2573037216645,-473.87284351797314,-20.79005378331377,-394.51267086227585,-97.60736194421628,49776.04015471787,-50005.24860937645,932.7301226546762
R,212.68664899034675,189.25086240041543,-446.84009784313514,-5.072379667579666,-322.0354228598565,-43.874275895712465,49787.028803515095,-50005.24860937645,937.2845742323539
G,176.0201299258244,161.8745385246793,-494.6894181576454,-46.17657113894379,-443.93496585242707,-159.87751042514722,49794.14778026599,-50005.24860937645,950.5267950907818
B,202.28163768189955,189.82754960820054,-475.6433069323038,-22.51721790834027,-397.10429805037745,-100.1204680595662,49772.19884142611,-50005.24860937645,932.7301226546762
B,206.33434495815183,193.88023822141238,-465.44116070241654,-12.315085819406077,-377.379948367215,-80.39618384825944,49772.19884676333,-50005.24860937645,932.7301226546762
R,214.81450306357783,190.1777106720133,-446.78007149983875,-2.427624301227406,-318.4461347479072,-38.325361312081554,49783.36377850663,-50005.24860937645,937.2845742323539
G,176.0200573413116,161.87446594016652,-494.6900494908688,-46.1772024721672,-443.93436374862597,-159.87690832134612,49794.14778026599,-50005.24860937645,950.5257598571337
B,210.38705375390543,197.93291641341781,-455.23901508371,-2.1129851066050076,-357.65558081677244,-60.6719591015733,49772.19885731792,-50005.24860937645,932.7301226546762
R,215.50944922393035,188.92210417629767,-447.604354800741,-4.152005836492441,-320.4597232509462,-45.89713635383209,49782.048910614365,-50005.24860937645,937.2845742323539
G,176.01998186307299,161.8743904619279,-494.69075227964527,-46.17790526094369,-443.93410332924884,-159.87664790196902,49794.14778026599,-50005.24860937645,950.5246541972272
R,220.82224487684894,189.8575920259481,-440.1728480432627,-1.4895640430310193,-295.60244959607223,-40.292075281014085,49782.04892255517,-50005.24860937645,937.2845742323539
G,176.01984747539356,161.87425607424848,-494.6913916898883,-46.17854467118672,-443.9340026504174,-159.8765472231376,49794.14778026599,-50005.24860937645,950.5236091629336
B,212.73534083082848,200.39398399867977,-460.075664303352,-6.623934918243263,-358.1362149441775,-60.55986838991133,49768.54096415536,-50005.24860937645,932.7301226546762
R,226.13501851166276,190.79130773443993,-432.7399730854762,1.1723386490945389,-270.74263126567985,-34.692166857439695,49782.048934301885,-50005.24860937645,937.2845742323539
G,176.01971308837278,161.8741216872277,-494.6920310968122,-46.179184078110595,-443.9339019793086,-159.87644655202877,49794.14778026599,-50005.24860937645,950.5225641357403
B,215.08362858744943,202.8550522204733,-464.9123118868442,-11.134883116344989,-358.61684585911183,-60.447774601808575,49764.883071004195,-50005.24860937645,932.7301226546762
R,231.4477744125995,191.7247177794725,-425.30687652138073,3.8341485834021567,-245.88241769384828,-29.093129693454493,49782.04894586119,-50005.24860937645,937.2845742323539
G,176.01957870201065,161.87398730086556,-494.6926705004169,-46.179823481715346,-443.9338013159221,-159.8763458886423,49794.14778026599,-50005.24860937645,950.521519115647
B,217.43191701546283,205.31612107021635,-469.74895785557334,-15.645829722447825,-359.097473602466,-60.33567777903373,49761.22517786443,-50005.24860937645,932.7301226546762
B,221.4846146258559,209.36879768441293,-459.54682510193203,-5.443719520452845,-339.3731439977009,-40.611444650016615,49761.22518816869,-50005.24860937645,932.7301226546762
R,233.48483935562183,192.35182378758373,-429.00181371505454,5.870433683625205,-248.04879687399415,-25.48158445822937,49778.76804895388,-50005.24860937645,937.2845742323539
G,176.01947666442194,161.87388526327686,-494.6933367673745,-46.18048974867295,-443.93379593173296,-159.8763405044532,49794.14778026599,-50005.24860937645,950.5204489223868
B,225.5373016746065,213.4214641095597,-449.34471730543794,4.758365851291092,-319.648862942556,-20.88725888674245,49761.2251983878,-50005.24860937645,932.7301226546762
R,235.52190512396695,192.9789265585119,-432.6967501664339,7.906715130008522,-250.21517075208644,-21.870051732512664,49775.48715204453,-50005.24860937645,937.2845742323539
G,176.01937462742592,161.87378322628084,-494.6940030302921,-46.18115601159053,-443.9337905555407,-159.87633512826093,49794.14778026599,-50005.24860937645,950.5193787374668
B,229.58997614131192,217.47411407789218,-439.142667777258,14.960398627442187,-299.9246810736234,-1.1631640387589002,49761.22520143915,-50005.24860937645,932.7301226546762
R,236.65651990816684,193.7852067046475,-430.47034575734125,10.28834811434564,-256.89771824465635,-16.89899785043047,49771.94346716956,-50005.24860937645,937.2845742323539
G,176.56988443282384,162.42429303167876,-496.4834622072128,-47.970615188511246,-441.4885624847686,-157.4311070574888,49794.14778026599,-50005.24860937645,948.4557593484274
B,233.6426344410425,221.52674840493663,-428.9406562069143,25.162393756397304,-280.2005729137934,18.560858826039908,49761.225204466326,-50005.24860937645,932.7301226546762
R,237.79113669682488,194.59148278555173,-428.2439401287436,12.669975638502802,-263.580255750332,-11.927961057912604,49768.399782303124,-50005.24860937645,937.2845742323539
G,177.12035555754335,162.97476415639827,-498.27277862302924,-49.75993160432769,-439.04353983900285,-154.98608441172308,49794.14778026599,-50005.24860937645,946.3923016015394
B,237.6952720530439,225.57936254875855,-418.738693424114,35.36434039634626,-260.47655907652586,38.284789026528486,49761.22520746966,-50005.24860937645,932.7301226546762
R,238.92575554063714,195.39775482159598,-426.0175333954687,15.051597617769367,-270.26278333491814,-6.956941402493658,49764.856097445234,-50005.24860937645,937.2845742323539
G,177.67077994874856,163.52518854760348,-500.0619278106191,-51.5490807919176,-436.5987556821866,-152.54130025490687,49794.14778026599,-50005.24860937645,944.3290339433064
R,244.24459738767155,197.6481462099377,-419.61212757510333,18.113933660940077,-247.53696137063145,2.55346892130901,49764.85610883648,-50005.24860937645,937.2845742323539
G,177.67064562790313,163.52505422675804,-500.0625680570975,-51.54972103839597,-436.59867660127173,-152.541221173992,49794.14778026599,-50005.24860937645,944.3279940082181
B,240.0434741453809,228.0403464674057,-423.9741878380357,30.454545358298454,-260.9575834515001,38.39649283778855,49757.567313845146,-50005.24860937645,932.7301226546762
B,244.0960868751639,232.0929398155299,-414.17222894297504,40.256482179770195,-241.23364308256595,58.12034180845892,49757.567323761956,-50005.24860937645,932.7301226546762
R,246.2816517124189,198.2758136733586,-423.3075413259679,20.15036477318764,-250.09856317770158,6.166664449027016,49761.57521176167,-50005.24860937645,937.2845742323539
G,177.67054407122797,163.52495267008288,-500.0632353688301,-51.55038835012856,-436.5986940676845,-152.54123864040477,49794.14778026599,-50005.24860937645,944.3269287244627
G,184.88593927878583,163.84496681899753,-492.51010008571586,-50.63740668776107,-406.91364687578186,-150.6682145312933,49794.147786139656,-50005.24860937645,944.3269287244627
R,246.9688026107282,198.96296457166792,-431.7682327540976,11.689673345057967,-253.17457585809268,3.0906517686359205,49761.57521176167,-50005.24860937645,919.5237528893625
B,244.14718082978746,232.14403377015344,-420.798470694015,33.63024042873023,-243.5124884513579,55.84149643966694,49757.567323761956,-50005.24860937645,916.5794864994365
B,248.1997677795857,236.1965951949372,-410.9965993882607,43.432092750739,-223.78870916558535,75.5651891087206,49757.5673287819,-50005.24860937645,916.5794864994365
R,246.78721026405282,199.85501777698897,-428.3395897835305,14.305955838744609,-262.156154493905,8.51131017400465,49758.135779982695,-50005.24860937645,919.5237528893625
G,185.80316631999025,164.76219386020196,-496.00124796875593,-54.12855457080112,-404.2342811428854,-147.9888487983968,49794.147786139656,-50005.24860937645,940.2519649514953
G,193.01855074664664,165.08220969071567,-488.4481163793364,-53.21556809817272,-374.54927347354425,-146.11581483422722,49794.14779196323,-50005.24860937645,940.2519649514953
R,247.47436226431378,200.54216977724994,-436.8000936484982,5.845451973776939,-265.23199004842513,5.435474619484522,49758.135779982695,-50005.24860937645,901.763325240865
B,248.25082507441326,236.24765248976476,-417.62297100376793,36.805721135231764,-226.06780932883703,73.28608894546892,49757.5673287819,-50005.24860937645,900.4287380744618
B,252.30338047377558,240.3001803480083,-407.8211562898677,46.60749309651359,-206.34416969726823,93.00961734864872,49757.567338152585,-50005.24860937645,900.4287380744618
R,247.24476666697507,198.44890714419824,-433.21419958773555,6.27345060653495,-268.10037437710264,-3.284129063049985,49758.135779982695,-50005.24860937645,901.763325240865
G,193.22175779626662,165.28541674033565,-489.1870276839575,-53.95447940279382,-368.91432470740125,-140.48086606808423,49794.14779196323,-50005.24860937645,938.9076455004242
B,256.35586758146223,244.35264045128574,-398.0194949964685,56.4091129230259,-186.62083144518743,112.73283611777639,49757.56734826257,-50005.24860937645,900.4287380744618
R,246.73517896524666,199.0756259860831,-430.4282977238727,8.061442973520393,-271.8683482794402,0.4761839882591712,49757.73578142641,-50005.24860937645,901.763325240865
G,193.22201768989228,165.28567663396132,-489.1890321895555,-53.956483908391796,-368.91267833191057,-140.47921969259352,49794.14779196323,-50005.24860937645,938.9049219398951
B,260.4082348800661,248.4049845574547,-388.21808078269567,66.21047587620922,-166.8980143506419,132.45552874056855,49757.5673611165,-50005.24860937645,900.4287380744618
R,246.54672185752483,199.72426787233394,-428.1766787513597,9.911980496392328,-282.2893560169102,4.368035305764209,49756.15931851538,-50005.24860937645,901.763325240865
G,193.22230537819175,165.28596432226078,-489.19134018220797,-53.95879190104423,-368.91194477516103,-140.47848613584398,49794.14779196323,-50005.24860937645,938.9018918246935
G,200.43767584504263,165.60598210831475,-481.63821386884104,-53.04579983244459,-339.22698878898484,-138.60544070908242,49794.14779773258,-50005.24860937645,938.9018918246935
R,247.23388042980568,200.4114264446148,-436.6367209574902,1.4519382902618272,-285.3646933289959,1.2926979936785044,49756.15931851538,-50005.24860937645,884.0039273099836
B,260.4588841184391,248.45563379582762,-394.8454819540688,59.583074704836086,-169.17939328595386,130.17414980525658,49757.5673611165,-50005.24860937645,884.2776844293919
B,264.5110753260367,252.5078020144322,-385.0444470499962,69.38405870717173,-149.45736080877737,149.896058743678,49757.567373899474,-50005.24860937645,884.2776844293919
R,247.04543445899668,201.06006780706434,-434.38509428571484,3.302474296055065,-295.7856597028228,5.184546168375791,49754.58285562974,-50005.24860937645,884.0039273099836
G,200.47617140558017,165.6444776688523,-481.7706823093006,-53.17826827290415,-339.0981099238141,-138.47656184391167,49794.14779773258,-50005.24860937645,938.7641451308299
B,268.562723645183,256.55942839786854,-374.56493064401883,79.8635596339718,-130.13773749943527,169.2156045633919,49757.56737687817,-50005.24860937645,884.2776844293919
R,249.33117099502792,201.9311839026746,-432.1373791633091,5.826974895307137,-303.35437475899505,10.475868185405806,49750.969724462666,-50005.24860937645,884.0039273099836
G,201.3508088030033,166.51911506627542,-485.677961346208,-57.08554730981159,-333.6157927017998,-132.99424462189737,49794.14779773258,-50005.24860937645,934.015930001196
G,208.56616321475357,166.83913543981484,-478.12483981743134,-56.17254783795216,-303.9308941098426,-131.1211840294197,49794.14780344431,-50005.24860937645,934.015930001196
R,250.01835207877912,202.6183649864258,-440.5964591023052,-2.632105043688931,-307.12042664649226,6.709816297908578,49750.969724462666,-50005.24860937645,866.246832925777
B,268.0516561247413,256.0483608774269,-382.28560860255044,72.1428816754402,-134.98970593902268,164.3636361238045,49757.56737687817,-50005.24860937645,867.4345254744388
B,272.1018966455323,260.09857963286146,-371.80947252448084,82.61900253275762,-115.67617504926362,183.67708866657142,49757.567379817265,-50005.24860937645,867.4345254744388
R,252.28685850517218,203.4630326415663,-439.6801409611662,-0.16636376973262124,-315.21839321477245,11.869993431715628,49747.38518952808,-50005.24860937645,866.246832925777
G,209.4467592854516,167.71973151051287,-480.26051449070985,-58.30822251123065,-298.0594273624122,-125.24971728198932,49794.14780344431,-50005.24860937645,931.0345380601997
G,216.66209393833358,168.03975515935727,-472.70739824689946,-57.39521366883009,-268.37460081934864,-123.37663749305557,49794.147809104536,-50005.24860937645,931.0345380601997
R,253.12189044334784,204.29806457974195,-446.57535844251936,-7.061581251085759,-316.6605871946269,10.427799451861176,49747.38518952808,-50005.24860937645,852.8696152385505
B,268.10285786318394,256.0995408505131,-388.9234478066047,65.50502725063376,-140.1051644234242,159.24809929241084,49757.567379817265,-50005.24860937645,850.5913531792288
G,223.87740857178594,168.35978285471623,-465.15428537193173,-56.48219325889588,-238.68984584702832,-121.50353399704446,49794.14781472134,-50005.24860937645,931.0345380601997
R,253.80216443663804,204.97833857303215,-452.6573434557481,-13.143566264314524,-315.3958592148662,11.69252743162183,49747.38518952808,-50005.24860937645,840.4596114474585
B,268.15150819757474,256.1481911849039,-396.2456936584605,58.18278139877798,-142.3964043698233,156.95685934601175,49757.567379817265,-50005.24860937645,833.748262036362
G,231.09269890071846,168.67981584317187,-457.6011748343192,-55.56915772025696,-209.00517688506255,-119.6303994930386,49794.14782029541,-50005.24860937645,931.0345380601997
R,254.6585920301966,205.8347661665907,-456.87734668211334,-17.36356949067976,-312.60023962201785,14.488147024470196,49747.38518952808,-50005.24860937645,833.2651734071529
B,268.20129069956045,256.1979736868896,-403.56661046201856,50.861864595219906,-144.68220297602383,154.67106073981122,49757.567379817265,-50005.24860937645,816.9052061333483
G,237.97178293591378,169.13699201245925,-449.0967265898107,-54.26486071995592,-180.3124322927897,-116.95457398487542,49794.147829359106,-50005.24860937645,931.0345380601997
R,255.4910902057341,206.66726434212822,-459.5393976114349,-20.02562042000127,-309.9434390813328,17.144947565155192,49747.38518952808,-50005.24860937645,827.7873911479021
B,268.25190170199437,256.24858468932354,-410.43336928311794,43.99510577412052,-142.5489689768718,156.80429473896325,49757.567379817265,-50005.24860937645,800.4326572714027
G,244.85083346239136,169.59417571837943,-440.592285910262,-52.960542176208754,-151.619806071768,-114.2787043233677,49794.147838318335,-50005.24860937645,931.0345380601997
R,256.3202009423874,207.49637507878148,-462.1936281386526,-22.67985094721901,-307.2776140393507,19.810772607137352,49747.38518952808,-50005.24860937645,822.3255803532559
B,268.3025612876808,256.29924427501,-417.30001879959474,37.128456257643734,-140.41548570856898,158.93777800726608,49757.567379817265,-50005.24860937645,783.960139509842
R,258.39747909157285,209.57365322796696,-456.5722908009576,-17.058513609524002,-292.053608590877,35.034778055611035,49747.38518952808,-50005.24860937645,825.2573557698366
G,248.9685667799877,170.04915557569794,-436.43489018587667,-51.66251102987066,-139.50941002675626,-111.61573360507406,49792.25434226205,-50005.24860937645,931.0345380601997
B,270.35422162665685,258.350904613986,-416.1101634018274,38.31831165541109,-130.5910887683239,168.76217494751114,49757.567379817265,-50005.24860937645,775.366527935582
G,255.84754640478883,170.5063559386358,-427.9304454846956,-50.35814488115841,-110.81701807165744,-108.93976636754822,49792.25435408023,-50005.24860937645,931.0345380601997
R,259.1326640553057,210.3088381916998,-462.94919610376695,-23.43541891233333,-293.9481676456046,33.14021900088343,49747.38518952808,-50005.24860937645,809.5959193280536
B,270.40473125627386,258.401414243603,-422.68433577017964,31.74413928705882,-133.55357995135668,165.79968376447837,49757.567379817265,-50005.24860937645,759.0404250068987
G,262.7264550343502,170.96357634294705,-419.4259940533047,-49.053721477215,-82.12486622811265,-106.2636817506711,49792.25436578252,-50005.24860937645,931.0345380601997
R,259.9723868868697,211.14856102326374,-467.6835263158981,-28.16974912446449,-294.38579688433487,32.70258976215314,49747.38518952808,-50005.24860937645,798.4525776978581
B,270.4559787207241,258.45266170805326,-429.2575697180194,25.17090533921907,-136.51248518127008,162.84077853456498,49757.567379817265,-50005.24860937645,742.7143705354086
R,262.04951945967093,213.22569359606499,-462.0728630830634,-22.55908589162977,-279.1658012436165,47.92258540287149,49747.38518952808,-50005.24860937645,801.3559219644003
G,266.84398259818204,171.4186167127497,-415.26856017600466,-47.75551747776827,-70.01515862142172,-103.60035664181646,49790.360869443975,-50005.24860937645,931.0345380601997
B,272.5076866251385,260.50436961246766,-428.0675724780653,26.36090257917316,-126.6878219296209,172.66544178621416,49757.567379817265,-50005.24860937645,734.1208497652409
G,273.722708111635,171.87589519884378,-406.7640431385911,-46.45092819986022,-41.323606731496625,-100.92393190562613,49790.36088098547,-50005.24860937645,931.0345380601997
R,262.84750158068766,214.02367571708172,-468.567787976993,-29.054010785559324,-284.0248254407787,43.06356120570929,49747.38518952808,-50005.24860937645,785.4856366419939
B,272.55838572198013,260.5550687093093,-434.64144487533486,19.787030181903585,-129.64936417281785,169.7038995430172,49757.567379817265,-50005.24860937645,717.7948284627698
R,265.09160004137044,216.2677741777645,-466.62032203054537,-27.10654483911174,-272.8407881404969,54.247598505991114,49747.38518952808,-50005.24860937645,780.905406584041
G,278.2622770137984,171.89524534795697,-403.98129789378623,-46.39572253040541,-23.70295831306522,-100.81067578883173,49790.36088098547,-50005.24860937645,931.0345380601997
B,274.6092103017701,262.60589328909924,-433.4014066793404,21.027068377898,-119.32192868521109,180.03133503062398,49757.567379817265,-50005.24860937645,709.3738559103502
R,267.16000074590005,218.3361748822941,-466.07341251759044,-26.55963532615681,-264.6172649497759,62.471121696712075,49747.38518952808,-50005.24860937645,772.2201857859475
