<<<<<<< HEAD
B,200,130,-200,20,100,-30,50000
R,200,130,-200,20,100,-30,50000
G,200,130,-200,20,100,-30,50000
B,200.0003975882127,130.0003975882127,-199.99910239495185,20.000897605048152,100.0020523495522,-29.997947650447802,50000.00000272083
R,198.50020943267648,128.50020943267648,-202.49977031490013,17.50022968509987,90.841844662472,-39.158155337528,50000.0
G,198.99519048568413,128.99519048568413,-205.2242816754207,14.775718324579278,93.23487816760075,-36.76512183239925,49999.005246354434
G,198.00816149250792,128.7154842019751,-206.45095111850603,14.059696851603132,90.75016154734249,-37.96622378063011,49998.51133119267
R,197.03145119118705,128.46870677731548,-205.3319845249001,17.43112154370522,88.33153082503989,-39.32123899140046,49998.85037579499
B,199.83055139912656,129.94505194151557,-200.83901414275425,19.558437602543513,95.48134190583448,-33.91078073276256,49999.00254717382
G,197.5590391471115,128.36527930766937,-209.74256209554653,11.259920149743525,87.68421465349599,-40.44030134736575,49997.57911000982
R,195.90163843021202,128.33598473882483,-207.89992273439455,17.311962503183665,82.49558630467118,-40.67996560367762,49997.45625220948
B,199.67476541010964,129.82146364760504,-201.75266943304047,18.731504913795284,87.32981657147347,-41.88549971961226,49997.5402198005
B,199.67578230880798,129.8224782923751,-201.750448660543,18.73372414859919,87.33428945059134,-41.88103288233595,49997.5402222475
R,194.286488926047,129.0126179788287,-210.23395862609797,19.223909897996396,78.99448855013426,-38.32414754258042,49996.600314045405
G,197.38529444444217,128.19826745691395,-210.44554052436476,10.562893133776313,82.6029973883652,-45.49524551031112,49996.66552978016
G,198.25697464542603,129.0697612232118,-207.93065833708272,13.077554145563349,87.56328295845134,-40.53572237476436,49996.665532821484
R,193.0647202697683,128.36117975166775,-211.71473493246458,18.860439716354957,69.67712506664321,-45.121191309787484,49995.9288601324
B,198.43058427677047,128.5772802603376,-207.83162428172028,12.652548527421906,82.03169041724742,-47.183631915679875,49997.115855562144
G,198.25853717959257,129.07114920063484,-207.92654178482178,13.081462247705579,87.57165486631466,-40.52806194583793,49996.66553550126
R,193.73010446077845,129.67113467150338,-209.57780186682072,22.28651423964974,64.3163327457725,-47.61486501966504,49994.9478311282
B,197.8028421216578,129.07191213591358,-211.30133495309914,13.959098376809862,78.67084445653047,-46.2277192253539,49995.804619777606
G,198.260096488661,129.0725339731876,-207.92243423840677,13.085361367732723,87.58000895878092,-40.52041924965081,49996.665538181034
R,194.60108572552096,130.84105301057065,-207.14954945642026,25.312640798699697,59.477590246329996,-50.949357794477116,49993.96680212795
B,197.18142765581615,129.5728716963532,-214.75437061140616,15.28232323035649,75.34096921856077,-45.240835825794896,49994.49338399514
G,198.2616525945584,129.0739155627494,-207.9183356369263,13.089251566500058,87.58834535656736,-40.51279416568122,49996.665540860806
R,195.4737337565041,132.01042795692945,-204.71876597971473,28.336878106156572,54.64402419224947,-54.28762518391063,49992.98577313188
B,196.83334105174828,130.3471591142009,-217.48519974684794,17.327754597930735,73.55174777632901,-42.713298643916424,49993.18214821473
G,198.26320551895998,129.0752939909478,-207.91424592016418,13.093132904168034,87.59666417901066,-40.50518657478662,49996.66554354058
R,196.34730750155646,133.179543333069,-202.28682747972582,31.359899868319864,49.813692195706025,-57.62812645381363,49992.004744139995
B,196.48478971477587,131.1209817971232,-220.21722663757788,19.37198820563477,71.7600466058692,-40.18824119793628,49991.87091243516
G,198.26475528329303,129.07666927916304,-207.91016502858824,13.097005440213437,87.60496554408918,-40.497596359181486,49996.66554622034
R,197.23864990989068,134.33683065551443,-199.83047678436782,34.34814039190025,45.0529973645788,-61.04100574377173,49991.02371515443
B,196.135571973583,131.8941380737978,-222.95098964461712,21.414485692435537,69.96472195500853,-37.66680724004634,49990.559676656434
G,198.26630153316447,129.07804357556643,-207.9060962143932,13.100871662723948,87.61324927631921,-40.49001422840779,49996.66554831198
R,198.18078782894767,134.9275629888985,-197.84872445363104,35.801064717667394,45.60374071521015,-61.63263531420433,49990.31526666198
B,194.93641817126775,132.62922851304904,-223.67394631673807,23.473358899970048,70.27380538090914,-34.64363968286201,49989.68489095064
G,198.26784459576933,129.0794141107372,-207.90203356490144,13.104728402101307,87.62152139566834,-40.4824510034564,49996.66555081202
R,198.09883488515487,134.98400567554611,-198.1184300207454,35.67114027566927,41.46698616066841,-65.48261225398639,49989.98676807474
B,194.27472073838433,131.96753108016563,-227.44990111889186,19.697404097816253,65.17585428445457,-39.741590779316574,49988.863767524745
G,198.2693836647122,129.0807829845076,-207.89797935269556,13.108583739615291,87.6297735915279,-40.47489392804633,49996.665553271516
R,197.90322813695133,134.33129373782657,-196.89500448916598,36.18398485603833,38.88306263582612,-69.36948937625544,49989.57080397354
B,193.57990990860552,131.35959803666807,-228.44134402126886,18.84496565348929,63.63583999426943,-40.95146948163286,49988.53526876945
G,198.2709196532004,129.0821487977067,-207.8939337445827,13.112430496365194,87.63800876818635,-40.46735379058121,49996.66555573101
R,197.7604217309706,133.50776576709922,-196.00031129640456,36.295391443299586,37.27418008086671,-73.90448234770493,49989.15483987325
B,193.1292642565341,130.9946784925589,-229.1559232028831,18.267548244614645,63.586004157636324,-40.67554610800948,49988.20677001519
G,198.27245258152166,129.08351157057658,-207.88989668417605,13.116268728684295,87.64622703737653,-40.45983047951476,49996.66555819049
R,197.61795592429192,132.68351748836213,-195.10620187819507,36.405067664744564,35.66776485426334,-78.44243139153005,49988.738875773895
B,192.6804732126398,130.63107166783672,-229.8686990089472,17.691067189225897,63.546159249563495,-40.39169098322831,49987.878271261165
G,198.2739833839812,129.08487034788504,-207.88586873400305,13.12009391581886,87.65442831947,-40.45233216313002,49996.6655604477
R,197.91639222563515,132.64234261945037,-194.38841297705454,36.6721131318343,32.98709970664883,-82.32885780158819,49988.260376643404
B,192.5884870172971,130.80894399393495,-231.79829846252005,16.053035460019004,63.52532669633646,-39.41942409068434,49987.1338081784
G,198.27551116778037,129.0862261262831,-207.8818492161054,13.123910693852414,87.6626129228073,-40.44485044478948,49996.6655627049
R,198.21543488729037,132.59953564690255,-193.67083669103073,36.93522637340899,30.311271277703025,-86.2215454051404,49987.781877514004
B,192.50958452587136,130.9998994872049,-233.7381152849091,14.404786040081598,63.344879477995924,-38.60677379551463,49986.38934509621
G,198.27703595252234,129.0875789253292,-207.8778380759871,13.1277191172284,87.67078095536728,-40.43738521669714,49996.66556496209
R,198.58813349160295,132.31761472728158,-192.99711878267243,36.63644838824153,28.30866636858068,-91.02093006097505,49987.303378385695
B,192.45040576255295,131.21057592812306,-235.69444619337239,12.740020865801474,62.91788387090397,-38.04068189874808,49985.644882014676
G,198.27864311050132,129.08885680673248,-207.8739458024563,13.13131655426929,87.67869934979493,-40.43033289570635,49996.66556716688
R,198.14449642769827,131.87634345846325,-194.00263255905486,35.635666202031814,26.04550563935762,-93.2734443647893,49987.303378385695
B,192.19966015023618,130.96997921827415,-237.36360701183966,11.081008949802044,63.216581925126384,-37.7135669176157,49985.00477108532
G,198.2802474138405,129.09013187011385,-207.8700614659957,13.13490608894708,87.68660203744007,-40.423296171660695,49996.66556937167
R,197.70090873785074,131.43506000955418,-195.00807691628512,34.634830326678426,23.782518878946767,-95.52607987634404,49987.303378385695
B,191.94905622764895,130.7295212444607,-239.03245719540405,9.422304715011451,63.515913269458714,-37.38582691671673,49984.36466015755
G,198.2818488803012,129.09140413315134,-207.86618501730393,13.138487770484126,87.69448911600422,-40.416274947112164,49996.66557157645
R,197.25735842601952,130.9937693031309,-196.01346789032812,33.63395856345133,21.51966479196908,-97.77879676020687,49987.303378385695
B,191.69856199071222,130.48916993375485,-240.70106618582588,7.7638386508204995,63.815730576560924,-37.0576094161681,49983.72454923138
G,198.28344752745778,129.0926736133365,-207.86231640759596,13.142061647587008,87.70236068216398,-40.40926912563611,49996.665573781225
R,196.81383746825048,130.55247427006503,-197.01881626905077,32.63306203413502,19.256915861642238,-100.03157000993889,49987.303378385695
B,191.44815623489262,130.24890400883973,-242.3694802585327,6.105564409018154,64.11593751631911,-36.7290109498774,49983.0844383068
G,198.2890294957337,129.0971070910004,-207.84879794627935,13.154543003842786,87.72987022436163,-40.38480245735701,49996.665584184375
R,196.64212782782363,130.3697715462832,-202.69362165496096,26.936270481514917,10.117691003725067,-109.21944476491181,49985.97355932012
B,191.2424330244919,131.35857258274945,-250.4261894887723,2.4255154339815164,56.47552163273114,-35.896345048772744,49979.732640301736
B,195.12319250689256,135.23826042415155,-240.43770885910462,12.412917234745558,76.00682762541297,-16.368020557539197,49979.732650901286
R,198.97318809079104,132.37247753745936,-195.9751054720035,32.99807812088987,1.3551300591980429,-119.44206007238856,49984.2941855417
G,194.1562202280717,129.0762542175957,-221.08907166602586,13.0954088994059,75.94743018270461,-40.49985056698115,49991.7717962959
R,201.7527109610679,132.77979049025907,-189.69897311491098,34.025193413110166,23.274770605972712,-117.43270758804394,49982.744489313016
G,197.56008356381545,133.5848980510299,-211.16495088562354,25.229090675189155,86.36388544208418,-25.366151807973132,49991.232186336885
B,193.8520165718161,134.09585955844707,-243.18032231315453,9.86277761240828,71.48533496910534,-20.663702333350734,49978.69733491601
R,201.7527109610679,132.77979049025907,-189.69897311491098,34.025193413110166,23.274770605972712,-117.43270758804394,49982.744489313016
G,197.56008356381545,133.5848980510299,-211.16495088562354,25.229090675189155,86.36388544208418,-25.366151807973132,49991.232186336885
B,193.8520165718161,134.09585955844707,-243.18032231315453,9.86277761240828,71.48533496910534,-20.663702333350734,49978.69733491601
B,195.25924196613394,135.50248065234493,-238.96512243128234,14.077366032844807,79.90952646807938,-12.24118385041527,49978.697345468616
R,204.08331874033584,134.7827454732897,-182.9811551776848,40.08770575786175,14.510296702870972,-127.6538726847524,49981.065115520614
G,193.4240327635207,133.56077984907475,-224.41439048428725,25.16076674431592,74.5634682886484,-25.499240977188535,49986.33839845273
R,206.57801575338223,135.19416096957923,-175.56371652247438,41.12523152492674,37.31650594623813,-125.62406338527407,49979.68262212577
G,193.34629594215414,133.48607597075716,-224.59141911725044,24.989803997450647,70.26588004746648,-29.783996454553634,49985.785673693856
B,194.678396490517,134.92252318360778,-240.2356034226774,12.807773048329562,77.5555866460308,-14.59086123944077,49977.27115258809
R,206.57801575338223,135.19416096957923,-175.56371652247438,41.12523152492674,37.31650594623813,-125.62406338527407,49979.68262212577
G,193.34629594215414,133.48607597075716,-224.59141911725044,24.989803997450647,70.26588004746648,-29.783996454553634,49985.785673693856
B,194.678396490517,134.92252318360778,-240.2356034226774,12.807773048329562,77.5555866460308,-14.59086123944077,49977.27115258809
R,207.14152664613513,139.36221918965379,-169.28834299935517,51.87053196869397,53.03355511812936,-104.30649568215028,49978.13292588162
G,194.04341452634122,134.4014788905774,-222.47336764911228,27.544424136855152,65.81417773702091,-33.30368151966206,49985.24606373094
B,193.4054891580369,133.7784177773618,-242.9831510062413,10.252726153428412,73.02411304012402,-18.89639505280738,49976.235836595886
R,207.14152664613513,139.36221918965379,-169.28834299935517,51.87053196869397,53.03355511812936,-104.30649568215028,49978.13292588162
G,194.04341452634122,134.4014788905774,-222.47336764911228,27.544424136855152,65.81417773702091,-33.30368151966206,49985.24606373094
B,193.4054891580369,133.7784177773618,-242.9831510062413,10.252726153428412,73.02411304012402,-18.89639505280738,49976.235836595886
G,197.11068000394965,137.46756560889554,-213.62824717848974,36.388268373719676,83.25655996503615,-15.866114897538466,49985.2460717311
R,204.3396308373355,137.8860752075476,-170.70066341191992,53.442142899025065,44.98938172723746,-106.31708940536551,49977.607927015364
B,191.3176071094657,131.69053572879062,-254.80539114795738,-1.5695139882876834,61.27703850088267,-30.64346959204874,49972.98084764388
B,195.54766033880213,134.17293035286335,-245.4489696348422,5.340182609854053,81.30157942647469,-17.60956336659381,49972.98085583888
R,204.30571252397758,138.21868115248154,-179.75267468237718,44.78687595501426,50.77826331463219,-98.6049263220477,49976.06381950186
G,196.17673814168282,136.53477831492538,-218.03184148075945,31.986465483626997,55.43905203632422,-43.67831181208568,49980.6375084579
R,205.80311172489684,143.1599357564704,-172.09715972959967,57.31840997042913,61.38475366161852,-79.78526922322604,49974.67636378771
G,197.9144520665901,139.78270600163412,-208.3056561866539,44.73307830133552,71.75623392418407,-20.9167126958606,49979.47576902662
B,195.3774581887523,134.14191689587557,-245.8239288463521,5.283763344582994,77.15511328594852,-21.036381215322002,49971.29631652372
R,205.80311172489684,143.1599357564704,-172.09715972959967,57.31840997042913,61.38475366161852,-79.78526922322604,49974.67636378771
G,197.9144520665901,139.78270600163412,-208.3056561866539,44.73307830133552,71.75623392418407,-20.9167126958606,49979.47576902662
B,195.3774581887523,134.14191689587557,-245.8239288463521,5.283763344582994,77.15511328594852,-21.036381215322002,49971.29631652372
B,197.93300825403279,136.69572505483163,-238.57455184899632,12.530702451079733,90.20178958189561,-7.996664918079967,49971.29632760867
R,204.22310572857742,146.90846092764411,-176.38515841021655,66.49630879239567,68.6454463421879,-60.22940026236182,49970.93355650249
G,197.12687403615604,138.99892562370817,-209.74325049457855,43.301407177777385,46.918808952315956,-45.736668466191496,49976.37078322936
B,197.93475433959887,136.69711671761792,-238.57053756191732,12.534347003827554,90.21079347512485,-7.989338341557964,49971.29633684454
R,202.62811437664263,145.47072910588017,-178.80210744991874,64.18202887496135,40.276603142180974,-88.08755713324399,49966.67882094755
G,197.84479265037265,141.7055085135693,-212.71229337912885,44.30969284451609,43.559361044823916,-40.6041723916248,49973.58508670903,-50000
B,197.0368137716561,137.3425164268302,-238.89798097556223,15.032277424608807,87.18790203920159,-5.605575380353718,49970.40384623644,-50000
R,198.51470500858437,142.37542087178102,-224.19195638501296,32.83002983863197,43.994731977756544,-40.16880145869217,49970.70956879888,-50000
B,197.03888147035252,137.3441668687899,-238.8936952560409,15.03628784326123,87.19799845768841,-5.597143224972894,49970.403856241996,-50000.0
B,197.04208748127647,137.3438438784513,-238.88974635203604,15.032619532136529,87.19618715863571,-5.610707538117,49970.4038597989,-50000.0
R,198.14537256262201,142.03768409937058,-225.44585310201268,31.613401990699618,10.172210719814593,-73.8688531855091,49966.138066727086,-50000.0
G,194.3196833000156,134.64022847682614,-273.43300472883317,-19.44706910882951,48.50043545515741,-44.243840299593415,49963.12213662545,-50000.0
G,200.36564109541712,138.18495600061456,-259.89377037188785,-9.407623101386317,77.5590212262503,-24.68621089316223,49963.12214715758,-50000.0
R,197.87815320148914,141.7913154042224,-226.2517207967983,30.849235627883363,-1.2591993390958809,-85.2074289862885,49965.444451327894,-50000.69361539919
B,190.47353945278766,131.90962578952946,-261.74563443878384,-6.431690716207839,72.39904099110075,-19.0839147464871,49966.729756497014,-50000.0
B,195.93718974204216,137.37227095415318,-247.64796670796986,7.664961612707394,99.89116317569412,8.40542038270879,49966.72977165324,-50000.0
R,197.80683497116456,141.73029292691302,-226.45723042552555,30.66431750518653,-13.943916472876802,-97.84626659635998,49964.64444188675,-50001.49362484034
G,199.5166476859984,143.20968785576804,-264.4922996396847,4.823536463466599,88.61629486180864,3.0372933748481508,49956.1310216643,-50000.0
B,195.93895551542286,137.37316772432175,-247.6445935652037,7.667474909648824,99.8992527218358,8.41035867456046,49966.72978476114,-50000.0
R,196.38405748401826,140.30751543976672,-230.37695754582543,26.744590384886656,-28.529794389330995,-112.43214451281418,49964.64444188675,-50001.49362484034
G,194.21236872645,140.7138613854496,-287.86086217158305,-5.630011036074592,55.787936127444816,-14.115413649797862,49950.11300901673,-50000.0
G,200.25642231059777,144.25894277244737,-272.8258636304113,4.410421341701234,84.84180653822833,5.44420327316552,49950.11302524306,-50000.0
R,198.63862412016442,143.32737769583983,-241.6822882907121,16.007703635351586,-55.57046131237405,-135.786448620679,49958.67282406976,-50001.49362484034
B,193.3093019887991,134.80022050400007,-278.9491945802257,-23.46527985646915,62.056904195602044,-29.2107771171825,49959.343533718566,-50000.0
B,197.69087314189886,139.17606826974057,-266.66336582449225,-11.186909904915659,86.48725893218128,-4.803907446995712,49959.34354664987,-50000.0
R,198.20433693185456,142.89309050752996,-243.21281666732344,14.477175258740264,-68.59985146483822,-148.81583877314318,49958.12524241364,-50002.04120649646
G,192.55948137176148,143.54888697970054,-287.0548614614947,2.827090395412593,58.923740810527775,2.9830515831006577,49945.56781756298,-50000.0
B,197.70814809188664,139.19229460851435,-266.6169247923297,-11.141529249805874,86.57732150926164,-4.717837215346118,49959.34355985871,-50000.0
R,197.90034896261375,142.58910253828915,-244.28412977321605,13.405862152847652,-81.9007896651525,-162.11677697345746,49957.491910550896,-50002.674538359206
G,189.33807492620318,146.4451344465209,-298.7628330666074,11.898617244855192,54.75862859132765,21.120947816409352,49939.61117835773,-50000.0
B,197.72423656473796,139.20733594215008,-266.57375593268034,-11.099419210332414,86.66133927058009,-4.637806097853497,49959.34357306742,-50000.0
R,197.59635906389295,142.28511263956835,-245.35546533537018,12.334526590693518,-95.20159462199057,-175.4175819302955,49956.858587558214,-50003.30786135189
G,186.1949759830828,149.27257292644038,-310.41416156505056,20.763717132074298,50.86525348379856,38.85520976724955,49933.65453914529,-50000.0
B,197.74191007432697,139.224005142877,-266.53083247453793,-11.058089365172854,86.71857927008385,-4.584556852935647,49959.34358441931,-50000.0
R,195.03586695176406,139.14087603095328,-246.1876181134278,10.958611600413244,-114.01549767208456,-196.43853476574262,49955.583590477836,-50003.30786135189
G,180.46962362659477,143.54722056995234,-329.24983088910784,1.9280478080170056,21.485081930202014,9.475038213653,49930.11229685192,-50000.0
B,197.75642490548523,139.2374752097192,-266.49201522179595,-11.020328423054819,86.79452638926983,-4.512587180902207,49959.343597627805,-50000.0
R,194.73187432479654,138.83688340398575,-247.258989036094,9.887240677747046,-127.31606160753839,-209.73909870119644,49954.950283025515,-50003.94116880421
G,180.98521323933852,144.21552154148037,-341.4982389659385,4.315735300165345,29.721635676427372,14.572959106206284,49924.15565784442,-50000.0
B,197.77026501745553,139.25027004322953,-266.45507716824125,-10.984441253810541,86.86697790890489,-4.444102736384079,49959.34361023298,-50000.0
R,194.61990910978747,138.7249181889767,-248.0360068725745,9.110222841266552,-140.10336722323703,-222.52640431689508,49954.950283025515,-50003.94116880421
G,182.4559566729996,145.36542714991492,-351.0342671684207,7.765452125469031,42.2959002705294,21.303284952222796,49917.339957388605,-50000.0
B,197.78352512289834,139.26248604088562,-266.41974885252665,-10.950162584508663,86.93642697274464,-4.378616213598581,49959.34362283804,-50000.0
R,194.50794369596875,138.61295277515796,-248.8130343393176,8.333195374523433,-152.89061022074543,-235.31364731440348,49954.950283025515,-50003.94116880421
G,183.91774895188297,146.51871357722493,-360.5577803978991,11.225311407399072,54.840198022168764,28.053392043899102,49910.52425693138,-50000.0
B,197.79628065660748,139.2741985861325,-266.3858223958122,-10.917284590739374,87.00325662924077,-4.315744763096203,49959.34363544299,-50000.0
R,194.39597799904402,138.50098707823324,-249.5900694169166,7.556160296924432,-165.6777990575037,-248.10083615116176,49954.950283025515,-50003.94116880421
G,184.1653032918723,148.16675330882802,-368.1091055954581,16.169430602208326,63.40927176424563,37.69923926599062,49903.70855647277,-50000.0
B,197.8118297978135,139.28449155911235,-266.3528168370672,-10.891397619199191,87.0512159431556,-4.284367167395015,49959.34364618184,-50000.0
R,195.19883128294535,135.8407789267427,-265.95296467187893,-10.797981760571762,-146.84064773624243,-253.82647593177256,49950.81610786827,-50003.94116880421
G,188.24894082604553,152.25039084300124,-351.85998564309324,32.4185505545732,49.44875819655706,23.738725698302048,49899.147633541856,-50003.79723706445
R,203.51295563350774,135.8617940084275,-258.549327556131,-10.741432561582267,-124.61537289652479,-253.70278151746473,49950.8161185132,-50003.94116880421
G,189.5636864540818,154.30013539729669,-360.8848236680544,27.4362066240375,43.45660496787087,24.36156280594848,49892.59790080384,-50003.79723706445
B,193.372733027384,135.05463951618728,-291.6464963294859,-35.879998488698604,50.10240631946131,-40.606277283358835,49953.746090239045,-50000.0
R,207.66054225255778,135.9174528958034,-253.29938700835262,-10.661008736325444,-111.3926852781946,-253.50701443166398,49950.8161185132,-50003.94116880421
G,192.40295059902445,157.13939954223935,-350.39213512804395,37.92889516404796,54.88316518607501,35.788123024152625,49892.59790080384,-50003.79723706445
B,197.51972888951977,139.3287107068983,-288.5077229500213,-32.48059213753418,67.51420725604554,-22.772217010114133,49952.114509871215,-50000.0
R,211.80807866933455,135.97318096136036,-248.0494507142546,-10.580447701823424,-98.17007894919882,-253.310933589143,49950.8161185132,-50003.94116880421
G,192.2846467032826,157.02109564649749,-348.2756734717374,40.045356820354506,49.92091938089941,30.825877218977027,49892.59790080384,-50003.79723706445
B,201.36275458695033,143.29881193442216,-284.80152876725083,-28.513764838726132,85.65395605966778,-4.2102081898680765,49950.482929456564,-50000.0
B,202.99445112464494,144.93000190499097,-280.34553041998964,-24.05857377896613,93.66471586357498,3.798555826491649,49950.48293556725,-50000.0
R,211.61704072512472,135.81463063334252,-248.47326563871633,-10.970875750520293,-101.92208587488074,-256.9398371671181,49950.5627943521,-50004.194492965304
G,191.99181657196775,156.72826551518264,-347.9160076760988,40.405022615993076,53.05784263399886,33.962800472076474,49890.92035967319,-50003.79723706445
B,203.00001106377238,144.93518062108853,-280.3327042313429,-24.04635434626378,93.67877247679517,3.8111179461550857,49950.48294166245,-50000.0
R,211.42600606557096,135.65607566117865,-248.89708437163455,-11.361316146162162,-105.67408543057743,-260.5687631173833,49950.30947068574,-50004.44781663167
G,190.53822655892031,155.2746755021352,-350.0109560551434,38.31007423694841,49.49323502316152,30.39819286123913,49889.24281854016,-50003.79723706445
B,203.0055062953645,144.9402948205039,-280.32002198585553,-24.03427855139028,93.69276670187541,3.8236184409155953,49950.48294775762,-50000.0
R,211.2349744309647,135.49751637787946,-249.32090665895882,-11.751767995385379,-109.4260780631544,-264.1977096694367,49950.056147494244,-50004.70113982316
G,190.24677281648346,154.98322175969835,-349.65653782994707,38.664492462144736,52.64048140456329,33.545439242640896,49887.565277411966,-50003.79723706445
B,203.01093939727494,144.94534707963066,-280.30747808827056,-24.022340801424473,93.70669989650078,3.8360586626195348,49950.482953852756,-50000.0
R,211.04394558925438,135.33895308288535,-249.74473227112543,-12.14223049519584,-113.17806417820897,-267.8266752397542,49949.80282475894,-50004.95446255847
G,189.95313094732987,154.68957989054476,-348.4724236532289,39.84860663886293,55.510889941153984,36.41584777923159,49885.88773628139,-50003.79723706445
B,203.01631519645076,144.9503397988855,-280.29506532271637,-24.01053588619105,93.72057121873549,3.8484398664550192,49950.48296001378,-50000.0, 1000
R,210.94034493352214,135.2678234983036,-249.90990442953137,-12.274034174575924,-116.63627422362454,-271.1618435781559,49949.508677940954,-50005.24860937645, 1000
G,186.80048450453324,151.53693344774814,-349.90621000485555,38.414820287236275,52.01855582847514,32.92351366655274,49885.88773628139,-50003.79723706445, 1000
G,187.60039863605525,152.3368330684101,-347.50753148634135,40.813484315586514,56.81802772628786,37.72291139052447,49885.887740325896,-50003.79723706445,1000.0
R,213.1587538303755,137.48623239515697,-245.27920041141468,-7.643330156459242,-104.80580903024912,-259.3313783847805,49949.50868450337,-50005.24860937645,1000.0
R,214.9250974051046,137.58805326810992,-245.3997473206581,-10.094208848189279,-97.76402791900426,-259.88765489653605,49949.50868450337,-50005.24860937645,995.6872693929778
R,214.9250974051046,137.58805326810992,-245.3997473206581,-10.094208848189279,-97.76402791900426,-259.88765489653605,49949.50868450337,-50005.24860937645,995.6872693929778
R,214.9250974051046,137.58805326810992,-245.3997473206581,-10.094208848189279,-97.76402791900426,-259.88765489653605,49949.50868450337,-50005.24860937645,995.6872693929778
R,214.9250974051046,137.58805326810992,-245.3997473206581,-10.094208848189279,-97.76402791900426,-259.88765489653605,49949.50868450337,-50005.24860937645
G,216.87700139463263,138.54004356771532,-240.68395526481302,-7.378236424339238,-87.05250123449932,-254.17571309890363,49949.50868950742,-50005.24860937645
B,218.10231514057133,-50.7660987819945,-238.8523699240455,100.7776894668302767,-82.93588139704039,-246.8193818132286,49948.84295003289,-48000.24860937645
B,219.32762394668197,-50.9921546643459,-237.02078947179118,100.7776894668302767,-78.81928448208123,-239.46304651912016,49948.177210552465,-48000.24860937645
R,218.42737708560267,-50.62011219815537,-237.56680552428907,100.149805225843688,-79.81064499193974,-253.69530131626328,49949.50868950742,-48000.24860937645
R,218.48509619545166,-50.62011219815537,-237.3969764116997,100.14980522584369,-78.51149748983735,-253.69530131626328,49949.50868950742,-48000.24860937645
R,218.48509619545166,-50.62011219815537,-237.3969764116997,100.14980522584369,-78.51149748983735,-253.69530131626328,49949.50868950742,-48000.24860937645
R,218.48509619545166,-50.62011219815537,-237.3969764116997,100.14980522584369,-78.51149748983735,-253.69530131626328,49949.50868950742,-48000.24860937645
R,218.48509619545166,-50.62011219815537,-237.3969764116997,100.14980522584369,-78.51149748983735,-253.69530131626328,49949.50868950742,-48000.24860937645
R,218.48509619545166,-50.62011219815537,-237.3969764116997,100.14980522584369,-78.51149748983735,-253.69530131626328,49949.50868950742,-48000.24860937645
R,218.48509619545166,-50.62011219815537,-237.3969764116997,100.14980522584369,-78.51149748983735,-253.69530131626328,49949.50868950742,-48000.24860937645
R,218.48509619545166,-50.62011219815537,-237.3969764116997,100.14980522584369,-78.51149748983735,-253.69530131626328,49949.50868950742,-48000.24860937645
R,218.48509619545166,-50.62011219815537,-237.3969764116997,100.14980522584369,-78.51149748983735,-253.69530131626328,49949.50868950742,-48000.24860937645
R,218.48509619545166,-50.62011219815537,-237.3969764116997,100.14980522584369,-78.51149748983735,-253.69530131626328,49949.50868950742,-48000.24860937645
R,218.54282593847324,-50.62011219815537,-237.22711872284836,100.14980522584369,-77.21231932159533,-253.69530131626328,49949.50868950742,-48000.24860937645
R,218.54282593847324,-50.62011219815537,-237.22711872284836,100.14980522584369,-77.21231932159533,-253.69530131626328,49949.50868950742,-48000.24860937645
R,218.54282593847324,-50.62011219815537,-237.22711872284836,100.14980522584369,-77.21231932159533,-253.69530131626328,49949.50868950742,-48000.24860937645
R,218.54282593847324,-50.62011219815537,-237.22711872284836,100.14980522584369,-77.21231932159533,-253.69530131626328,49949.50868950742,-48000.24860937645
R,218.54282593847324,-50.62011219815537,-237.22711872284836,100.14980522584369,-77.21231932159533,-253.69530131626328,49949.50868950742,-48000.24860937645
R,218.54282593847324,-50.62011219815537,-237.22711872284836,100.14980522584369,-77.21231932159533,-253.69530131626328,49949.50868950742,-48000.24860937645
R,218.54282593847324,-50.62011219815537,-100.22711872284836,100.14980522584369,-77.21231932159533,-253.69530131626328,49949.50868950742,-48000.24860937645
R,218.54282593847324,-50.62011219815537,-100.22711872284836,100.14980522584369,-77.21231932159533,-253.69530131626328,49949.50868950742,-10.24860937645
R,218.54282593847324,-50.62011219815537,-100.22711872284836,100.14980522584369,-77.21231932159533,-253.69530131626328,49949.50868950742,-10.24860937645
R,220.1728954478873,-50.62011219815537,-98.75053724741053,100.14980522584369,-72.98001000990716,-253.69530131626328,49949.194576279995
R,221.8068167751254,-50.62011219815537,-95.97687577360698,100.14980522584369,-68.06147827564405,-253.69530131626328,49949.194576279995
R,223.4406508748191,-50.62011219815537,-93.20234288614084,100.14980522584369,-63.14062366638509,-253.69530131626328,49949.194576279995
R,225.0741732686227,-50.62011219815537,-90.42254022028003,100.14980522584369,-58.20354080670668,-253.69530131626328,49949.194576279995
R,227.7220510556247,-50.62011219815537,-87.53552641019144,100.14980522584369,-48.77751640420737,-253.69530131626328,49949.19458013178
G,225.3837571620817,-50.62011219815537,-96.41427905921978,100.14980522584369,-64.72583338644343,-253.69530131626328,49947.33458261932
B,225.2337928087994,-50.62011219815537,-100.65307273079591,100.14980522584369,-67.22601681478965,-253.69530131626328,49946.11694142827
B,225.08386266252708,-50.62011219815537,-104.89180076517493,100.14980522584369,-69.72606719864295,-253.69530131626328,49944.89930024618
=======
COLOR,W1,W2,W3,W4,W5
B,500.0004037109066,249.9992955679865,50000000.0,199.99923005056738,199.99923005056738
R,497.4152494305085,254.1997154733306,49999997.93109274,208.86486708669827,208.86486708669827
G,497.706184539023,254.79597222344623,49999999.5588245,205.27319679852678,205.27319679852678
B,500.00056112625373,249.99898073632875,50000000.0,199.99889612790696,199.99889612790696
R,496.38292221768756,256.75041846325246,49999997.33991724,210.41497252308045,210.41497252308045
G,496.3053507307161,257.0117506714578,49999998.594569154,209.8376066675726,209.8376066675726
B,500.00077985313567,249.99867690501517,50000000.0,199.9985344731312,199.9985344731312
R,495.493067688161,260.58512068620166,49999997.33991724,212.5181202956955,212.5181202956955
G,495.0539814536466,260.21414957477725,49999998.10445579,213.49993287080204,213.49993287080204
B,499.57814160665924,249.4690950519671,50000000.0,200.05787812838742,200.05787812838742
R,494.7852347476836,262.49401537401457,49999996.52554101,214.9892788847244,214.9892788847244
G,493.8478301726122,261.55747375082825,49999996.761439055,218.2099322175606,218.2099322175606
R,494.7852338603043,262.49339326152324,49999996.52554101,214.98840539824542,214.98840539824542
G,492.5072984678371,262.8203739169443,49999995.83144021,221.55034038744978,221.55034038744978
B,498.59834220674674,250.98849627072997,49999998.562361434,203.61346520143556,203.61346520143556
G,492.50755635974434,262.820089686869,49999995.83144021,221.54995913280553,221.54995913280553
R,494.27697552438855,265.0347976828296,49999996.52554101,217.57910532015663,217.57910532015663
B,497.4382484325015,252.87808597580457,49999997.07790673,207.57911064079653,207.57911064079653
R,493.98248853190785,265.48054920789565,49999996.06357382,218.76443878731163,218.76443878731163
G,491.98422741386196,263.026494254502,49999995.35584939,222.95033507828182,222.95033507828182
B,497.43454009907356,253.60374513028523,49999996.74537561,207.6072981038739,207.6072981038739
R,493.98248853190785,265.48054920789565,49999996.06357382,218.76443878731163,218.76443878731163
G,491.98422741386196,263.026494254502,49999995.35584939,222.95033507828182,222.95033507828182
B,497.43454009907356,253.60374513028523,49999996.74537561,207.6072981038739,207.6072981038739
R,493.98248853190785,265.48054920789565,49999996.06357382,218.76443878731163,218.76443878731163
G,491.98422741386196,263.026494254502,49999995.35584939,222.95033507828182,222.95033507828182
B,497.43454009907356,253.60374513028523,49999996.74537561,207.6072981038739,207.6072981038739
R,493.98248853190785,265.48054920789565,49999996.06357382,218.76443878731163,218.76443878731163
G,491.98422741386196,263.026494254502,49999995.35584939,222.95033507828182,222.95033507828182
B,497.43454009907356,253.60374513028523,49999996.74537561,207.6072981038739,207.6072981038739
R,493.98248853190785,265.48054920789565,49999996.06357382,218.76443878731163,218.76443878731163
G,491.98422741386196,263.026494254502,49999995.35584939,222.95033507828182,222.95033507828182
B,497.43454009907356,253.60374513028523,49999996.74537561,207.6072981038739,207.6072981038739
R,493.98248853190785,265.48054920789565,49999996.06357382,218.76443878731163,218.76443878731163
G,491.98422741386196,263.026494254502,49999995.35584939,222.95033507828182,222.95033507828182
B,497.43454009907356,253.60374513028523,49999996.74537561,207.6072981038739,207.6072981038739
R,493.98248853190785,265.48054920789565,49999996.06357382,218.76443878731163,218.76443878731163
G,491.98422741386196,263.026494254502,49999995.35584939,222.95033507828182,222.95033507828182
B,497.43454009907356,253.60374513028523,49999996.74537561,207.6072981038739,207.6072981038739
R,493.98248853190785,265.48054920789565,49999996.06357382,218.76443878731163,218.76443878731163
G,491.98422741386196,263.026494254502,49999995.35584939,222.95033507828182,222.95033507828182
B,497.43454009907356,253.60374513028523,49999996.74537561,207.6072981038739,207.6072981038739
R,493.31836060395045,266.79645709120797,49999996.06357382,219.80223418925183,219.80223418925183
G,491.36950870311523,264.212453206827,49999995.35584939,224.09827658674143,224.09827658674143
B,496.6243855088165,254.7653864913765,49999996.74537561,208.6063309573096,208.6063309573096
R,492.33842512313805,267.5336679141229,49999996.06357382,220.79133388503118,220.79133388503118
G,490.6843884514329,265.36168168428117,49999995.35584939,225.83248621141655,225.83248621141655
B,496.4452959647771,256.42000080708135,49999996.58032376,210.67578913110273,210.67578913110273
R,491.358492697344,268.27077674736336,49999996.06357382,221.78023602518445,221.78023602518445
G,489.9992676482997,266.51091097347046,49999995.35584939,227.56669711834937,227.56669711834937
B,496.26620570640324,258.0746165514551,49999996.415271915,212.74524869629442,212.74524869629442
G,489.7449404493101,266.13864538129445,49999995.35584939,227.24678018013057,227.24678018013057
R,490.0540357618873,270.5284525359629,49999995.73507382,224.48966980882244,224.48966980882244
B,495.699655488492,260.9100007888217,49999995.42051533,215.42233333093216,215.42233333093216
B,495.69980744699626,260.9096968734147,49999995.42051533,215.42202896235352,215.42202896235352
R,488.56817484232727,273.23709888650734,49999995.73507382,228.3973226021612,228.3973226021612
G,488.3106554929341,268.81883877697993,49999994.45585105,231.21743805034743,231.21743805034743
R,488.57192359161195,273.12317527283096,49999995.73507382,228.17674566763375,228.17674566763375
G,487.34358693872497,272.4166439202961,49999994.45585105,232.89620288289743,232.89620288289743
B,495.15772573267094,264.9283651871404,49999994.92053143,217.86727429511012,217.86727429511012
B,495.15790829657027,264.92802329780625,49999994.92053143,217.86696179277058,217.86696179277058
R,486.13451292162074,275.6891002778732,49999995.48007382,229.92569805325235,229.92569805325235
G,485.3610447163271,275.4977108436291,49999994.45585105,237.06220027964787,237.06220027964787
B,495.15810754169553,264.92768174060643,49999994.92053143,217.86659754960823,217.86659754960823
R,484.34632761663164,277.78603126088507,49999995.00025062,235.61059839433744,235.61059839433744
G,483.70229127013647,277.72369004055565,49999993.956665255,240.60679420310694,240.60679420310694
B,495.158330591661,264.92736435721326,49999994.92053143,217.86623924643305,217.86623924643305
R,483.5344977020301,280.78034810698233,49999994.51013726,238.5369940819703,238.5369940819703
G,481.6349249849941,279.55145264651344,49999993.62816525,243.25427530168767,243.25427530168767
G,481.6351256814378,279.5511729892838,49999993.62816525,243.25395915752594,243.25395915752594
R,481.32145741543746,282.4087727612534,49999993.79631441,240.19091314242266,240.19091314242266
B,494.5983049385597,268.3314984684016,49999994.42110138,220.30019601347058,220.30019601347058
B,494.5985013390314,268.3311548024505,49999994.42110138,220.29981769808626,220.29981769808626
R,480.2252821415215,285.0311559368357,49999992.88519386,243.13552390124718,243.13552390124718
G,479.4808408035936,281.0430873116087,49999993.478165254,245.40539553809583,245.40539553809583
R,480.225470950504,285.0307579292166,49999992.88519386,243.13524000602237,243.13524000602237
G,477.431525782803,283.5156988231485,49999993.478165254,249.77844542651943,249.77844542651943
B,493.73056564765307,271.9799158359049,49999993.92167132,223.18976744612107,223.18976744612107
R,479.7503198640482,285.7583799425703,49999992.7252528,244.45497746604912,244.45497746604912
G,476.5211765630309,283.9640652446458,49999993.3252243,251.16761701142784,251.16761701142784
B,493.04710047248267,272.5001683941593,49999993.438834295,224.50594876509743,224.50594876509743
B,493.047296170169,272.4998257165389,49999993.438834295,224.50557089142762,224.50557089142762
R,478.1292991012904,287.086243676112,49999991.40897176,248.61121894888967,248.61121894888967
G,475.3329810545377,285.777144940343,49999992.884048805,254.08056017899125,254.08056017899125
B,493.04744613623814,272.49952578415406,49999993.438834295,224.5052613324057,224.5052613324057
R,477.45341011806664,290.4114167944347,49999990.53890839,252.04798128364465,252.04798128364465
G,473.35246006554405,287.54783680460105,49999992.884048805,257.2769721742614,257.2769721742614
R,476.7891493274314,291.73993837570515,49999990.53890839,253.65090900625145,253.65090900625145
G,472.5304719103168,288.7186987903467,49999992.884048805,259.04226807565675,259.04226807565675
B,492.3831760502157,273.828065956199,49999993.438834295,225.8267355462486,225.8267355462486
R,476.78939136071614,291.7396073560619,49999990.53890839,253.65041436517814,253.65041436517814
G,471.93548769220166,292.4592460557029,49999992.398172565,261.66156783185016,261.66156783185016
B,490.72522159033883,276.88793748567014,49999993.1103343,228.8648300296542,228.8648300296542
G,471.93565937964985,292.4589125503628,49999992.398172565,261.6611462494459,261.6611462494459
R,475.18703890145866,294.05355914935996,49999989.6431202,255.43805706951133,255.43805706951133
B,488.6491332879131,279.3607162514562,49999992.9603343,230.9055034753374,230.9055034753374
R,474.52277851338187,295.38207992551355,49999989.6431202,257.0409828577589,257.0409828577589
G,471.1136714944771,293.6297748193229,49999992.398172565,263.4264420824754,263.4264420824754
B,487.9848633362031,280.6892561548762,49999992.9603343,232.22697600192146,232.22697600192146
G,471.1138878113932,293.62948698889164,49999992.398172565,263.42608559207093,263.42608559207093
R,473.62591054947995,299.22252822228074,49999989.6431202,259.3219751231122,259.3219751231122
B,486.58501419619165,284.01250270828257,49999992.5443693,236.7425926053417,236.7425926053417
R,472.9616512118493,300.55104689754205,49999989.6431202,260.9248779738863,260.9248779738863
G,470.29189955490966,294.80035006267934,49999992.398172565,265.1913825165376,265.1913825165376
B,485.9207427405989,285.3410456194681,49999992.5443693,238.06406763115908,238.06406763115908
G,470.03746853534665,294.42795989411434,49999992.398172565,264.8713888993764,264.8713888993764
R,471.8136470568938,304.48871143577946,49999989.6431202,263.913951550944,263.913951550944
B,483.48982689232434,287.096395866225,49999991.51926376,241.34579913293098,241.34579913293098
G,470.0376312667203,294.4276509120726,49999992.398172565,264.87104527246373,264.87104527246373
R,471.6683838940201,307.2966688051019,49999988.743121855,264.8185726820019,264.8185726820019
B,482.8806947496379,289.5086826506554,49999990.527499326,244.21676187985364,244.21676187985364
R,471.0041268090959,308.6251829749503,49999988.743121855,266.42148704270113,266.42148704270113
G,469.2156427584967,295.59851460673485,49999992.398172565,266.6363430171254,266.6363430171254
B,482.21642145325086,290.8372292434295,49999990.527499326,245.53823993132428,245.53823993132428
G,469.215804335364,295.598206000115,49999992.398172565,266.63599756690223,266.63599756690223
R,470.8589206448092,311.4331340114661,49999987.84312351,267.33017712624286,267.33017712624286
B,481.60728832194263,293.24951771492164,49999989.53573489,248.4092044959184,248.4092044959184
R,470.1946640771117,312.7616471468611,49999987.84312351,268.93306899972083,268.93306899972083
G,468.39381546189196,296.7690704902115,49999992.398172565,268.4012963896435,268.4012963896435
B,480.9430141682747,294.5780660222575,49999989.53573489,249.73068382094147,249.73068382094147
R,470.19491278187985,312.7613027905257,49999987.84312351,268.9325462997132,268.9325462997132
G,467.4392521379119,300.2561272862899,49999992.398172565,269.726554983582,269.726554983582
B,479.9378700519019,297.5649310182112,49999988.37169054,250.5149277365954,250.5149277365954
B,479.9380174690819,297.56463618200416,49999988.37169054,250.51461137733196,250.51461137733196
R,467.67278922288364,314.7956121025468,49999987.84312351,272.26070333520244,272.26070333520244
G,465.762679518772,303.2060206930372,49999992.14317257,273.5055626280371,273.5055626280371
R,467.67309257810246,314.79534746439333,49999987.84312351,272.2602296323121,272.2602296323121
G,464.76135868350167,306.37548468662675,49999991.50729633,276.8133681344626,276.8133681344626
B,479.04478792858026,300.7218000166696,49999987.87653499,250.310069565537,250.310069565537
R,467.0088351571811,316.123862306236,49999987.84312351,273.86312174936165,273.86312174936165
G,463.9393705812814,307.5463497851429,49999991.50729633,278.57866667168486,278.57866667168486
B,478.38051761470666,302.0503406444168,49999987.87653499,251.63153876043054,251.63153876043054
B,478.3806666158389,302.0500426403053,49999987.87653499,251.6312186382005,251.6312186382005
R,464.4867057411006,318.15816505834476,49999987.84312351,277.19129153382187,277.19129153382187
G,462.26279872535196,310.49624574615467,49999991.252296336,282.3576894164132,282.3576894164132
G,462.2629958961053,310.4959645904443,49999991.252296336,282.3572907383909,282.3572907383909
R,461.62200159806395,320.6196655516551,49999987.84312351,280.10870004552675,280.10870004552675
B,477.18926427159516,306.35193109898375,49999987.87653499,255.12847858773478,255.12847858773478
R,461.62222063617935,320.6192979925764,49999987.84312351,280.1081768880049,280.1081768880049
G,461.7347703285767,313.14111406194644,49999990.10880244,284.4941291803718,284.4941291803718
B,475.83319449772273,308.2305815965019,49999986.9255358,257.8895930097255,257.8895930097255
R,460.9579626125954,321.9478140397443,49999987.84312351,281.7110671225079,281.7110671225079
G,460.91278172830266,314.311981098197,49999990.10880244,286.2594299350987,286.2594299350987
B,475.1689233641582,309.559123863631,49999986.9255358,259.21106259459174,259.21106259459174
B,475.169122070296,309.55879232028036,49999986.9255358,259.2107515606553,259.2107515606553
R,460.47076852627055,324.7086615333791,49999987.345497295,284.3066459724144,284.3066459724144
G,460.7851089350107,317.4492156207882,49999989.11600236,286.9979089217461,286.9979089217461
R,460.4444242839656,324.65819210951395,49999987.345497295,284.479722342332,284.479722342332
G,459.8833793442282,318.2036778315353,49999987.676211014,291.8696566089658,291.8696566089658
B,475.13999896046556,311.18360673689494,49999985.43097471,259.40139052693183,259.40139052693183
B,475.1404059377513,311.1831479161251,49999985.43097471,259.2204247878656,259.2204247878656
R,460.442192218857,327.6206160086808,49999986.84666045,284.4833483841949,284.4833483841949
G,458.7679192083466,320.03714749136964,49999986.21311882,297.1967908946753,297.1967908946753
R,460.4424399574361,327.62027164119763,49999986.84666045,284.48279115304877,284.48279115304877
G,457.89900726249374,323.78557464352167,49999985.46865382,300.8347787534477,300.8347787534477
B,473.32684617092576,314.4185964842508,49999985.43097471,263.20074294252083,263.20074294252083
G,457.6445373149208,323.4131533532862,49999985.46865382,300.5147712343726,300.5147712343726
R,459.3223079503343,330.3901781658192,49999986.84666045,286.56881206165133,286.56881206165133
B,471.6227375492323,315.7618132363174,49999983.96173964,267.4901514441072,267.4901514441072
R,459.3225560546108,330.38983130628617,49999986.84666045,286.56830699186673,286.56830699186673
G,456.6391276179113,324.9038975179515,49999984.107989736,304.99131107625556,304.99131107625556
B,470.3263596945553,316.9163346458403,49999983.02309359,270.3658712645608,270.3658712645608
G,456.63939761875304,324.90370862928296,49999984.107989736,304.99090164693195,304.99090164693195
R,459.32196744881793,332.93298030055234,49999985.84712647,286.569895887092,286.569895887092
B,469.05323916155163,318.18720626011503,49999982.03301308,274.2566093073532,274.2566093073532
R,458.62985418453104,333.2190857390717,49999985.5308144,287.8497265240409,287.8497265240409
G,456.0706033935954,325.4579618814604,49999983.822276235,306.4868822477178,306.4868822477178
B,468.46419340602364,318.52210858359126,49999981.57534067,274.3048143499202,274.3048143499202
R,458.62985418453104,333.2190857390717,49999985.5308144,287.8497265240409,287.8497265240409
G,456.0706033935954,325.4579618814604,49999983.822276235,306.4868822477178,306.4868822477178
B,468.46419340602364,318.52210858359126,49999981.57534067,274.3048143499202,274.3048143499202
R,458.62985418453104,333.2190857390717,49999985.5308144,287.8497265240409,287.8497265240409
G,456.0706033935954,325.4579618814604,49999983.822276235,306.4868822477178,306.4868822477178
B,468.46419340602364,318.52210858359126,49999981.57534067,274.3048143499202,274.3048143499202
R,458.62985418453104,333.2190857390717,49999985.5308144,287.8497265240409,287.8497265240409
G,456.0706033935954,325.4579618814604,49999983.822276235,306.4868822477178,306.4868822477178
B,468.46419340602364,318.52210858359126,49999981.57534067,274.3048143499202,274.3048143499202
R,458.62985418453104,333.2190857390717,49999985.5308144,287.8497265240409,287.8497265240409
G,456.0706033935954,325.4579618814604,49999983.822276235,306.4868822477178,306.4868822477178
B,468.46419340602364,318.52210858359126,49999981.57534067,274.3048143499202,274.3048143499202
R,458.62985418453104,333.2190857390717,49999985.5308144,287.8497265240409,287.8497265240409
G,456.0706033935954,325.4579618814604,49999983.822276235,306.4868822477178,306.4868822477178
B,468.46419340602364,318.52210858359126,49999981.57534067,274.3048143499202,274.3048143499202
R,458.62985418453104,333.2190857390717,49999985.5308144,287.8497265240409,287.8497265240409
G,456.0706033935954,325.4579618814604,49999983.822276235,306.4868822477178,306.4868822477178
B,468.46419340602364,318.52210858359126,49999981.57534067,274.3048143499202,274.3048143499202
R,458.62985418453104,333.2190857390717,49999985.5308144,287.8497265240409,287.8497265240409
G,456.0706033935954,325.4579618814604,49999983.822276235,306.4868822477178,306.4868822477178
B,468.46419340602364,318.52210858359126,49999981.57534067,274.3048143499202,274.3048143499202
R,458.62985418453104,333.2190857390717,49999985.5308144,287.8497265240409,287.8497265240409
G,456.0706033935954,325.4579618814604,49999983.822276235,306.4868822477178,306.4868822477178
B,468.46419340602364,318.52210858359126,49999981.57534067,274.3048143499202,274.3048143499202
R,457.70233548535117,334.1849392296003,49999985.5308144,289.98104020425114,289.98104020425114
G,455.0946427792178,325.83095928353384,49999983.57412124,307.9582316106718,307.9582316106718
B,467.9772057345987,319.4565765487787,49999981.24592904,275.3702859635976,275.3702859635976
R,457.70233548535117,334.1849392296003,49999985.5308144,289.98104020425114,289.98104020425114
G,455.0946427792178,325.83095928353384,49999983.57412124,307.9582316106718,307.9582316106718
B,467.9772057345987,319.4565765487787,49999981.24592904,275.3702859635976,275.3702859635976
R,457.70233548535117,334.1849392296003,49999985.5308144,289.98104020425114,289.98104020425114
G,455.0946427792178,325.83095928353384,49999983.57412124,307.9582316106718,307.9582316106718
B,467.9772057345987,319.4565765487787,49999981.24592904,275.3702859635976,275.3702859635976
R,457.70233548535117,334.1849392296003,49999985.5308144,289.98104020425114,289.98104020425114
G,455.0946427792178,325.83095928353384,49999983.57412124,307.9582316106718,307.9582316106718
B,467.9772057345987,319.4565765487787,49999981.24592904,275.3702859635976,275.3702859635976
R,457.70233548535117,334.1849392296003,49999985.5308144,289.98104020425114,289.98104020425114
G,455.0946427792178,325.83095928353384,49999983.57412124,307.9582316106718,307.9582316106718
B,467.9772057345987,319.4565765487787,49999981.24592904,275.3702859635976,275.3702859635976
R,457.70233548535117,334.1849392296003,49999985.5308144,289.98104020425114,289.98104020425114
G,455.0946427792178,325.83095928353384,49999983.57412124,307.9582316106718,307.9582316106718
B,467.9772057345987,319.4565765487787,49999981.24592904,275.3702859635976,275.3702859635976
R,457.70233548535117,334.1849392296003,49999985.5308144,289.98104020425114,289.98104020425114
G,455.0946427792178,325.83095928353384,49999983.57412124,307.9582316106718,307.9582316106718
B,467.9772057345987,319.4565765487787,49999981.24592904,275.3702859635976,275.3702859635976
R,457.70233548535117,334.1849392296003,49999985.5308144,289.98104020425114,289.98104020425114
G,455.0946427792178,325.83095928353384,49999983.57412124,307.9582316106718,307.9582316106718
B,467.9772057345987,319.4565765487787,49999981.24592904,275.3702859635976,275.3702859635976
R,457.0102213775894,334.4710484570403,49999985.214502335,291.310873390709,291.310873390709
G,454.5258485776224,326.3852161965616,49999983.288407736,309.4542165881152,309.4542165881152
B,467.3881425109696,319.7914602522996,49999980.78825663,275.4186350088991,275.4186350088991
R,457.0102213775894,334.4710484570403,49999985.214502335,291.310873390709,291.310873390709
G,454.5258485776224,326.3852161965616,49999983.288407736,309.4542165881152,309.4542165881152
B,467.3881425109696,319.7914602522996,49999980.78825663,275.4186350088991,275.4186350088991
R,457.0102213775894,334.4710484570403,49999985.214502335,291.310873390709,291.310873390709
G,454.5258485776224,326.3852161965616,49999983.288407736,309.4542165881152,309.4542165881152
B,467.3881425109696,319.7914602522996,49999980.78825663,275.4186350088991,275.4186350088991
R,457.0102213775894,334.4710484570403,49999985.214502335,291.310873390709,291.310873390709
G,454.5258485776224,326.3852161965616,49999983.288407736,309.4542165881152,309.4542165881152
B,467.3881425109696,319.7914602522996,49999980.78825663,275.4186350088991,275.4186350088991
R,457.0102213775894,334.4710484570403,49999985.214502335,291.310873390709,291.310873390709
G,454.5258485776224,326.3852161965616,49999983.288407736,309.4542165881152,309.4542165881152
B,467.3881425109696,319.7914602522996,49999980.78825663,275.4186350088991,275.4186350088991
R,457.0102213775894,334.4710484570403,49999985.214502335,291.310873390709,291.310873390709
G,454.5258485776224,326.3852161965616,49999983.288407736,309.4542165881152,309.4542165881152
B,467.3881425109696,319.7914602522996,49999980.78825663,275.4186350088991,275.4186350088991
R,457.0102213775894,334.4710484570403,49999985.214502335,291.310873390709,291.310873390709
G,454.5258485776224,326.3852161965616,49999983.288407736,309.4542165881152,309.4542165881152
B,467.3881425109696,319.7914602522996,49999980.78825663,275.4186350088991,275.4186350088991
R,457.0102213775894,334.4710484570403,49999985.214502335,291.310873390709,291.310873390709
G,454.5258485776224,326.3852161965616,49999983.288407736,309.4542165881152,309.4542165881152
B,467.3881425109696,319.7914602522996,49999980.78825663,275.4186350088991,275.4186350088991
R,457.0102213775894,334.4710484570403,49999985.214502335,291.310873390709,291.310873390709
G,454.5258485776224,326.3852161965616,49999983.288407736,309.4542165881152,309.4542165881152
B,467.3881425109696,319.7914602522996,49999980.78825663,275.4186350088991,275.4186350088991
R,457.0105293320393,334.47078258093273,49999985.214502335,291.31036254433315,291.31036254433315
G,453.5206795365591,329.55087372245674,49999982.6525315,312.7637110839836,312.7637110839836
B,466.5886368057805,323.0418365711731,49999980.29310108,275.2319823147662,275.2319823147662
G,453.5208390585664,329.5505571430554,49999982.6525315,312.7634022258457,312.7634022258457
R,455.0023180360822,336.1092420137549,49999984.71566549,293.31392597335554,293.31392597335554
B,465.3831266944933,325.56600759597325,49999979.58465108,278.5770730362548,278.5770730362548
B,465.38332138642755,325.5656830049148,49999979.58465108,278.5767697041978,278.5767697041978
R,454.48312543888073,339.08234063176576,49999984.22555213,295.7269522807807,295.7269522807807
G,452.27783875497147,331.7683476441936,49999981.77374465,317.57604252343265,317.57604252343265
R,454.48337388455855,339.08199343572596,49999984.22555213,295.72636862668924,295.72636862668924
G,451.3356748401923,334.0852070293238,49999981.27455886,319.1681423613884,319.1681423613884
B,464.33206420887444,327.6622127046767,49999978.58644958,280.8490769770606,280.8490769770606
R,454.4836234201049,339.0816472020735,49999984.22555213,295.7257867708637,295.7257867708637
G,450.1024422499672,338.16797827431054,49999981.27455886,322.15131470517633,322.15131470517633
B,463.5373784489602,330.71015304547626,49999977.34559809,281.8600311862342,281.8600311862342
R,454.4068964431221,338.9347816640519,49999984.22555213,295.62482565575795,295.62482565575795
G,448.6879922179927,340.25379240153234,49999980.627949975,324.45502411467646,324.45502411467646
B,462.992280689183,333.659203963477,49999976.35991734,284.26507977402804,284.26507977402804
G,448.6881794725859,340.2535286190307,49999980.627949975,324.45464467164317,324.45464467164317
R,453.81956010360364,342.79547969259613,49999983.80958713,298.3361295238508,298.3361295238508
B,461.55040066925136,337.1878742773374,49999976.35991734,288.7058949564174,288.7058949564174
R,453.1553050485482,344.123989802707,49999983.80958713,299.9390032837709,299.9390032837709
G,447.86618212909,341.42441366503976,49999980.627949975,326.21997044960904,326.21997044960904
B,460.88612580562284,338.51642400459446,49999976.35991734,290.0273672102103,290.0273672102103
R,453.15555557565676,344.12363792056755,49999983.80958713,299.93841411662436,299.93841411662436
G,446.63294371569737,345.5071858080961,49999980.627949975,329.2031571940786,329.2031571940786
B,460.0914075649734,341.5643297283528,49999975.11906585,291.038551705993,291.038551705993
G,446.6331312200845,345.50692195028967,49999980.627949975,329.2027765305234,329.2027765305234
R,451.72395379350996,346.66525264304096,49999982.98862213,304.0964106994338,304.0964106994338
B,458.705068321251,344.544857955449,49999974.864065856,295.4764270673235,295.4764270673235
B,458.70522115498716,344.54455229289727,49999974.864065856,295.4761587687912,295.4761587687912
R,450.3395852324588,348.67743087299596,49999981.7068309,309.1786871988777,309.1786871988777
G,445.3505915541509,347.7350570882285,49999980.627949975,332.48387151608944,332.48387151608944
R,449.67532588419556,350.0059495695224,49999981.7068309,310.78156932473337,310.78156932473337
G,444.528594348988,348.90594332320296,49999980.627949975,334.2491982849574,334.2491982849574
B,458.04094603942,345.8731025240315,49999974.864065856,296.797630105411,296.797630105411
G,444.52878993318586,348.90570281617175,49999980.627949975,334.2488572053484,334.2488572053484
R,448.8554816898836,352.95276521422545,49999980.95240084,313.5008183675661,313.5008183675661
B,457.19957273306517,348.89218168430654,49999974.44810086,297.99803817774676,297.99803817774676
G,444.5289318018191,348.90537188893853,49999980.627949975,334.2488621930022,334.2488621930022
R,447.97479133315323,355.19325144211535,49999980.45724529,316.34274464632074,316.34274464632074
B,455.9878518195064,350.78700420926265,49999973.533299014,299.9306166790731,299.9306166790731
B,455.9879950382365,350.7867177708291,49999973.533299014,299.93032949879006,299.93032949879006
R,447.7481369080458,356.90623401558116,49999979.1649438,316.8661991402894,316.8661991402894
G,443.476036039383,349.5684260379572,49999979.24812843,340.1595307794922,340.1595307794922
R,446.75611944769213,357.9136193602275,49999979.1649438,318.04309264121105,318.04309264121105
G,442.49948120583946,350.59140088172893,49999979.24812843,341.0171287741928,341.0171287741928
B,455.3096781898026,352.08943833790437,49999973.533299014,300.7468410166944,300.7468410166944
R,446.75632366000326,357.91326991924126,49999979.1649438,318.0427791171572,318.0427791171572
G,441.36104350138686,353.78014921996845,49999978.373340584,344.1530574515625,344.1530574515625
B,454.2909579020177,355.39423216706945,49999973.533299014,303.2764155968304,303.2764155968304
R,446.5996159146133,358.5464882553456,49999978.87492268,318.73938011235975,318.73938011235975
G,441.09352579122464,354.33394095917015,49999977.92425597,345.896982384749,345.896982384749
B,453.39092705926595,355.28597872722315,49999973.06292833,303.9776242219816,303.9776242219816
R,446.5996159146133,358.5464882553456,49999978.87492268,318.73938011235975,318.73938011235975
G,441.09352579122464,354.33394095917015,49999977.92425597,345.896982384749,345.896982384749
B,453.39092705926595,355.28597872722315,49999973.06292833,303.9776242219816,303.9776242219816
R,446.5996159146133,358.5464882553456,49999978.87492268,318.73938011235975,318.73938011235975
G,441.09352579122464,354.33394095917015,49999977.92425597,345.896982384749,345.896982384749
B,453.39092705926595,355.28597872722315,49999973.06292833,303.9776242219816,303.9776242219816
R,446.5996159146133,358.5464882553456,49999978.87492268,318.73938011235975,318.73938011235975
G,441.09352579122464,354.33394095917015,49999977.92425597,345.896982384749,345.896982384749
B,453.39092705926595,355.28597872722315,49999973.06292833,303.9776242219816,303.9776242219816
R,446.5996159146133,358.5464882553456,49999978.87492268,318.73938011235975,318.73938011235975
G,441.09352579122464,354.33394095917015,49999977.92425597,345.896982384749,345.896982384749
B,453.39092705926595,355.28597872722315,49999973.06292833,303.9776242219816,303.9776242219816
R,446.5996159146133,358.5464882553456,49999978.87492268,318.73938011235975,318.73938011235975
G,441.09352579122464,354.33394095917015,49999977.92425597,345.896982384749,345.896982384749
B,453.39092705926595,355.28597872722315,49999973.06292833,303.9776242219816,303.9776242219816
R,446.5996159146133,358.5464882553456,49999978.87492268,318.73938011235975,318.73938011235975
G,441.09352579122464,354.33394095917015,49999977.92425597,345.896982384749,345.896982384749
B,453.39092705926595,355.28597872722315,49999973.06292833,303.9776242219816,303.9776242219816
R,446.5996159146133,358.5464882553456,49999978.87492268,318.73938011235975,318.73938011235975
G,441.09352579122464,354.33394095917015,49999977.92425597,345.896982384749,345.896982384749
B,453.39092705926595,355.28597872722315,49999973.06292833,303.9776242219816,303.9776242219816
R,445.60759675346947,359.5538713039517,49999978.87492268,319.77769257446965,319.77769257446965
G,440.1269454834337,355.36688860335136,49999977.92425597,346.7651018378127,346.7651018378127
B,452.71265927036376,356.5887463595695,49999973.06292833,304.79424583032215,304.79424583032215
R,445.60780719472046,359.5534951233528,49999978.87492268,319.77713993155254,319.77713993155254
G,438.70593322611916,357.8688978712314,49999976.693914734,351.2347302714519,351.2347302714519
B,451.2980620955358,359.2264850925527,49999972.807928324,307.02288761192096,307.02288761192096
G,438.70607583620597,357.86861919097805,49999976.693914734,351.234419443139,351.234419443139
R,444.4973067712927,361.44728194825626,49999978.30895768,322.3075388703543,322.3075388703543
B,450.00413941351064,361.1652129977376,49999971.81616389,310.6236282502581,310.6236282502581
G,438.70625724504566,357.868365688729,49999976.693914734,351.2340515852936,351.2340515852936
R,443.90996655162246,365.30798537603977,49999977.89299268,325.0188478325135,325.0188478325135
B,448.5216689739228,364.6299245435757,49999971.81616389,314.9634158011077,314.9634158011077
B,448.52180995538646,364.62964257967496,49999971.81616389,314.96313306702365,314.96313306702365
R,443.68331310430165,367.0209589100608,49999976.60069119,325.54232702454703,325.54232702454703
G,437.65428139714055,358.528833308418,49999975.31409319,357.14249008385514,357.14249008385514
G,437.6544592042114,358.5285849009725,49999975.31409319,357.1421283374111,357.1421283374111
R,443.09597478323195,370.88165877749304,49999976.18472619,328.25363107413557,328.25363107413557
B,447.03926477799286,368.09424654926204,49999971.81616389,319.3027457621497,319.3027457621497
G,437.65466184426754,358.5283496544717,49999975.31409319,357.14190454151594,357.14190454151594
R,440.9491583932824,373.2222280973551,49999976.18472619,331.1221921838641,331.1221921838641
B,446.54233594066517,371.7153374256378,49999971.31619675,322.21846893312585,322.21846893312585
G,437.65483939915873,358.5280833422121,49999975.31409319,357.14160632226685,357.14160632226685
R,440.1549604468069,375.9411292452227,49999975.7135502,333.7663131266683,333.7663131266683
B,445.9948417943102,374.6931745830809,49999970.33874734,324.68110890960975,324.68110890960975
R,440.1552742200201,375.94086033646073,49999975.7135502,333.76564358230866,333.76564358230866
G,436.4393323652507,361.654797127035,49999974.83426999,359.90905815233265,359.90905815233265
B,445.1921725635666,378.1108494041363,49999969.84566798,324.50985234577746,324.50985234577746
R,440.15552336132293,375.9405057096986,49999975.7135502,333.76491179421333,333.76491179421333
G,435.20609361744096,365.7375873001126,49999974.83426999,362.89224842743914,362.89224842743914
B,444.3974086790347,381.158700185908,49999968.60481649,325.5212521168106,325.5212521168106
B,444.39760375126923,381.1583746051732,49999968.60481649,325.52095098414793,325.52095098414793
R,439.5444095623907,378.7820402542893,49999975.22343684,336.0570751406269,336.0570751406269
G,433.96308289759116,367.95539393121646,49999973.955483146,367.70490750015443,367.70490750015443
G,433.963260435095,367.9551474671353,49999973.955483146,367.7045496617922,367.7045496617922
R,437.801717415421,381.14756589028974,49999974.968436845,339.3511410170342,339.3511410170342
B,442.6837418190986,383.914502679368,49999968.276316494,328.58177207647253,328.58177207647253
R,437.8019701991434,381.14720655587547,49999974.968436845,339.35036920372016,339.35036920372016
G,432.7300188925635,372.037940736472,49999973.955483146,370.6877482470862,370.6877482470862
B,441.88897533676965,386.96234590321785,49999967.035465,329.5931669046042,329.5931669046042
R,436.87295080827954,382.11286087301545,49999974.968436845,341.4751592989825,341.4751592989825
G,431.85858285079553,372.3456052664463,49999973.70732815,372.2202026134227,372.2202026134227
B,441.4019866380555,387.89681592298365,49999966.70605337,330.6586403640321,330.6586403640321
R,436.87295080827954,382.11286087301545,49999974.968436845,341.4751592989825,341.4751592989825
G,431.85858285079553,372.3456052664463,49999973.70732815,372.2202026134227,372.2202026134227
B,441.4019866380555,387.89681592298365,49999966.70605337,330.6586403640321,330.6586403640321
R,436.87295080827954,382.11286087301545,49999974.968436845,341.4751592989825,341.4751592989825
G,431.85858285079553,372.3456052664463,49999973.70732815,372.2202026134227,372.2202026134227
B,441.4019866380555,387.89681592298365,49999966.70605337,330.6586403640321,330.6586403640321
R,436.87295080827954,382.11286087301545,49999974.968436845,341.4751592989825,341.4751592989825
G,431.85858285079553,372.3456052664463,49999973.70732815,372.2202026134227,372.2202026134227
B,441.4019866380555,387.89681592298365,49999966.70605337,330.6586403640321,330.6586403640321
R,436.87295080827954,382.11286087301545,49999974.968436845,341.4751592989825,341.4751592989825
G,431.85858285079553,372.3456052664463,49999973.70732815,372.2202026134227,372.2202026134227
B,441.4019866380555,387.89681592298365,49999966.70605337,330.6586403640321,330.6586403640321
R,436.87295080827954,382.11286087301545,49999974.968436845,341.4751592989825,341.4751592989825
G,431.85858285079553,372.3456052664463,49999973.70732815,372.2202026134227,372.2202026134227
B,441.4019866380555,387.89681592298365,49999966.70605337,330.6586403640321,330.6586403640321
R,436.87295080827954,382.11286087301545,49999974.968436845,341.4751592989825,341.4751592989825
G,431.85858285079553,372.3456052664463,49999973.70732815,372.2202026134227,372.2202026134227
B,441.4019866380555,387.89681592298365,49999966.70605337,330.6586403640321,330.6586403640321
R,436.87295080827954,382.11286087301545,49999974.968436845,341.4751592989825,341.4751592989825
G,431.85858285079553,372.3456052664463,49999973.70732815,372.2202026134227,372.2202026134227
B,441.4019866380555,387.89681592298365,49999966.70605337,330.6586403640321,330.6586403640321
B,441.4021278436564,387.8965335106862,49999966.70605337,330.6583317495486,330.6583317495486
R,433.914356967534,383.50805193410883,49999974.968436845,345.05951385497497,345.05951385497497
G,430.94100323085456,375.90528603274714,49999973.32737815,377.22357955477327,377.22357955477327
B,441.40226904947883,387.89625109849186,49999966.70605337,330.65802313428554,330.65802313428554
R,432.5840595040605,386.092670156029,49999974.49726085,349.90579922884405,349.90579922884405
G,428.15171927637704,377.20584881554277,49999973.32737815,378.98145698871775,378.98145698871775
G,428.15185640889104,377.2055785631341,49999973.32737815,378.98115598809505,378.98115598809505
R,432.37191545231076,388.9311260239179,49999973.584909365,350.7331712605973,350.7331712605973
B,440.8291499827008,390.4769083075208,49999965.714288935,333.3644057504959,333.3644057504959
R,431.7077792099138,390.24705045067884,49999973.584909365,351.7709794918155,351.7709794918155
G,427.5371627093071,378.39143595895416,49999973.32737815,380.1293633475917,380.1293633475917
B,440.01902070923853,391.63856429924243,49999965.714288935,334.36349724887793,334.36349724887793
R,431.70803131473934,390.24668686444926,49999973.584909365,351.77004007086566,351.77004007086566
G,426.3039166299789,382.47423228537707,49999973.32737815,383.1125752790099,383.1125752790099
B,439.22425134813517,394.6863992644588,49999964.47343744,335.3748747792281,335.3748747792281
G,426.3040938578218,382.4739868294324,49999973.32737815,383.1122144125408,383.1122144125408
R,431.12069111668274,394.1073888156432,49999973.16894437,354.48134555931085,354.48134555931085
B,437.7414650978296,398.1507570858614,49999964.47343744,339.71388170431703,339.71388170431703
R,430.32732646694444,395.20509143708534,49999973.16894437,355.5243847447459,355.5243847447459
G,425.3881038804402,383.4334234859365,49999973.32737815,384.2002923975805,384.2002923975805
B,436.6072911160912,399.0094476534172,49999964.47343744,340.8927074516767,340.8927074516767
R,430.32758706198905,395.2048098959025,49999973.16894437,355.5240633756777,355.5240633756777
G,424.85361617201306,386.10758504831057,49999972.34775044,386.5975130665488,386.5975130665488
B,436.0227949176745,401.58525198540553,49999963.47856117,343.39296265847605,343.39296265847605
G,424.8537530850113,386.1073132417041,49999972.34775044,386.59721078062864,386.59721078062864
R,430.16098882832665,397.9037191895831,49999972.230298325,356.26249091399114,356.26249091399114
B,435.44645897999135,403.96640486725454,49999962.48432607,346.2354779909373,346.2354779909373
R,430.1612525963166,397.90333228278774,49999972.230298325,356.2612380438983,356.2612380438983
G,424.02653079329286,389.3132404605664,49999971.867927246,389.6012036230731,389.6012036230731
B,434.39126451006035,406.50793083742235,49999961.49154431,348.54836107276276,348.54836107276276
G,424.0267078630661,389.31299514004746,49999971.867927246,389.6008401613892,389.6008401613892
R,428.08274886922663,399.0519585579598,49999971.74018496,360.211716264442,360.211716264442
B,433.53970731269357,408.812872203104,49999960.52160775,351.13383921611023,351.13383921611023
R,428.015837359302,399.94114826674655,49999971.57464867,360.7688314414478,360.7688314414478
G,423.2214810209673,389.53881347811955,49999971.53577289,390.81707659970067,390.81707659970067
B,433.2101978007176,409.5056987259613,49999960.0416773,352.81820901494916,352.81820901494916
R,428.015837359302,399.94114826674655,49999971.57464867,360.7688314414478,360.7688314414478
G,423.2214810209673,389.53881347811955,49999971.53577289,390.81707659970067,390.81707659970067
B,433.2101978007176,409.5056987259613,49999960.0416773,352.81820901494916,352.81820901494916
R,428.015837359302,399.94114826674655,49999971.57464867,360.7688314414478,360.7688314414478
G,423.2214810209673,389.53881347811955,49999971.53577289,390.81707659970067,390.81707659970067
B,433.2101978007176,409.5056987259613,49999960.0416773,352.81820901494916,352.81820901494916
R,428.015837359302,399.94114826674655,49999971.57464867,360.7688314414478,360.7688314414478
G,423.2214810209673,389.53881347811955,49999971.53577289,390.81707659970067,390.81707659970067
B,433.2101978007176,409.5056987259613,49999960.0416773,352.81820901494916,352.81820901494916
R,428.015837359302,399.94114826674655,49999971.57464867,360.7688314414478,360.7688314414478
G,423.2214810209673,389.53881347811955,49999971.53577289,390.81707659970067,390.81707659970067
B,433.2101978007176,409.5056987259613,49999960.0416773,352.81820901494916,352.81820901494916
R,428.015837359302,399.94114826674655,49999971.57464867,360.7688314414478,360.7688314414478
G,423.2214810209673,389.53881347811955,49999971.53577289,390.81707659970067,390.81707659970067
B,433.2101978007176,409.5056987259613,49999960.0416773,352.81820901494916,352.81820901494916
R,428.015837359302,399.94114826674655,49999971.57464867,360.7688314414478,360.7688314414478
G,423.2214810209673,389.53881347811955,49999971.53577289,390.81707659970067,390.81707659970067
B,433.2101978007176,409.5056987259613,49999960.0416773,352.81820901494916,352.81820901494916
R,428.015837359302,399.94114826674655,49999971.57464867,360.7688314414478,360.7688314414478
G,423.2214810209673,389.53881347811955,49999971.53577289,390.81707659970067,390.81707659970067
B,433.2101978007176,409.5056987259613,49999960.0416773,352.81820901494916,352.81820901494916
R,428.015837359302,399.94114826674655,49999971.57464867,360.7688314414478,360.7688314414478
G,423.2214810209673,389.53881347811955,49999971.53577289,390.81707659970067,390.81707659970067
B,433.2101978007176,409.5056987259613,49999960.0416773,352.81820901494916,352.81820901494916
R,428.01607965289816,399.9408151904641,49999971.57464867,360.7684722650755,360.7684722650755
G,422.466990816225,392.04224633424445,49999970.286274195,397.2442206221304,397.2442206221304
B,432.289881120923,411.8739824349396,49999959.2972123,357.62956688607045,357.62956688607045
G,422.4671522193564,392.041970957321,49999970.286274195,397.24401675074813,397.24401675074813
R,427.3137419379254,401.8428712172074,49999970.77497268,363.59212794376174,363.59212794376174
B,431.52414877355784,413.81228159975853,49999958.06325671,363.5126793170549,363.5126793170549
R,426.6496053901948,403.1587962359885,49999970.77497268,364.62993645259735,364.62993645259735
G,421.8525053187624,393.2276929091677,49999970.286274195,398.3926070146138,398.3926070146138
B,430.7140209388368,414.9739488539537,49999958.06325671,364.5117871928933,364.5117871928933
G,421.8526667275769,393.2274172906073,49999970.286274195,398.39240379605593,398.39240379605593
R,425.9472877374428,405.0608121382903,49999969.97529668,367.4544413687338,367.4544413687338
B,429.94828524265296,416.91225471640996,49999956.82930112,370.39489754668745,370.39489754668745
R,425.9475866196576,405.06035620634134,49999969.97529668,367.45194209889524,367.45194209889524
G,420.61941480009733,397.3102205236932,49999970.286274195,401.37563447201006,401.37563447201006
B,429.1534985173184,419.9600992549656,49999955.58844963,371.4062437318125,371.4062437318125
R,425.94788427802445,405.0598991803658,49999969.97529668,367.4494407779539,367.4494407779539
G,419.3861594263393,401.3930237904531,49999970.286274195,404.35887540290645,404.35887540290645
B,428.3587123308038,423.007937970164,49999954.347598135,372.4175559186093,372.4175559186093
R,425.94818193606216,405.05944215035964,49999969.97529668,367.4469394264705,367.4469394264705
G,418.92208417681184,404.1157514917921,49999969.308824785,403.6812783795714,403.6812783795714
B,427.30092362946135,425.0233164292725,49999953.35491774,374.6840272057058,374.6840272057058
G,418.9222481413702,404.1154687960036,49999969.308824785,403.68107668000187,403.68107668000187
R,425.24588167392136,406.96142327143906,49999969.17562069,370.2719498341881,370.2719498341881
B,426.53518827906504,426.9616216001537,49999952.12096215,380.5672162191339,380.5672162191339
R,425.2462168209754,406.9608941887562,49999969.17562069,370.26821488574234,370.26821488574234
G,417.68898490902495,408.19826902770495,49999969.308824785,406.66433943781107,406.66433943781107
B,425.74039875950626,430.00946070993336,49999950.88011066,381.578495280574,381.578495280574
R,424.9991797474791,406.6208667812557,49999969.17562069,370.44990944978764,370.44990944978764
G,416.1474362342771,409.3871610481946,49999968.39978043,409.3034668871598,409.3034668871598
B,425.7392570689088,432.6043857487153,49999949.38056548,381.5883192036006,381.5883192036006
R,424.9995047904135,406.6203507743135,49999969.17562069,370.44647430248096,370.44647430248096
G,415.14216161886094,410.87807757362475,49999967.039116345,413.9304406162928,413.9304406162928
B,424.4429482245862,433.75895282881123,49999948.44191943,384.463737497206,384.463737497206
R,424.9996947159097,406.6199709213932,49999969.17562069,370.44620181475324,370.44620181475324
G,414.3851488937059,412.7302415053798,49999966.23079315,416.32114235737106,416.32114235737106
B,423.551563402787,435.4648329648385,49999947.21698287,389.4921706597588,389.4921706597588
G,414.3606168504968,412.59928228560636,49999966.23079315,416.1107784997028,416.1107784997028
R,424.7526978332192,408.9767286352976,49999968.300515145,370.89868454759824,370.89868454759824
B,422.48513390451967,437.05563338301624,49999945.90074329,394.39537677710433,394.39537677710433
G,414.3360906385161,412.46833981649326,49999966.23079315,416.30028502092296,416.30028502092296
R,424.0530068359687,411.55790664912985,49999967.47282936,373.3150008136956,373.3150008136956
B,421.231929997782,439.1572188309022,49999944.90579606,397.8724982229764,397.8724982229764
B,421.2321113248551,439.15696242153706,49999944.90579606,397.87219004829,397.87219004829
R,423.02907600853024,414.8757770584994,49999967.47282936,375.12613424845676,375.12613424845676
G,412.9318846361074,415.09895620207016,49999965.49596995,418.1626037786063,418.1626037786063
R,423.02926902265153,414.8753910283289,49999967.47282936,375.12585986991087,375.12585986991087
G,412.1748719300897,416.9511191161737,49999964.687646754,420.5533074475928,420.5533074475928
B,420.34072052460954,440.86285292103173,49999943.6808595,402.90063437637707,402.90063437637707
R,423.02946203663726,414.87500499842963,49999967.47282936,375.12558549146337,375.12558549146337
G,411.4178588777881,418.80328230300887,49999963.87932356,422.9440127114611,422.9440127114611
B,419.44932737489296,442.5687475032408,49999942.45592294,407.9290831187723,407.9290831187723
R,423.02965505048735,414.87461896880154,49999967.47282936,375.12531111311426,375.12531111311426
G,410.66084548059496,420.65544576170333,49999963.07100036,425.33471953905416,425.33471953905416
B,418.55793194197213,444.2746460497737,49999941.23098638,412.95753614613875,412.95753614613875
B,418.2325272166471,443.87292717173636,49999941.23098638,412.9639022018293,412.9639022018293
R,421.7083260121839,416.6992497741956,49999967.001653366,376.9062090124953,376.9062090124953
G,410.0643325446411,423.1993626104155,49999962.084278114,428.4202814976034,428.4202814976034
R,421.6412234826221,416.5715371056504,49999967.001653366,376.79472818497004,376.79472818497004
G,409.4116625337834,425.91099259746716,49999961.11476377,430.9953775185117,430.9953775185117
B,418.2018798726536,447.1973842514665,49999940.25232634,413.1280819976653,413.1280819976653
B,418.2020022705646,447.1971394543967,49999940.25232634,413.1278363955612,413.1278363955612
R,419.7189077493742,418.3835953067513,49999966.74665336,378.50403707522287,378.50403707522287
G,408.48112021712006,428.31570202439246,49999960.21476542,437.2983600736699,437.2983600736699
R,419.71910178704786,418.383207229476,49999966.74665336,378.50376162924056,378.50376162924056
G,407.72410370855056,430.1678696391522,49999959.406442225,439.6890776076267,439.6890776076267
B,417.31060583156625,448.9030396370364,49999939.02738978,418.15629109031596,418.15629109031596
B,417.3107790198418,448.90279593691616,49999939.02738978,418.15599839969,418.15599839969
R,419.111147091135,421.59608341844336,49999966.330688365,378.8423863712388,378.8423863712388
G,406.77333981141936,432.7624720580835,49999958.59811903,442.06093291906546,442.06093291906546
B,417.31092407050454,448.90250582997874,49999939.02738978,418.1557635472734,418.1557635472734
R,416.64193154577083,422.94471467200407,49999965.73951287,380.5684940739207,380.5684940739207
G,406.5065411397171,436.2715695963106,49999957.71898324,442.9115624209059,442.9115624209059
R,416.6421287909184,422.944320179781,49999965.73951287,380.5682161830988,380.5682161830988
G,405.749525444534,438.1237338227646,49999956.91066004,445.3022799603859,445.3022799603859
B,416.41952543919314,450.60840981731485,49999937.80245322,423.18422235536553,423.18422235536553
G,405.74969862924615,438.1234972724528,49999956.91066004,445.301920110747,445.301920110747
R,415.3202487252431,425.3943850343064,49999964.763523266,383.64067446208884,383.64067446208884
B,414.55773491049155,453.2001340504809,49999937.80245322,425.08354268799184,425.08354268799184
G,405.74987181401445,438.1232607211912,49999956.91066004,445.30156026097137,445.30156026097137
R,413.57755866982836,427.75990306074425,49999964.50852327,386.9347277617287,386.9347277617287
B,412.84384090318065,455.9568926415425,49999937.473953225,428.14392551675144,428.14392551675144
B,412.8439960248788,455.9566325974892,49999937.473953225,428.1436477456805,428.1436477456805
R,411.404214670443,430.0005292555049,49999964.50852327,389.82047303013263,389.82047303013263
G,404.86751048184755,440.9617312119275,49999956.05088685,447.36758405900076,447.36758405900076
B,412.84416695012357,455.9563922529562,49999937.473953225,428.14335909763463,428.14335909763463
R,410.79628011330095,433.21343895114705,49999964.09255827,390.15921743826806,390.15921743826806
G,403.91674499449846,443.55633027814065,49999955.24256365,449.7394394348797,449.7394394348797
R,410.7965492212658,433.21311545347316,49999964.09255827,390.1588197759672,390.1588197759672
G,402.62858989133287,444.8854495859556,49999954.26613157,451.8363089386311,451.8363089386311
B,412.8295774664213,458.4955084912423,49999936.48809309,428.21811982775324,428.21811982775324
R,410.80000703406716,433.20627863570587,49999964.09255827,390.3580389785881,390.3580389785881
G,401.5640580667262,447.3404684340895,49999953.77097602,454.9626347459741,454.9626347459741
B,412.68982943693726,461.8543044501096,49999935.5370939,429.15550728114425,429.15550728114425
G,401.5642023177827,447.34018761204413,49999953.77097602,454.962307021112,454.962307021112
R,407.6619282594153,434.1861866991031,49999964.09255827,392.8809304603394,392.8809304603394
B,412.6470274311705,465.9420258840218,49999934.54638833,429.40912045722274,429.40912045722274
G,401.5643465688529,447.3399067899772,49999953.77097602,454.9619792962448,454.9619792962448
R,404.52385848799577,435.1661047200129,49999964.09255827,395.4038436111705,395.4038436111705
B,412.6042270181942,470.0297441323531,49999933.555682756,429.6627334789161,429.6627334789161
R,404.52405673996196,435.16570821415263,49999964.09255827,395.4035634578515,395.4035634578515
G,400.8073302363021,449.1920698783531,49999952.962652825,457.35270111010004,457.35270111010004
B,411.7128312484342,471.7356424943417,49999932.330746196,434.69118558735573,434.69118558735573
B,411.71300023008075,471.73539178106,49999932.330746196,434.6908962044831,434.6908962044831
R,403.08673383718303,438.6589952831069,49999964.09255827,397.8324586047329,397.8324586047329
G,398.37158880460936,451.5173155498459,49999952.962652825,462.1220017884546,462.1220017884546
R,403.0869334038526,438.6585961478399,49999964.09255827,397.83217754734085,397.83217754734085
G,397.6145711295107,453.36948045066435,49999952.15432963,464.51272806353154,464.51272806353154
B,410.82160224746,473.4412939996624,49999931.10580964,439.7193524993293,439.7193524993293
R,403.0871329703576,438.658197012902,49999964.09255827,397.8318964900699,397.8318964900699
G,396.85755313432537,455.2216456095624,49999951.34600643,466.9034554782815,466.9034554782815
B,409.93020211262,475.1471999661377,49999929.88087308,444.74781286111784,444.74781286111784
B,409.93031971610543,475.14696475897546,49999929.88087308,444.7475768459095,444.7475768459095
R,402.25711841364557,441.1199671510167,49999963.48373543,399.545462987616,399.545462987616
G,395.724486681986,457.00228218790767,49999950.39500724,471.9588264036626,471.9588264036626
B,409.9305376514272,475.14673877871854,49999929.88087308,444.74738866278466,444.74738866278466
R,401.1297275312652,444.1799874066678,49999963.04255993,404.01997317482426,404.01997317482426
G,394.5272780581963,459.45667324935874,49999949.81150724,476.0851821106347,476.0851821106347
R,400.4648361029442,445.35686068486115,49999963.04255993,405.37442384874464,405.37442384874464
G,393.7059087772442,460.4811297362808,49999949.81150724,477.46118503203496,477.46118503203496
B,409.4142693752554,476.470488663285,49999929.727932125,446.674256112105,446.674256112105
G,393.681389959336,460.3502232343251,49999949.81150724,477.6507248611208,477.6507248611208
R,399.5057986433518,447.6744596117084,49999962.10219864,409.4135599090468,409.4135599090468
B,408.65205533721956,479.01059909649535,49999928.73298489,450.3956145395453,450.3956145395453
R,399.5059959666442,447.67406496319563,49999962.10219864,409.4132803563439,409.4132803563439
G,392.92436885093633,462.20239328216894,49999949.00318404,480.04146144623326,480.04146144623326
B,407.76065163599077,480.71651119942624,49999927.50804833,455.42408149462574,455.42408149462574
G,392.8998288289933,462.0714407710129,49999949.00318404,479.83110597145685,479.83110597145685
R,399.25900648171415,450.0308078815791,49999961.22709309,409.8657560242447,409.8657560242447
B,406.69420378097493,482.30734266970586,49999926.19180875,460.3273204247757,460.3273204247757
G,392.8752888688107,461.9404881629581,49999949.00318404,479.620750383422,479.620750383422
R,399.012018824953,452.38754714362483,49999960.35198755,410.3182305822912,410.3182305822912
B,405.6277540371801,483.89817742268707,49999924.87556917,465.230562913997,465.230562913997
R,399.01221985055395,452.38714509049487,49999960.35198755,410.3179488384902,410.3179488384902
G,392.11826757598465,463.7926582546021,49999948.194860846,482.0114876956632,482.0114876956632
B,404.7363446060228,485.60409948278385,49999923.65063261,470.25904066492376,470.25904066492376
B,404.73645404402913,485.6038806051717,49999923.65063261,470.2587985854244,470.2587985854244
R,395.9610412379359,453.82871382721294,49999960.35198755,412.879748845828,412.879748845828
G,390.6154244870831,466.8783863770019,49999948.194860846,486.36612697649656,486.36612697649656
B,404.73659867331,485.603638244903,49999923.65063261,470.2585394994425,470.2585394994425
R,395.39276381196925,456.64447143812765,49999959.440867,415.473784027613,415.473784027613
G,389.0649248082069,468.4496976334007,49999947.55991085,490.4077808292281,490.4077808292281
R,395.39296504138116,456.64406897737587,49999959.440867,415.473501543852,415.473501543852
G,388.3079014973786,470.3018705093347,49999946.75158765,492.7985242936964,492.7985242936964
B,403.8451873902372,487.3095635173437,49999922.42569605,475.28702073126635,475.28702073126635
R,395.3931662706151,456.64366651698003,49999959.440867,415.47321906022717,415.47321906022717
G,387.55087789117255,472.15404361687445,49999945.943264455,495.1892687313321,495.1892687313321
B,402.9537743016828,489.0154919193271,49999921.20075949,480.3155053532202,480.3155053532202
G,387.5263354281826,472.0230942303727,49999945.943264455,494.97891709679106,494.97891709679106
R,395.1461806916084,459.00040162351684,49999958.565761454,415.92569179721556,415.92569179721556
B,401.8873172981483,490.6063392624088,49999919.88451991,485.2187614828566,485.2187614828566
B,401.79828458463084,490.49311169655823,49999919.88451991,484.93421077915383,484.93421077915383
R,393.4195689508556,460.90130405342,49999958.149796456,418.68839717321634,418.68839717321634
G,386.93106086633486,474.56918179700034,49999944.95654221,494.95136141815897,494.95136141815897
R,393.41977176502843,460.9008984231464,49999958.149796456,418.68811348789814,418.68811348789814
G,386.1740382009245,476.42135210005836,49999944.14821901,497.3421038906791,497.3421038906791
B,400.9068681836869,492.19904583577346,49999918.65958335,489.96270161217467,489.96270161217467
R,393.41997457901505,460.9004927932451,49999958.149796456,418.68782980272096,418.68782980272096
G,385.4170152407426,478.2735226370436,49999943.339895815,499.732847301199,499.732847301199
B,400.015450102647,493.90498288131795,49999917.43464679,494.99119559088376,494.99119559088376
R,393.4201773928155,460.90008716371625,49999958.149796456,418.6875461176848,418.6875461176848
G,384.6599919874819,480.1256934064836,49999942.53157262,502.1235916369162,502.1235916369162
B,399.12403038168776,495.610922761797,49999916.20971023,500.0196926371441,500.0196926371441
R,393.42038020642974,460.89968153455976,49999958.149796456,418.6872624327897,418.6872624327897
G,383.9029684428295,481.97786440690203,49999941.72324942,504.5143368853062,504.5143368853062
B,398.232609059556,497.31686540841304,49999914.98477367,505.0481926756889,505.0481926756889
B,398.2327107094832,497.3166621088287,49999914.98477367,505.0479886951099,505.0479886951099
R,392.3899340945853,463.76522011234846,49999957.73383146,421.40032927045286,421.40032927045286
G,382.58340221935947,484.2357975945175,49999941.243426226,509.2337668269341,509.2337668269341
R,391.72505048882124,464.94207754222845,49999957.73383146,422.7547831854648,422.7547831854648
G,381.76202271928497,485.2602045452395,49999941.243426226,510.609733597076,510.609733597076
B,397.71642336716,498.6404465395261,49999914.83183272,506.97489851593866,506.97489851593866
R,391.72525361363296,464.9416712926822,49999957.73383146,422.7544991539336,422.7544991539336
G,380.6101258529097,487.3511080609897,49999940.838426225,514.1065379120652,514.1065379120652
B,396.72503143070895,500.9401337140703,49999913.46661381,511.83404174727076,511.83404174727076
G,380.61101844242313,487.3510673943705,49999940.838426225,514.106220409067,514.106220409067
R,390.6349429810685,466.798714298864,49999956.906993106,424.48860918024997,424.48860918024997
B,396.1557542245027,503.39269095041305,49999912.481307514,514.7497864093214,514.7497864093214
B,396.15585424975893,503.39249089970906,49999912.481307514,514.7495856852736,514.7495856852736
R,389.8063566789466,469.2139601117614,49999956.29817026,426.51622372886465,426.51622372886465
G,379.47803938496133,489.13156858892063,49999939.88742703,519.1619059284488,519.1619059284488
R,389.80656082687074,469.2135518139852,49999956.29817026,426.5159388322248,426.5159388322248
G,378.7210121126988,490.98374552060596,49999939.079103835,521.5526616008908,521.5526616008908
B,395.2644292980845,505.0984397357985,49999911.256370954,519.7780923498611,519.7780923498611
R,389.80676497459933,469.2131435166,49999956.29817026,426.5156539357356,426.5156539357356
G,377.9639845655343,492.83592266546475,49999938.27078064,523.943418103615,523.943418103615
B,394.37300286555103,506.80439112620377,49999910.031434394,524.8066017766128,524.8066017766128
R,389.1534899235503,470.5196936186981,49999956.29817026,428.0649233256897,428.0649233256897
G,377.15946654577846,493.991535715605,49999938.27078064,525.6781853810833,525.6781853810833
B,393.719636861118,508.1111231350699,49999910.031434394,526.3007063534776,526.3007063534776
B,393.71973287840717,508.11093110052377,49999910.031434394,526.3004933603473,526.3004933603473
R,388.07440506904834,473.9642516702514,49999955.81229403,433.3032977907334,433.3032977907334
G,374.7215585209925,495.86137158877807,49999938.27078064,527.9908281659341,527.9908281659341
R,388.0746153346404,473.9638311368248,49999955.81229403,433.3029908138086,433.3029908138086
G,373.7225656294937,498.00211416339135,49999937.66195779,529.9787638779698,529.9787638779698
B,392.27076706216263,509.8814678617681,49999909.09278835,529.5252456509111,529.5252456509111
R,388.07482560002984,473.9634106038035,49999955.81229403,433.3026838370938,433.3026838370938
G,372.72357282460104,500.1428561419095,49999937.05313495,531.9666994888886,531.9666994888886
B,390.8218006432985,511.65200564217946,49999908.15414231,532.749999021123,532.749999021123
R,388.07503586521665,473.9629900711874,49999955.81229403,433.30237686058905,433.30237686058905
G,371.7245801086554,502.28359751907516,49999936.4443121,533.954634980708,533.954634980708
B,389.37283362748553,513.4225444320591,49999907.21549627,535.9747534607927,535.9747534607927
R,387.4101553835647,475.13984078779816,49999955.81229403,434.6568261903941,434.6568261903941
G,370.9031849166396,503.30791731364155,49999936.4443121,535.3305283923827,535.3305283923827
B,388.85653989956086,514.7463403004753,49999907.06255532,537.9016771667476,537.9016771667476
G,370.7742883043604,503.1302489038799,49999936.4443121,535.1942012360394,535.1942012360394
R,386.7934296027665,478.3333257955811,49999954.93926468,437.2588180176329,437.2588180176329
B,387.847139702717,517.6302622561097,49999906.62137982,540.6383806547209,540.6383806547209
B,387.84726530724333,517.6300525486139,49999906.62137982,540.6381566819674,540.6381566819674
R,385.6998793247197,481.20728080782646,49999954.02814413,439.41382019352534,439.41382019352534
G,369.2035209994136,505.4212276624418,49999936.4443121,537.1148573243468,537.1148573243468
G,369.20368575433565,505.4210092365733,49999936.4443121,537.1145137339878,537.1145137339878
R,384.00446422977416,483.90352798966444,49999953.69964413,443.57903739257347,443.57903739257347
B,386.2794161126991,520.9162791553505,49999906.471379824,545.0174297173592,545.0174297173592
G,369.10059737741136,505.2771943073296,49999936.4443121,537.2389888914242,537.2389888914242
R,382.4029158161003,485.3921618293997,49999953.05303525,445.5319511760061,445.5319511760061
B,385.7671863408632,523.6459236876307,49999905.48208067,547.617796698925,547.617796698925
G,368.98337772778166,505.10197810978866,49999936.4443121,537.1044274778736,537.1044274778736
R,381.78938558550277,487.8007629696789,49999952.06111905,448.7097321062528,448.7097321062528
B,385.7523724589647,526.6569965403504,49999904.48957126,547.661662231367,547.661662231367
G,368.98349701877385,505.10178579128353,49999936.4443121,537.1042465589898,537.1042465589898
R,381.11350559000005,490.1743401657893,49999951.06508011,452.3510970676514,452.3510970676514
B,385.1339349392227,529.0206658639921,49999903.99073441,550.0840409629135,550.0840409629135
B,385.1340602738821,529.0204564268197,49999903.99073441,550.0838171061164,550.0838171061164
R,379.834725001396,494.23684774379547,49999951.06508011,454.92354999334185,454.92354999334185
G,367.11492855709855,507.7825187432723,49999935.87834711,540.551031386691,540.551031386691
R,379.834936039175,494.236425665995,49999951.06508011,454.9232402334021,454.9232402334021
G,366.1159358923507,509.92325847938577,49999935.26952426,542.5389672414211,542.5389672414211
B,383.6850919070311,530.7909972605387,49999903.05208837,553.3085734948298,553.3085734948298
B,383.6851853495129,530.7908103772353,49999903.05208837,553.30836603756,553.30836603756
R,377.9045273748677,496.1772128275493,49999950.81008012,458.7466067856558,458.7466067856558
G,364.6397821355665,512.130746623437,49999934.810701415,545.9875719557015,545.9875719557015
B,383.5959704201935,530.6773861959053,49999903.05208837,553.0235603553109,553.0235603553109
R,374.9376430936531,497.7849140297476,49999950.55508012,461.9288484823503,461.9288484823503
G,363.73259795989577,515.2689676891051,49999934.312363066,546.0473740810547,546.0473740810547
G,363.76987884806147,515.1632686796661,49999934.312363066,545.9516756204998,545.9516756204998
R,373.5877933442356,500.5592303868194,49999950.22658012,464.3400202836149,464.3400202836149
B,382.8019597129308,534.0581723849867,49999902.23347501,556.5220099264369,556.5220099264369
G,363.7700775737228,515.1630855981676,49999934.312363066,545.9513417335992,545.9513417335992
R,372.14258468941074,501.6861649692575,49999949.28879574,466.8773983421,466.8773983421
B,382.2991547053388,536.2372966599698,49999901.234733954,558.9360334219374,558.9360334219374
R,371.4777046184978,502.8630141329474,49999949.28879574,468.2318570469774,468.2318570469774
G,363.03447402851015,516.2246361379638,49999934.312363066,547.4357053140101,547.4357053140101
B,381.78285927943654,537.5610953411782,49999901.081793,560.8629602877497,560.8629602877497
G,363.0717780630012,516.1188711429617,49999934.312363066,547.3399351143863,547.3399351143863
R,370.12785394588303,505.6373304193461,49999948.96029574,470.64302786998024,470.64302786998024
B,380.98884780040174,540.9418830738036,49999900.26317964,564.361411402961,564.361411402961
B,380.98906396539576,540.9416939780399,49999900.26317964,564.361274124907,564.361274124907
R,369.00045842831764,508.8473572749098,49999948.51912024,474.60754320787083,474.60754320787083
G,361.66481614633693,518.4675291690716,49999933.833863065,550.4766256023748,550.4766256023748
R,369.0006679373362,508.84693825463023,49999948.51912024,474.60723113543355,474.60723113543355
G,360.66582410626575,520.6082654879566,49999933.22504022,552.4645600505985,552.4645600505985
B,379.540093820876,542.7122377102284,49999899.3245336,567.5860334977169,567.5860334977169
B,379.5403113032719,542.712049032179,49999899.3245336,567.5858975282383,567.5858975282383
R,367.82285063197537,512.4477209667182,49999948.10315524,479.97626821001575,479.97626821001575
G,359.05074269987404,523.3790994182897,49999933.22504022,554.9998238566016,554.9998238566016
R,367.82305833389194,512.4473055606426,49999948.10315524,479.9759573650218,479.9759573650218
G,358.0517510160793,525.5198340037186,49999932.616217375,556.9877573941869,556.9877573941869
B,378.0913405963546,544.4825937177839,49999898.385887556,570.810657914372,570.810657914372
R,367.8232660356035,512.4468901549769,49999948.10315524,479.9756465202902,479.9756465202902
G,357.05275945283626,527.6605679098872,49999932.00739453,558.9756905991436,558.9756905991436
B,376.6423693321763,546.2531393479854,49999897.447241515,574.035419304511,574.035419304511
G,357.0529589441277,527.6603850075359,49999932.00739453,558.9753561899499,558.9753561899499
R,366.3780211849438,513.5738030719939,49999947.16537086,482.5129402127337,482.5129402127337
B,376.13956229182,548.4322676884973,49999896.44850046,576.449447751983,576.449447751983
R,366.3782519404735,513.5733505079203,49999947.16537086,482.5126400154393,482.5126400154393
G,355.9185236943463,529.7197392473655,49999931.107396185,562.7544340548907,562.7544340548907
B,375.5605354263135,551.0443329802699,49999895.49205139,579.1169700625006,579.1169700625006
G,355.78964617514885,529.5420856959277,49999931.107396185,562.6181091519791,562.6181091519791
R,365.80443425242083,517.182049569032,49999946.20694698,485.03128657109403,485.03128657109403
B,374.03030252240217,553.8723413844533,49999895.49205139,582.2219498858707,582.2219498858707
R,365.8046422860506,517.18163349953,49999946.20694698,485.03097468782335,485.03097468782335
G,354.79065397223343,531.6828201895804,49999930.49857334,564.6060440438592,564.6060440438592
B,372.5813299600647,555.6428891275543,49999894.55340535,585.4467134449053,585.4467134449053
G,354.79080688225196,531.6825721714956,49999930.49857334,564.6057034015963,564.6057034015963
R,363.63808585753253,520.3264724615049,49999946.20694698,488.352915142136,488.352915142136
B,371.6910764978061,559.7262453749796,49999894.55340535,587.1162131838637,587.1162131838637
R,362.97320975953517,521.5033128530245,49999946.20694698,489.7073737777366,489.7073737777366
G,353.94195631165985,532.5836002469091,49999930.49857334,565.8611639299094,565.8611639299094
B,371.1747782429158,561.0500489445726,49999894.4004644,589.0431457841942,589.0431457841942
R,362.30833093658765,522.6801579976943,49999946.20694698,491.0618362436077,491.0618362436077
G,353.0928863612096,533.4836381804581,49999930.49857334,567.115658722487,567.115658722487
B,370.6584797099475,562.3738530073608,49999894.24752345,590.970078978062,590.970078978062
B,370.6587269213406,562.3736613652961,49999894.24752345,590.96995506121,590.96995506121
R,361.18093261262675,525.8901895460638,49999945.76577148,495.02635579301256,495.02635579301256
G,351.7373369855828,535.6863004224374,49999930.02007334,570.2742257451076,570.2742257451076
R,361.18114097444794,525.8897728201789,49999945.76577148,495.0260418461469,495.0260418461469
G,350.73834443113253,537.8270344507484,49999929.411250494,572.2621615444586,572.2621615444586
B,369.2097537337738,564.1442100623993,49999893.30887741,594.1947195362126,594.1947195362126
B,369.2098764246818,564.1440079314405,49999893.30887741,594.1945483124641,594.1945483124641
R,359.86147002025194,527.9697599613628,49999944.94211593,499.89990355470616,499.89990355470616
G,349.63604255931773,539.8801561417878,49999928.7814273,575.8493405055386,575.8493405055386
R,359.19658660623804,529.1466137377928,49999944.94211593,501.25436878919794,501.25436878919794
