B,200,130,-200,20,100,-30,50000
R,200,130,-200,20,100,-30,50000
G,200,130,-200,20,100,-30,50000
B,200.0003975882127,130.0003975882127,-199.99910239495185,20.000897605048152,100.0020523495522,-29.997947650447802,50000.00000272083
R,198.50020943267648,128.50020943267648,-202.49977031490013,17.50022968509987,90.841844662472,-39.158155337528,50000.0
G,198.99519048568413,128.99519048568413,-205.2242816754207,14.775718324579278,93.23487816760075,-36.76512183239925,49999.005246354434
G,198.00816149250792,128.7154842019751,-206.45095111850603,14.059696851603132,90.75016154734249,-37.96622378063011,49998.51133119267
R,197.03145119118705,128.46870677731548,-205.3319845249001,17.43112154370522,88.33153082503989,-39.32123899140046,49998.85037579499
B,199.83055139912656,129.94505194151557,-200.83901414275425,19.558437602543513,95.48134190583448,-33.91078073276256,49999.00254717382
G,197.5590391471115,128.36527930766937,-209.74256209554653,11.259920149743525,87.68421465349599,-40.44030134736575,49997.57911000982
R,195.90163843021202,128.33598473882483,-207.89992273439455,17.311962503183665,82.49558630467118,-40.67996560367762,49997.45625220948
B,199.67476541010964,129.82146364760504,-201.75266943304047,18.731504913795284,87.32981657147347,-41.88549971961226,49997.5402198005
B,199.67578230880798,129.8224782923751,-201.750448660543,18.73372414859919,87.33428945059134,-41.88103288233595,49997.5402222475
R,194.286488926047,129.0126179788287,-210.23395862609797,19.223909897996396,78.99448855013426,-38.32414754258042,49996.600314045405
G,197.38529444444217,128.19826745691395,-210.44554052436476,10.562893133776313,82.6029973883652,-45.49524551031112,49996.66552978016
G,198.25697464542603,129.0697612232118,-207.93065833708272,13.077554145563349,87.56328295845134,-40.53572237476436,49996.665532821484
R,193.0647202697683,128.36117975166775,-211.71473493246458,18.860439716354957,69.67712506664321,-45.121191309787484,49995.9288601324
B,198.43058427677047,128.5772802603376,-207.83162428172028,12.652548527421906,82.03169041724742,-47.183631915679875,49997.115855562144
G,198.25853717959257,129.07114920063484,-207.92654178482178,13.081462247705579,87.57165486631466,-40.52806194583793,49996.66553550126
R,193.73010446077845,129.67113467150338,-209.57780186682072,22.28651423964974,64.3163327457725,-47.61486501966504,49994.9478311282
B,197.8028421216578,129.07191213591358,-211.30133495309914,13.959098376809862,78.67084445653047,-46.2277192253539,49995.804619777606
G,198.260096488661,129.0725339731876,-207.92243423840677,13.085361367732723,87.58000895878092,-40.52041924965081,49996.665538181034
R,194.60108572552096,130.84105301057065,-207.14954945642026,25.312640798699697,59.477590246329996,-50.949357794477116,49993.96680212795
B,197.18142765581615,129.5728716963532,-214.75437061140616,15.28232323035649,75.34096921856077,-45.240835825794896,49994.49338399514
G,198.2616525945584,129.0739155627494,-207.9183356369263,13.089251566500058,87.58834535656736,-40.51279416568122,49996.665540860806
R,195.4737337565041,132.01042795692945,-204.71876597971473,28.336878106156572,54.64402419224947,-54.28762518391063,49992.98577313188
B,196.83334105174828,130.3471591142009,-217.48519974684794,17.327754597930735,73.55174777632901,-42.713298643916424,49993.18214821473
G,198.26320551895998,129.0752939909478,-207.91424592016418,13.093132904168034,87.59666417901066,-40.50518657478662,49996.66554354058
R,196.34730750155646,133.179543333069,-202.28682747972582,31.359899868319864,49.813692195706025,-57.62812645381363,49992.004744139995
B,196.48478971477587,131.1209817971232,-220.21722663757788,19.37198820563477,71.7600466058692,-40.18824119793628,49991.87091243516
G,198.26475528329303,129.07666927916304,-207.91016502858824,13.097005440213437,87.60496554408918,-40.497596359181486,49996.66554622034
R,197.23864990989068,134.33683065551443,-199.83047678436782,34.34814039190025,45.0529973645788,-61.04100574377173,49991.02371515443
B,196.135571973583,131.8941380737978,-222.95098964461712,21.414485692435537,69.96472195500853,-37.66680724004634,49990.559676656434
G,198.26630153316447,129.07804357556643,-207.9060962143932,13.100871662723948,87.61324927631921,-40.49001422840779,49996.66554831198
R,198.18078782894767,134.9275629888985,-197.84872445363104,35.801064717667394,45.60374071521015,-61.63263531420433,49990.31526666198
B,194.93641817126775,132.62922851304904,-223.67394631673807,23.473358899970048,70.27380538090914,-34.64363968286201,49989.68489095064
G,198.26784459576933,129.0794141107372,-207.90203356490144,13.104728402101307,87.62152139566834,-40.4824510034564,49996.66555081202
R,198.09883488515487,134.98400567554611,-198.1184300207454,35.67114027566927,41.46698616066841,-65.48261225398639,49989.98676807474
B,194.27472073838433,131.96753108016563,-227.44990111889186,19.697404097816253,65.17585428445457,-39.741590779316574,49988.863767524745
G,198.2693836647122,129.0807829845076,-207.89797935269556,13.108583739615291,87.6297735915279,-40.47489392804633,49996.665553271516
R,197.90322813695133,134.33129373782657,-196.89500448916598,36.18398485603833,38.88306263582612,-69.36948937625544,49989.57080397354
B,193.57990990860552,131.35959803666807,-228.44134402126886,18.84496565348929,63.63583999426943,-40.95146948163286,49988.53526876945
G,198.2709196532004,129.0821487977067,-207.8939337445827,13.112430496365194,87.63800876818635,-40.46735379058121,49996.66555573101
R,197.7604217309706,133.50776576709922,-196.00031129640456,36.295391443299586,37.27418008086671,-73.90448234770493,49989.15483987325
B,193.1292642565341,130.9946784925589,-229.1559232028831,18.267548244614645,63.586004157636324,-40.67554610800948,49988.20677001519
G,198.27245258152166,129.08351157057658,-207.88989668417605,13.116268728684295,87.64622703737653,-40.45983047951476,49996.66555819049
R,197.61795592429192,132.68351748836213,-195.10620187819507,36.405067664744564,35.66776485426334,-78.44243139153005,49988.738875773895
B,192.6804732126398,130.63107166783672,-229.8686990089472,17.691067189225897,63.546159249563495,-40.39169098322831,49987.878271261165
G,198.2739833839812,129.08487034788504,-207.88586873400305,13.12009391581886,87.65442831947,-40.45233216313002,49996.6655604477
R,197.91639222563515,132.64234261945037,-194.38841297705454,36.6721131318343,32.98709970664883,-82.32885780158819,49988.260376643404
B,192.5884870172971,130.80894399393495,-231.79829846252005,16.053035460019004,63.52532669633646,-39.41942409068434,49987.1338081784
G,198.27551116778037,129.0862261262831,-207.8818492161054,13.123910693852414,87.6626129228073,-40.44485044478948,49996.6655627049
R,198.21543488729037,132.59953564690255,-193.67083669103073,36.93522637340899,30.311271277703025,-86.2215454051404,49987.781877514004
B,192.50958452587136,130.9998994872049,-233.7381152849091,14.404786040081598,63.344879477995924,-38.60677379551463,49986.38934509621
G,198.27703595252234,129.0875789253292,-207.8778380759871,13.1277191172284,87.67078095536728,-40.43738521669714,49996.66556496209
R,198.58813349160295,132.31761472728158,-192.99711878267243,36.63644838824153,28.30866636858068,-91.02093006097505,49987.303378385695
B,192.45040576255295,131.21057592812306,-235.69444619337239,12.740020865801474,62.91788387090397,-38.04068189874808,49985.644882014676
G,198.27864311050132,129.08885680673248,-207.8739458024563,13.13131655426929,87.67869934979493,-40.43033289570635,49996.66556716688
R,198.14449642769827,131.87634345846325,-194.00263255905486,35.635666202031814,26.04550563935762,-93.2734443647893,49987.303378385695
B,192.19966015023618,130.96997921827415,-237.36360701183966,11.081008949802044,63.216581925126384,-37.7135669176157,49985.00477108532
G,198.2802474138405,129.09013187011385,-207.8700614659957,13.13490608894708,87.68660203744007,-40.423296171660695,49996.66556937167
R,197.70090873785074,131.43506000955418,-195.00807691628512,34.634830326678426,23.782518878946767,-95.52607987634404,49987.303378385695
B,191.94905622764895,130.7295212444607,-239.03245719540405,9.422304715011451,63.515913269458714,-37.38582691671673,49984.36466015755
G,198.2818488803012,129.09140413315134,-207.86618501730393,13.138487770484126,87.69448911600422,-40.416274947112164,49996.66557157645
R,197.25735842601952,130.9937693031309,-196.01346789032812,33.63395856345133,21.51966479196908,-97.77879676020687,49987.303378385695
B,191.69856199071222,130.48916993375485,-240.70106618582588,7.7638386508204995,63.815730576560924,-37.0576094161681,49983.72454923138
G,198.28344752745778,129.0926736133365,-207.86231640759596,13.142061647587008,87.70236068216398,-40.40926912563611,49996.665573781225
R,196.81383746825048,130.55247427006503,-197.01881626905077,32.63306203413502,19.256915861642238,-100.03157000993889,49987.303378385695
B,191.44815623489262,130.24890400883973,-242.3694802585327,6.105564409018154,64.11593751631911,-36.7290109498774,49983.0844383068
G,198.2890294957337,129.0971070910004,-207.84879794627935,13.154543003842786,87.72987022436163,-40.38480245735701,49996.665584184375
R,196.64212782782363,130.3697715462832,-202.69362165496096,26.936270481514917,10.117691003725067,-109.21944476491181,49985.97355932012
B,191.2424330244919,131.35857258274945,-250.4261894887723,2.4255154339815164,56.47552163273114,-35.896345048772744,49979.732640301736
B,195.12319250689256,135.23826042415155,-240.43770885910462,12.412917234745558,76.00682762541297,-16.368020557539197,49979.732650901286
R,198.97318809079104,132.37247753745936,-195.9751054720035,32.99807812088987,1.3551300591980429,-119.44206007238856,49984.2941855417
G,194.1562202280717,129.0762542175957,-221.08907166602586,13.0954088994059,75.94743018270461,-40.49985056698115,49991.7717962959
R,201.7527109610679,132.77979049025907,-189.69897311491098,34.025193413110166,23.274770605972712,-117.43270758804394,49982.744489313016
G,197.56008356381545,133.5848980510299,-211.16495088562354,25.229090675189155,86.36388544208418,-25.366151807973132,49991.232186336885
B,193.8520165718161,134.09585955844707,-243.18032231315453,9.86277761240828,71.48533496910534,-20.663702333350734,49978.69733491601
R,201.7527109610679,132.77979049025907,-189.69897311491098,34.025193413110166,23.274770605972712,-117.43270758804394,49982.744489313016
G,197.56008356381545,133.5848980510299,-211.16495088562354,25.229090675189155,86.36388544208418,-25.366151807973132,49991.232186336885
B,193.8520165718161,134.09585955844707,-243.18032231315453,9.86277761240828,71.48533496910534,-20.663702333350734,49978.69733491601
B,195.25924196613394,135.50248065234493,-238.96512243128234,14.077366032844807,79.90952646807938,-12.24118385041527,49978.697345468616
R,204.08331874033584,134.7827454732897,-182.9811551776848,40.08770575786175,14.510296702870972,-127.6538726847524,49981.065115520614
G,193.4240327635207,133.56077984907475,-224.41439048428725,25.16076674431592,74.5634682886484,-25.499240977188535,49986.33839845273
R,206.57801575338223,135.19416096957923,-175.56371652247438,41.12523152492674,37.31650594623813,-125.62406338527407,49979.68262212577
G,193.34629594215414,133.48607597075716,-224.59141911725044,24.989803997450647,70.26588004746648,-29.783996454553634,49985.785673693856
B,194.678396490517,134.92252318360778,-240.2356034226774,12.807773048329562,77.5555866460308,-14.59086123944077,49977.27115258809
R,206.57801575338223,135.19416096957923,-175.56371652247438,41.12523152492674,37.31650594623813,-125.62406338527407,49979.68262212577
G,193.34629594215414,133.48607597075716,-224.59141911725044,24.989803997450647,70.26588004746648,-29.783996454553634,49985.785673693856
B,194.678396490517,134.92252318360778,-240.2356034226774,12.807773048329562,77.5555866460308,-14.59086123944077,49977.27115258809
R,207.14152664613513,139.36221918965379,-169.28834299935517,51.87053196869397,53.03355511812936,-104.30649568215028,49978.13292588162
G,194.04341452634122,134.4014788905774,-222.47336764911228,27.544424136855152,65.81417773702091,-33.30368151966206,49985.24606373094
B,193.4054891580369,133.7784177773618,-242.9831510062413,10.252726153428412,73.02411304012402,-18.89639505280738,49976.235836595886
R,207.14152664613513,139.36221918965379,-169.28834299935517,51.87053196869397,53.03355511812936,-104.30649568215028,49978.13292588162
G,194.04341452634122,134.4014788905774,-222.47336764911228,27.544424136855152,65.81417773702091,-33.30368151966206,49985.24606373094
B,193.4054891580369,133.7784177773618,-242.9831510062413,10.252726153428412,73.02411304012402,-18.89639505280738,49976.235836595886
G,197.11068000394965,137.46756560889554,-213.62824717848974,36.388268373719676,83.25655996503615,-15.866114897538466,49985.2460717311
R,204.3396308373355,137.8860752075476,-170.70066341191992,53.442142899025065,44.98938172723746,-106.31708940536551,49977.607927015364
B,191.3176071094657,131.69053572879062,-254.80539114795738,-1.5695139882876834,61.27703850088267,-30.64346959204874,49972.98084764388
B,195.54766033880213,134.17293035286335,-245.4489696348422,5.340182609854053,81.30157942647469,-17.60956336659381,49972.98085583888
R,204.30571252397758,138.21868115248154,-179.75267468237718,44.78687595501426,50.77826331463219,-98.6049263220477,49976.06381950186
G,196.17673814168282,136.53477831492538,-218.03184148075945,31.986465483626997,55.43905203632422,-43.67831181208568,49980.6375084579
R,205.80311172489684,143.1599357564704,-172.09715972959967,57.31840997042913,61.38475366161852,-79.78526922322604,49974.67636378771
G,197.9144520665901,139.78270600163412,-208.3056561866539,44.73307830133552,71.75623392418407,-20.9167126958606,49979.47576902662
B,195.3774581887523,134.14191689587557,-245.8239288463521,5.283763344582994,77.15511328594852,-21.036381215322002,49971.29631652372
R,205.80311172489684,143.1599357564704,-172.09715972959967,57.31840997042913,61.38475366161852,-79.78526922322604,49974.67636378771
G,197.9144520665901,139.78270600163412,-208.3056561866539,44.73307830133552,71.75623392418407,-20.9167126958606,49979.47576902662
B,195.3774581887523,134.14191689587557,-245.8239288463521,5.283763344582994,77.15511328594852,-21.036381215322002,49971.29631652372
B,197.93300825403279,136.69572505483163,-238.57455184899632,12.530702451079733,90.20178958189561,-7.996664918079967,49971.29632760867
R,204.22310572857742,146.90846092764411,-176.38515841021655,66.49630879239567,68.6454463421879,-60.22940026236182,49970.93355650249
G,197.12687403615604,138.99892562370817,-209.74325049457855,43.301407177777385,46.918808952315956,-45.736668466191496,49976.37078322936
B,197.93475433959887,136.69711671761792,-238.57053756191732,12.534347003827554,90.21079347512485,-7.989338341557964,49971.29633684454
R,202.62811437664263,145.47072910588017,-178.80210744991874,64.18202887496135,40.276603142180974,-88.08755713324399,49966.67882094755
G,197.84479265037265,141.7055085135693,-212.71229337912885,44.30969284451609,43.559361044823916,-40.6041723916248,49973.58508670903,-50000
B,197.0368137716561,137.3425164268302,-238.89798097556223,15.032277424608807,87.18790203920159,-5.605575380353718,49970.40384623644,-50000
R,198.51470500858437,142.37542087178102,-224.19195638501296,32.83002983863197,43.994731977756544,-40.16880145869217,49970.70956879888,-50000
B,197.03888147035252,137.3441668687899,-238.8936952560409,15.03628784326123,87.19799845768841,-5.597143224972894,49970.403856241996,-50000.0
B,197.04208748127647,137.3438438784513,-238.88974635203604,15.032619532136529,87.19618715863571,-5.610707538117,49970.4038597989,-50000.0
R,198.14537256262201,142.03768409937058,-225.44585310201268,31.613401990699618,10.172210719814593,-73.8688531855091,49966.138066727086,-50000.0
G,194.3196833000156,134.64022847682614,-273.43300472883317,-19.44706910882951,48.50043545515741,-44.243840299593415,49963.12213662545,-50000.0
G,200.36564109541712,138.18495600061456,-259.89377037188785,-9.407623101386317,77.5590212262503,-24.68621089316223,49963.12214715758,-50000.0
R,197.87815320148914,141.7913154042224,-226.2517207967983,30.849235627883363,-1.2591993390958809,-85.2074289862885,49965.444451327894,-50000.69361539919
B,190.47353945278766,131.90962578952946,-261.74563443878384,-6.431690716207839,72.39904099110075,-19.0839147464871,49966.729756497014,-50000.0
B,195.93718974204216,137.37227095415318,-247.64796670796986,7.664961612707394,99.89116317569412,8.40542038270879,49966.72977165324,-50000.0
R,197.80683497116456,141.73029292691302,-226.45723042552555,30.66431750518653,-13.943916472876802,-97.84626659635998,49964.64444188675,-50001.49362484034
G,199.5166476859984,143.20968785576804,-264.4922996396847,4.823536463466599,88.61629486180864,3.0372933748481508,49956.1310216643,-50000.0
B,195.93895551542286,137.37316772432175,-247.6445935652037,7.667474909648824,99.8992527218358,8.41035867456046,49966.72978476114,-50000.0
R,196.38405748401826,140.30751543976672,-230.37695754582543,26.744590384886656,-28.529794389330995,-112.43214451281418,49964.64444188675,-50001.49362484034
G,194.21236872645,140.7138613854496,-287.86086217158305,-5.630011036074592,55.787936127444816,-14.115413649797862,49950.11300901673,-50000.0
G,200.25642231059777,144.25894277244737,-272.8258636304113,4.410421341701234,84.84180653822833,5.44420327316552,49950.11302524306,-50000.0
R,198.63862412016442,143.32737769583983,-241.6822882907121,16.007703635351586,-55.57046131237405,-135.786448620679,49958.67282406976,-50001.49362484034
B,193.3093019887991,134.80022050400007,-278.9491945802257,-23.46527985646915,62.056904195602044,-29.2107771171825,49959.343533718566,-50000.0
B,197.69087314189886,139.17606826974057,-266.66336582449225,-11.186909904915659,86.48725893218128,-4.803907446995712,49959.34354664987,-50000.0
R,198.20433693185456,142.89309050752996,-243.21281666732344,14.477175258740264,-68.59985146483822,-148.81583877314318,49958.12524241364,-50002.04120649646
G,192.55948137176148,143.54888697970054,-287.0548614614947,2.827090395412593,58.923740810527775,2.9830515831006577,49945.56781756298,-50000.0
B,197.70814809188664,139.19229460851435,-266.6169247923297,-11.141529249805874,86.57732150926164,-4.717837215346118,49959.34355985871,-50000.0
R,197.90034896261375,142.58910253828915,-244.28412977321605,13.405862152847652,-81.9007896651525,-162.11677697345746,49957.491910550896,-50002.674538359206
G,189.33807492620318,146.4451344465209,-298.7628330666074,11.898617244855192,54.75862859132765,21.120947816409352,49939.61117835773,-50000.0
B,197.72423656473796,139.20733594215008,-266.57375593268034,-11.099419210332414,86.66133927058009,-4.637806097853497,49959.34357306742,-50000.0
R,197.59635906389295,142.28511263956835,-245.35546533537018,12.334526590693518,-95.20159462199057,-175.4175819302955,49956.858587558214,-50003.30786135189
G,186.1949759830828,149.27257292644038,-310.41416156505056,20.763717132074298,50.86525348379856,38.85520976724955,49933.65453914529,-50000.0
B,197.74191007432697,139.224005142877,-266.53083247453793,-11.058089365172854,86.71857927008385,-4.584556852935647,49959.34358441931,-50000.0
R,195.03586695176406,139.14087603095328,-246.1876181134278,10.958611600413244,-114.01549767208456,-196.43853476574262,49955.583590477836,-50003.30786135189
G,180.46962362659477,143.54722056995234,-329.24983088910784,1.9280478080170056,21.485081930202014,9.475038213653,49930.11229685192,-50000.0
B,197.75642490548523,139.2374752097192,-266.49201522179595,-11.020328423054819,86.79452638926983,-4.512587180902207,49959.343597627805,-50000.0
R,194.73187432479654,138.83688340398575,-247.258989036094,9.887240677747046,-127.31606160753839,-209.73909870119644,49954.950283025515,-50003.94116880421
G,180.98521323933852,144.21552154148037,-341.4982389659385,4.315735300165345,29.721635676427372,14.572959106206284,49924.15565784442,-50000.0
B,197.77026501745553,139.25027004322953,-266.45507716824125,-10.984441253810541,86.86697790890489,-4.444102736384079,49959.34361023298,-50000.0
R,194.61990910978747,138.7249181889767,-248.0360068725745,9.110222841266552,-140.10336722323703,-222.52640431689508,49954.950283025515,-50003.94116880421
G,182.4559566729996,145.36542714991492,-351.0342671684207,7.765452125469031,42.2959002705294,21.303284952222796,49917.339957388605,-50000.0
B,197.78352512289834,139.26248604088562,-266.41974885252665,-10.950162584508663,86.93642697274464,-4.378616213598581,49959.34362283804,-50000.0
R,194.50794369596875,138.61295277515796,-248.8130343393176,8.333195374523433,-152.89061022074543,-235.31364731440348,49954.950283025515,-50003.94116880421
G,183.91774895188297,146.51871357722493,-360.5577803978991,11.225311407399072,54.840198022168764,28.053392043899102,49910.52425693138,-50000.0
B,197.79628065660748,139.2741985861325,-266.3858223958122,-10.917284590739374,87.00325662924077,-4.315744763096203,49959.34363544299,-50000.0
R,194.39597799904402,138.50098707823324,-249.5900694169166,7.556160296924432,-165.6777990575037,-248.10083615116176,49954.950283025515,-50003.94116880421
G,184.1653032918723,148.16675330882802,-368.1091055954581,16.169430602208326,63.40927176424563,37.69923926599062,49903.70855647277,-50000.0
B,197.8118297978135,139.28449155911235,-266.3528168370672,-10.891397619199191,87.0512159431556,-4.284367167395015,49959.34364618184,-50000.0
R,195.19883128294535,135.8407789267427,-265.95296467187893,-10.797981760571762,-146.84064773624243,-253.82647593177256,49950.81610786827,-50003.94116880421
G,188.24894082604553,152.25039084300124,-351.85998564309324,32.4185505545732,49.44875819655706,23.738725698302048,49899.147633541856,-50003.79723706445
R,203.51295563350774,135.8617940084275,-258.549327556131,-10.741432561582267,-124.61537289652479,-253.70278151746473,49950.8161185132,-50003.94116880421
G,189.5636864540818,154.30013539729669,-360.8848236680544,27.4362066240375,43.45660496787087,24.36156280594848,49892.59790080384,-50003.79723706445
B,193.372733027384,135.05463951618728,-291.6464963294859,-35.879998488698604,50.10240631946131,-40.606277283358835,49953.746090239045,-50000.0
R,207.66054225255778,135.9174528958034,-253.29938700835262,-10.661008736325444,-111.3926852781946,-253.50701443166398,49950.8161185132,-50003.94116880421
G,192.40295059902445,157.13939954223935,-350.39213512804395,37.92889516404796,54.88316518607501,35.788123024152625,49892.59790080384,-50003.79723706445
B,197.51972888951977,139.3287107068983,-288.5077229500213,-32.48059213753418,67.51420725604554,-22.772217010114133,49952.114509871215,-50000.0
R,211.80807866933455,135.97318096136036,-248.0494507142546,-10.580447701823424,-98.17007894919882,-253.310933589143,49950.8161185132,-50003.94116880421
G,192.2846467032826,157.02109564649749,-348.2756734717374,40.045356820354506,49.92091938089941,30.825877218977027,49892.59790080384,-50003.79723706445
B,201.36275458695033,143.29881193442216,-284.80152876725083,-28.513764838726132,85.65395605966778,-4.2102081898680765,49950.482929456564,-50000.0
B,202.99445112464494,144.93000190499097,-280.34553041998964,-24.05857377896613,93.66471586357498,3.798555826491649,49950.48293556725,-50000.0
R,211.61704072512472,135.81463063334252,-248.47326563871633,-10.970875750520293,-101.92208587488074,-256.9398371671181,49950.5627943521,-50004.194492965304
G,191.99181657196775,156.72826551518264,-347.9160076760988,40.405022615993076,53.05784263399886,33.962800472076474,49890.92035967319,-50003.79723706445
B,203.00001106377238,144.93518062108853,-280.3327042313429,-24.04635434626378,93.67877247679517,3.8111179461550857,49950.48294166245,-50000.0
R,211.42600606557096,135.65607566117865,-248.89708437163455,-11.361316146162162,-105.67408543057743,-260.5687631173833,49950.30947068574,-50004.44781663167
G,190.53822655892031,155.2746755021352,-350.0109560551434,38.31007423694841,49.49323502316152,30.39819286123913,49889.24281854016,-50003.79723706445
B,203.0055062953645,144.9402948205039,-280.32002198585553,-24.03427855139028,93.69276670187541,3.8236184409155953,49950.48294775762,-50000.0
R,211.2349744309647,135.49751637787946,-249.32090665895882,-11.751767995385379,-109.4260780631544,-264.1977096694367,49950.056147494244,-50004.70113982316
G,190.24677281648346,154.98322175969835,-349.65653782994707,38.664492462144736,52.64048140456329,33.545439242640896,49887.565277411966,-50003.79723706445
B,203.01093939727494,144.94534707963066,-280.30747808827056,-24.022340801424473,93.70669989650078,3.8360586626195348,49950.482953852756,-50000.0
R,211.04394558925438,135.33895308288535,-249.74473227112543,-12.14223049519584,-113.17806417820897,-267.8266752397542,49949.80282475894,-50004.95446255847
G,189.95313094732987,154.68957989054476,-348.4724236532289,39.84860663886293,55.510889941153984,36.41584777923159,49885.88773628139,-50003.79723706445
B,203.01631519645076,144.9503397988855,-280.29506532271637,-24.01053588619105,93.72057121873549,3.8484398664550192,49950.48296001378,-50000.0, 1000
R,210.94034493352214,135.2678234983036,-249.90990442953137,-12.274034174575924,-116.63627422362454,-271.1618435781559,49949.508677940954,-50005.24860937645, 1000
G,186.80048450453324,151.53693344774814,-349.90621000485555,38.414820287236275,52.01855582847514,32.92351366655274,49885.88773628139,-50003.79723706445, 1000
G,187.60039863605525,152.3368330684101,-347.50753148634135,40.813484315586514,56.81802772628786,37.72291139052447,49885.887740325896,-50003.79723706445,1000.0
R,213.1587538303755,137.48623239515697,-245.27920041141468,-7.643330156459242,-104.80580903024912,-259.3313783847805,49949.50868450337,-50005.24860937645,1000.0
R,214.9250974051046,137.58805326810992,-245.3997473206581,-10.094208848189279,-97.76402791900426,-259.88765489653605,49949.50868450337,-50005.24860937645,995.6872693929778
R,214.9250974051046,137.58805326810992,-245.3997473206581,-10.094208848189279,-97.76402791900426,-259.88765489653605,49949.50868450337,-50005.24860937645,995.6872693929778
R,214.9250974051046,137.58805326810992,-245.3997473206581,-10.094208848189279,-97.76402791900426,-259.88765489653605,49949.50868450337,-50005.24860937645,995.6872693929778
R,214.9250974051046,137.58805326810992,-245.3997473206581,-10.094208848189279,-97.76402791900426,-259.88765489653605,49949.50868450337,-50005.24860937645
G,216.87700139463263,138.54004356771532,-240.68395526481302,-7.378236424339238,-87.05250123449932,-254.17571309890363,49949.50868950742,-50005.24860937645
B,218.10231514057133,-50.7660987819945,-238.8523699240455,100.7776894668302767,-82.93588139704039,-246.8193818132286,49948.84295003289,-48000.24860937645
B,219.32762394668197,-50.9921546643459,-237.02078947179118,100.7776894668302767,-78.81928448208123,-239.46304651912016,49948.177210552465,-48000.24860937645
R,218.42737708560267,-50.62011219815537,-237.56680552428907,100.149805225843688,-79.81064499193974,-253.69530131626328,49949.50868950742,-48000.24860937645
R,218.48509619545166,-50.62011219815537,-237.3969764116997,100.14980522584369,-78.51149748983735,-253.69530131626328,49949.50868950742,-48000.24860937645
R,218.48509619545166,-50.62011219815537,-237.3969764116997,100.14980522584369,-78.51149748983735,-253.69530131626328,49949.50868950742,-48000.24860937645
R,218.48509619545166,-50.62011219815537,-237.3969764116997,100.14980522584369,-78.51149748983735,-253.69530131626328,49949.50868950742,-48000.24860937645
R,218.48509619545166,-50.62011219815537,-237.3969764116997,100.14980522584369,-78.51149748983735,-253.69530131626328,49949.50868950742,-48000.24860937645
R,218.48509619545166,-50.62011219815537,-237.3969764116997,100.14980522584369,-78.51149748983735,-253.69530131626328,49949.50868950742,-48000.24860937645
R,218.48509619545166,-50.62011219815537,-237.3969764116997,100.14980522584369,-78.51149748983735,-253.69530131626328,49949.50868950742,-48000.24860937645
R,218.48509619545166,-50.62011219815537,-237.3969764116997,100.14980522584369,-78.51149748983735,-253.69530131626328,49949.50868950742,-48000.24860937645
R,218.48509619545166,-50.62011219815537,-237.3969764116997,100.14980522584369,-78.51149748983735,-253.69530131626328,49949.50868950742,-48000.24860937645
R,218.48509619545166,-50.62011219815537,-237.3969764116997,100.14980522584369,-78.51149748983735,-253.69530131626328,49949.50868950742,-48000.24860937645
R,218.54282593847324,-50.62011219815537,-237.22711872284836,100.14980522584369,-77.21231932159533,-253.69530131626328,49949.50868950742,-48000.24860937645
R,218.54282593847324,-50.62011219815537,-237.22711872284836,100.14980522584369,-77.21231932159533,-253.69530131626328,49949.50868950742,-48000.24860937645
R,218.54282593847324,-50.62011219815537,-237.22711872284836,100.14980522584369,-77.21231932159533,-253.69530131626328,49949.50868950742,-48000.24860937645
R,218.54282593847324,-50.62011219815537,-237.22711872284836,100.14980522584369,-77.21231932159533,-253.69530131626328,49949.50868950742,-48000.24860937645
R,218.54282593847324,-50.62011219815537,-237.22711872284836,100.14980522584369,-77.21231932159533,-253.69530131626328,49949.50868950742,-48000.24860937645
R,218.54282593847324,-50.62011219815537,-237.22711872284836,100.14980522584369,-77.21231932159533,-253.69530131626328,49949.50868950742,-48000.24860937645
R,218.54282593847324,-50.62011219815537,-100.22711872284836,100.14980522584369,-77.21231932159533,-253.69530131626328,49949.50868950742,-48000.24860937645
R,218.54282593847324,-50.62011219815537,-100.22711872284836,100.14980522584369,-77.21231932159533,-253.69530131626328,49949.50868950742,-10.24860937645
R,218.54282593847324,-50.62011219815537,-100.22711872284836,100.14980522584369,-77.21231932159533,-253.69530131626328,49949.50868950742,-10.24860937645
R,220.1728954478873,-50.62011219815537,-98.75053724741053,100.14980522584369,-72.98001000990716,-253.69530131626328,49949.194576279995
R,221.8068167751254,-50.62011219815537,-95.97687577360698,100.14980522584369,-68.06147827564405,-253.69530131626328,49949.194576279995
R,223.4406508748191,-50.62011219815537,-93.20234288614084,100.14980522584369,-63.14062366638509,-253.69530131626328,49949.194576279995
R,225.0741732686227,-50.62011219815537,-90.42254022028003,100.14980522584369,-58.20354080670668,-253.69530131626328,49949.194576279995
R,227.7220510556247,-50.62011219815537,-87.53552641019144,100.14980522584369,-48.77751640420737,-253.69530131626328,49949.19458013178
G,225.3837571620817,-50.62011219815537,-96.41427905921978,100.14980522584369,-64.72583338644343,-253.69530131626328,49947.33458261932
B,225.2337928087994,-50.62011219815537,-100.65307273079591,100.14980522584369,-67.22601681478965,-253.69530131626328,49946.11694142827
B,225.08386266252708,-50.62011219815537,-104.89180076517493,100.14980522584369,-69.72606719864295,-253.69530131626328,49944.89930024618
