R,-99.0,-96.97719862155257,47.277282532595905,-37.944600432209064,57.0949221212962,64.10190999661013,21.090475925900602,-84.0170845305044,81.0641051713214,-41.150045298008465,89.06649048445017,-85.0,1.8530793022565297,36.98965568330485,81.84719007289999,0.8519311737473148,69.0,-42.0,-87.0,50.9937725652357,44.0,68.0,-88.07533646479034,64.91359455371796,69.0,70.0,96.0,-1.0,70.99802352824422,-64.0,61.0,36.0,30.0,-41.150045298008465,18.0,-18.0,-59.0,94.99160561701272,-35.0,-35.0,-54.0,-87.0,-9.0,-85.0,-63.0,-5.0,-96.97719862155257,-80.05623775040499,-80.05623775040499,-90.0,62.99914901554729,44.0,-9.835766071437174,-11.0,54.99716136971425,-71.0,96.0,23.108882051535605,-78.82308284392555,62.06709618085486,68.0,90.99802352824422,46.0,26.0,-39.89523937066612,-99.0,-94.16116659796212,-99.0,39.0904759259006,70.99802352824422,36.98965568330485,-41.150045298008465,-80.05623775040499,-20.94460043220906,19.0,-50.0,-22.0,-17.0,54.0,18.0,-13.0,-41.150045298008465,-43.0,-90.0,-27.0,-14.0,24.0,-80.05623775040499,-41.150045298008465,-30.0,1.8530793022565297,-49.0,34.0,57.0949221212962,-71.0,39.0904759259006,24.991605617012716,85.0,-91.0,-15.0,-86.0,28.0,-52.0,-31.0,89.06649048445017,-95.0,-13.0,-36.0,-30.0,-73.0,-34.0,61.0,-61.0,-86.0,21.090475925900602,-78.0,-37.0,26.0,-65.0,97.0,-58.008394382987284,-31.0,-26.0,-84.0170845305044,14.0,-96.97719862155257,21.090475925900602,20.0,-78.0,86.0,-75.0,45.0,-9.0,-12.0,-78.82308284392555,-28.0,87.0,40.0,6.0,70.99802352824422,94.0,-56.0,35.0,-63.0,26.0,100.0,41.0,-88.07533646479034,-5.0,21.090475925900602,-14.0,-88.07533646479034,-99.0,-59.0,-31.0,-9.835766071437174,81.0641051713214,88.0,12.0,-63.0,14.0,45.0,-41.150045298008465,-53.0,21.090475925900602,24.0,-28.0,76.0,-30.0,-13.0,-55.0,-44.0,90.99802352824422,29.0,-93.0,39.0904759259006,96.0,90.99802352824422,58.0,-80.05623775040499,54.0,34.0,-49.0,-3.0,-67.0,-59.0,20.0,-94.16116659796212,9.0,-94.16116659796212,-27.0,-29.0,70.0,-0.008394382987283252,-80.05623775040499,-63.0,38.0,87.0,40.0,-95.0,12.0,-96.97719862155257,54.0,-65.0,98.0,67.0,-72.0,-25.0,-78.82308284392555,29.0,-74.0,-18.0,-39.0,31.0,56.0,-3.0,-47.0,22.0,88.0,35.0,22.0,64.91359455371796,17.022801378447433,0.8519311737473148,-69.0,-62.0,11.0,61.0,-62.0,-62.0,24.0,31.0,42.0,-20.94460043220906,-60.0,-7.0,52.0,-59.0,-53.0,30.0,-46.0,13.0,-68.0,-84.0170845305044,73.0,86.0,-58.008394382987284,36.98965568330485,-72.0,15.0,-28.0,-20.0,23.108882051535605,-84.0170845305044,-7.0,-53.0,61.0,-90.0,24.991605617012716,-74.0,-98.0,-26.0,-39.89523937066612,46.0,-57.0,-14.0,75.0,47.277282532595905,-82.0,7.0,-5.0,6.0,-91.0,-96.0,54.99716136971425,34.0,11.0,-64.0,16.0,75.0,-88.07533646479034,13.0,47.277282532595905,69.0,-3.0,57.0949221212962,-64.0,-62.0,24.0,54.0,88.0,100.0,47.277282532595905,-49.0,-84.0170845305044,-99.97719862155257,-44.0,41.0,13.0,21.090475925900602,9.0,42.0,0.8519311737473148,-4.0,-5.0,-58.008394382987284,76.0,-74.0,-86.0,18.0,-69.0,-66.0,38.0,-54.0,-77.0,14.0,92.0,14.0,-28.0,15.0,-22.0,-99.0,-63.0,27.022801378447433,0.8519311737473148,-64.0,-55.0,-78.82308284392555,-83.0,-18.0,46.0,13.0,-2.0,-36.0,6.0,-65.0,-86.0,100.0,7.0,-88.97719862155257,-30.0,-50.0,62.06709618085486,47.277282532595905,-25.0,11.0,-0.008394382987283252,0.8519311737473148,-61.0,-6.0,28.0,20.0,75.0,-67.0,-32.0,-64.0,-53.0,93.0,-28.0,-5.0,54.99716136971425,19.0,36.98965568330485,78.06649048445017,-43.0,35.0,-20.0,29.0,17.022801378447433,-23.0,36.0,-35.0,47.277282532595905,64.10190999661013,-96.0,-1.0,-14.0,-90.0,-11.0,16.0,66.0,92.0,-20.94460043220906,-39.89523937066612,-51.0,-84.0170845305044,-37.944600432209064,54.0,-54.0,23.108882051535605,-76.0,96.0,-6.0,-51.0,-9.0,-18.0,-26.0,-11.0,-55.0,-88.97719862155257,-39.89523937066612,21.090475925900602,-55.0,74.0,-12.0,-41.150045298008465,-99.0,60.16423392856282,30.0,-84.0170845305044,-46.0,41.0,61.0,-0.008394382987283252,69.0,23.108882051535605,64.91359455371796,93.0,81.0641051713214,43.0,-48.0,7.0,-8.0,54.99716136971425,64.91359455371796,99.0,62.06709618085486,-71.0,70.99802352824422,34.0,57.0949221212962,-52.0,-77.0,86.0,-5.0,76.0,14.0,28.0,-84.0170845305044,48.0,-3.0,-49.0,-37.0,79.0,1.8530793022565297,-69.0,50.0,-37.0,-75.0,61.0,-7.0,40.0,-56.0,-86.0,-91.0,48.0,-3.0,99.0,-39.89523937066612,77.2772825325959,4.0,-3.0,-23.0,94.99160561701272,-6.0,5.0,46.0,21.090475925900602,89.06649048445017,3.0,-78.82308284392555,-8.0,-50.0,-42.0,-98.0,42.0,79.0,57.0949221212962,78.06649048445017,69.0,35.0,-81.0,41.0,-78.0,35.0,88.0,62.06709618085486,-46.0,-72.0,-39.89523937066612,-87.0,14.0,-98.0,1.8530793022565297,-15.0,15.0,-2.0,-59.0,-31.0,-8.0,54.0,-20.0,52.0,-85.0,34.0,-9.0,54.0,-20.94460043220906,-7.0,-6.0,-19.0,96.0,3.0,-34.0,-37.944600432209064,-72.0,52.0,79.0,80.0,-66.0,44.0,-34.0,-18.0,-57.0,-39.0,-35.0,10.0,64.91359455371796,24.0,100.0,83.0,90.99802352824422,-51.0,-64.0,-48.0,14.0,-95.0,54.0,-14.0,-99.97719862155257,54.99716136971425,-50.0,-58.008394382987284,94.99160561701272,-57.0,6.0,-85.0,62.99914901554729,-49.0,-3.0,-76.0,-29.0,14.0,0.8519311737473148,-35.0,-1.0,97.0,31.0,84.0,34.0,-39.0,78.06649048445017,-9.835766071437174,-31.0,100.0,-54.0,1.8530793022565297,-61.0,-9.0,-16.0,-4.0,-24.0,-8.0,-45.0,28.0,64.10190999661013,-25.0,-45.0,-31.0,87.0,-0.008394382987283252,35.0,9.0,-30.0,76.0,5.0,-39.0,14.0,10.0,-98.0,-36.0,4.0,-43.0,89.06649048445017,-82.0,78.06649048445017,36.98965568330485,29.0,-92.0,-94.16116659796212,24.0,49.0,83.0,98.0,-53.0,-47.0,-15.0,-13.0,-72.0,66.0,-15.0,-27.0,41.0,-57.0,-19.0,-96.97719862155257,-37.0,-88.07533646479034,31.0,-8.0,-62.0,-47.0,84.0,62.06709618085486,-74.0,-61.0,-20.94460043220906,70.99802352824422,-39.0,48.0,49.0,88.0,-37.0,18.0,-37.0,-36.0,-22.0,-1.0,47.277282532595905,36.0,-31.0,-91.0,39.0904759259006,-5.0,1.8530793022565297,12.0,26.0,-92.0,14.0,84.0,-73.0,-80.05623775040499,-61.0,38.0,-3.0,36.98965568330485,6.0,39.0904759259006,85.0,-20.94460043220906,-56.0,-62.0,13.0,-78.0,-15.0,38.0,-74.0,41.0,99.0,7.0,53.0,-33.0,-39.89523937066612,-47.0,-31.0,88.0,22.0,-37.944600432209064,93.0,-35.0,-61.0,-19.0,64.10190999661013,98.0,-33.0,-58.008394382987284,-33.0,-41.150045298008465,0.8519311737473148,-25.0,62.06709618085486,-81.0,-43.0,-64.0,-67.0,-22.0,-27.0,56.0,69.0,-86.0,39.0904759259006,19.0,-50.0,19.0,-70.0,28.0,68.0,61.0,49.0,96.0,-92.0,-94.16116659796212,-15.0,-13.0,-37.944600432209064,-95.0,-15.0,-17.0,92.0,100.0,10.0,-28.0,56.0,-31.0,94.0,94.99160561701272,-84.0170845305044,17.022801378447433,-7.0,-94.16116659796212,90.0,-18.0,-28.0,54.99716136971425,-93.0,-26.0,40.0,-98.0,-0.008394382987283252,-26.0,18.0,62.99914901554729,88.0,-44.0,15.0,58.0,20.0,54.0,81.84719007289999,-73.0,59.0,93.0,93.0,-94.16116659796212,-57.0,42.0,5.0,12.0,-19.0,40.0,-24.0,36.98965568330485,10.0,-39.89523937066612,8.0,62.99914901554729,-72.0,-1.0,50.9937725652357,-96.97719862155257,-88.07533646479034,44.0,90.99802352824422,-96.0,-39.0,-4.0,80.0,-81.0,66.0,-41.150045298008465,-43.0,92.0,10.0,-88.07533646479034,47.277282532595905,53.0,35.0,20.0,89.06649048445017,33.0,46.0,69.0,69.0,70.99802352824422,10.0,-55.0,20.0,39.0904759259006,22.0,-22.0,-28.0,98.0,64.91359455371796,45.0,-57.0,-17.0,-24.0,-49.0,58.0,7.0,6.0,-32.0,-25.0,-43.0,84.0,47.277282532595905,-96.97719862155257,50.9937725652357,-16.0,-18.0,75.0,92.0,-99.97719862155257,99.0,84.0,-65.0,19.0,-45.0,-91.0,-22.0,-84.0170845305044,57.0949221212962,70.99802352824422,68.0,-74.0,42.0,-93.0,-9.0,67.0,-47.0,-5.0,-19.0,-94.16116659796212,43.0,-14.0,99.0,68.0,67.0,34.0,-73.0,-68.0,-93.0,47.277282532595905,-73.0,-64.0,-83.0,-3.0,29.0,53.0,5.0,57.0949221212962,-49.0,-71.0,80.0,-16.0,-13.0,-8.0,-63.0,-94.16116659796212,14.0,-29.0,98.0,81.0641051713214,-55.0,88.0,-11.0,-41.150045298008465,-14.0,94.99160561701272,76.0,18.0,45.0,56.0,69.0,-2.0,-86.0,39.0904759259006,1.8530793022565297,-39.0,-76.0,-90.0,79.0,-99.0,-91.0,18.0,-41.150045298008465,75.0,35.0,-50.0,96.0,-12.0,20.0,53.0,-15.0,-56.0,-31.0,8.0,-85.0,-99.0,-51.0,-90.0,-51.0,3.0,38.0,72.0,83.0,83.0,-95.0,-57.0,41.0,13.0,1.8530793022565297,-99.97719862155257,-27.0,34.0,28.0,-27.0,67.0,-1.0,72.0,66.0,-49.0,-95.0,-88.97719862155257,-6.0,84.0,50.9937725652357,-65.0,58.0,44.0,-54.0,52.0,24.991605617012716,97.0,-12.0,38.0,23.108882051535605,62.06709618085486,99.0,12.0,54.0,70.99802352824422,-34.0,-0.008394382987283252,58.0,26.0,50.0,-0.008394382987283252,31.0,16.0,-72.0,-71.0,-80.05623775040499,96.0,15.0,83.0,24.991605617012716,-36.0,-76.0,3.0,-48.0,81.84719007289999,93.0,96.0,-91.0,64.10190999661013,67.0,73.0,-56.0,-33.0,-87.0,-61.0,26.0,-25.0,54.0,-35.0,-39.89523937066612,-11.0,-23.0,81.84719007289999,54.99716136971425,99.0,90.0,-87.0,45.0,-99.0,24.0,80.0,49.0,74.0,-46.0,64.91359455371796,94.0,74.0,54.0,5.0,-50.0,84.0,-32.0,-68.0,53.0,49.0,46.0,14.0,-31.0,23.108882051535605,21.090475925900602,-99.97719862155257,-70.0,96.0,62.06709618085486,90.0,-2.0,-5.0,-42.0,-6.0,73.0,38.0,11.0,-9.835766071437174,-76.0,-57.0,62.99914901554729,-50.0,40.0,-42.0,-63.0,30.0,89.06649048445017,-45.0,-36.0,38.0,78.06649048445017,24.991605617012716,-15.0,3.0,77.2772825325959,90.0,-58.008394382987284,-69.0,-20.0,-85.0,-78.82308284392555,58.0,-16.0,-39.0,-13.0,-54.0,13.0,-68.0,31.0,-7.0,-66.0,89.06649048445017,18.0,-51.0,-18.0,-13.0,34.0,84.0,-39.89523937066612,35.0,7.0,-77.0,-27.0,58.0,-5.0,-17.0,8.0,-58.008394382987284,-72.0,-60.0,27.022801378447433,-0.008394382987283252,-93.0,-22.0,79.0,-53.0,49.0,45.0,-49.0,-0.008394382987283252,86.0,-2.0,36.98965568330485,-20.94460043220906,10.0,11.0,-58.008394382987284,-76.0,81.84719007289999,-48.0,-85.0,-0.008394382987283252,-86.0,-44.0,15.0,33.0,64.10190999661013,-78.0,-3.0,-20.0,-17.0,3.0,99.0,60.16423392856282,-13.0,-17.0,-39.89523937066612,-64.0,99.0,62.06709618085486,-90.0,45.0,-30.0,-56.0,-9.835766071437174,-98.0,30.0,73.0,72.0,47.277282532595905,-93.0,-83.0,83.0,64.10190999661013,-35.0,80.0,9.0,-67.0,-91.0,-78.0,70.99802352824422,98.0,-39.89523937066612,6.0,60.16423392856282,83.0,61.0,70.0,72.0,69.0,-14.0,20.0,-46.0,-29.0,-55.0,17.022801378447433,32.0,79.0,98.0,52.0,-59.0,-52.0,-51.0,83.0,26.0,-46.0,47.277282532595905,-84.0170845305044,45.0,-64.0,64.10190999661013,-9.835766071437174,-32.0,36.0,1.8530793022565297,-13.0,-22.0,-55.0,-96.0,8.0,-24.0,-16.0,32.0,-93.0,83.0,-77.0,-83.0,62.06709618085486,13.0,87.0,-62.0,38.0,33.0,-99.97719862155257,-62.0,90.0,14.0,69.0,43.0,-48.0,-77.0,-72.0,30.0,36.0,-95.0,-37.944600432209064,14.0,81.84719007289999,72.0,76.0,-41.150045298008465,41.0,6.0,-44.0,-68.0,94.99160561701272,-88.97719862155257,-13.0,99.0,-23.0,-61.0,100.0,-14.0,16.0,87.0,96.0,-61.0,17.022801378447433,-81.0,-9.835766071437174,58.0,-52.0,-13.0,-85.0,-23.0,-2.0,11.0,5.0,-20.94460043220906,7.0,-0.008394382987283252,62.99914901554729,-43.0,-96.0,97.0,53.0,-2.0,-49.0,-75.0,-11.0,-56.0,1.8530793022565297,-0.008394382987283252,47.277282532595905,1.8530793022565297,-88.07533646479034,-64.0,-67.0,-8.0,76.0,40.0,75.0,11.0,-42.0,-80.05623775040499,-87.0,94.99160561701272,94.99160561701272,-42.0,50.9937725652357,-15.0,-92.0,84.0,62.06709618085486,13.0,-71.0,-41.150045298008465,94.99160561701272,-68.0,-88.07533646479034,-32.0,-33.0,-43.0,100.0,42.0,-68.0,-87.0,-88.07533646479034,21.090475925900602,72.0,18.0,78.06649048445017,-78.0,99.0,84.0,-20.94460043220906,-33.0,78.06649048445017,-71.0,0.8519311737473148,3.0,54.99716136971425,-92.0,15.0,94.99160561701272,-99.0,-87.0,29.0,-65.0,23.108882051535605,-12.0,96.0,87.0,29.0,-37.944600432209064,-23.0,-20.0,94.0,-1.0,-62.0,-98.0,16.0,-74.0,-46.0,-19.0,-0.008394382987283252,87.0,-88.97719862155257,33.0,3.0,-20.94460043220906,-2.0,24.0,41.0,9.0,-78.0,-29.0,-25.0,-61.0,-43.0,-35.0,20.0,-96.97719862155257,-71.0,-61.0,-11.0,-73.0,-23.0,11.0,-86.0,-37.0,94.0,-36.0,-42.0,57.0949221212962,-84.0170845305044,-83.0,39.0904759259006,-23.0,40.0,-87.0,-36.0,96.0,86.0,49.0,-63.0,70.0,-82.0,-54.0,-16.0,59.0,-95.0,60.16423392856282,97.0,28.0,58.0,-68.0,-48.0,-92.0,-91.0,43.0,-36.0,97.0,-92.0,15.0,-6.0,4.0,11.0,86.0,27.022801378447433,-87.0,-8.0,-96.0,49.0,-25.0,70.0,-78.82308284392555,77.2772825325959,-43.0,-73.0,-19.0,90.99802352824422,-44.0,48.0,-39.89523937066612,-96.0,-96.97719862155257,-98.0,66.0,-29.0,39.0904759259006,80.0,-39.89523937066612,86.0,92.0,38.0,12.0,45.0,30.0,48.0,5.0,93.0,75.0,-25.0,6.0,99.0,19.0,26.0,-44.0,-60.0,42.0,44.0,24.991605617012716,-25.0,-56.0,69.0,35.0,54.0,98.0,68.0,-99.97719862155257,-55.0,27.022801378447433,-42.0,-15.0,20.0,46.0,-84.0170845305044,96.0,1.8530793022565297,-24.0,-32.0,-88.07533646479034,-9.835766071437174,46.0,-78.0,66.0,-92.0,94.0,100.0,9.0,-92.0,9.0,-99.97719862155257,-24.0,83.0,-7.0,-99.0,-9.0,100.0,-23.0,-86.0,21.090475925900602,62.99914901554729,-60.0,-95.0,16.0,-6.0,-22.0,49.0,-55.0,-85.0,-91.0,-99.97719862155257,61.0,76.0,-5.0,-57.0,-76.0,-48.0,-22.0,34.0,83.0,42.0,83.0,-78.0,-29.0,-74.0,86.0,-94.16116659796212,-34.0,-77.0,-36.0,58.0,-83.0,34.0,54.0,-87.0,-14.0,-56.0,-2.0,44.0,-49.0,-70.0,54.0,-65.0,-55.0,-25.0,62.06709618085486,-64.0,-50.0,13.0,-29.0,17.022801378447433,-81.0,22.0,-60.0,-78.0,90.0,-39.89523937066612,-6.0,-42.0,35.0,-4.0,40.0,7.0,-2.0,16.0,87.0,-94.16116659796212,45.0,97.0,89.06649048445017,-69.0,64.10190999661013,-28.0,12.0,33.0,-98.0,94.99160561701272,-56.0,-36.0,-30.0,13.0,-81.0,-76.0,-27.0,-96.0,-39.89523937066612,8.0,-91.0,-95.0,-85.0,8.0,64.10190999661013,-5.0,99.0,-6.0,-43.0,73.0,100.0,-27.0,50.9937725652357,3.0,-16.0,53.0,-95.0,90.0,-6.0,-73.0,52.0,-7.0,75.0,-86.0,-19.0,83.0,-72.0,-61.0,-1.0,-67.0,-18.0,-90.0,14.0,69.0,-11.0,-20.0,70.99802352824422,49.0,9.0,78.06649048445017,-24.0,-9.835766071437174,15.0,70.0,-64.0,89.06649048445017,-99.0,64.91359455371796,-50.0,21.090475925900602,24.991605617012716,72.0,-41.150045298008465,67.0,-74.0,87.0,58.0,-54.0,72.0,-99.97719862155257,-35.0,100.0,-26.0,-46.0,52.0,22.0,81.84719007289999,-78.82308284392555,-80.05623775040499,-24.0,9.0,-22.0,-11.0,26.0,-23.0,30.0,86.0,-51.0,98.0,-82.0,96.0,-53.0,94.0,-65.0,33.0,88.0,-8.0,-93.0,19.0,-6.0,64.91359455371796,-95.0,67.0,-11.0,21.090475925900602,34.0,64.91359455371796,-7.0,-72.0,-86.0,-6.0,-95.0,-66.0,-94.16116659796212,-16.0,-32.0,-0.008394382987283252,-73.0,54.0,-11.0,56.0,90.99802352824422,-93.0,23.108882051535605,-14.0,-99.97719862155257,64.91359455371796,-37.0,-53.0,7.0,31.0,-51.0,-57.0,100.0,-35.0,30.0,67.0,-69.0,99.0,90.0,3.0,-9.0,-3.0,44.0,57.0949221212962,-27.0,-78.82308284392555,-96.0,-58.008394382987284,-99.97719862155257,93.0,77.2772825325959,28.0,36.98965568330485,-78.0,46.0,-41.150045298008465,-9.835766071437174,88.0,-87.0,28.0,-35.0,-90.0,-28.0,-32.0,-59.0,-37.0,93.0,-7.0,66.0,68.0,44.0,26.0,-63.0,94.99160561701272,11.0,-8.0,-95.0,-82.0,83.0,47.277282532595905,90.0,-69.0,59.0,83.0,0.8519311737473148,94.99160561701272,-63.0,-83.0,67.0,93.0,-67.0,-96.0,-47.0,-99.0,-9.0,-87.0,-51.0,-29.0,-81.0,-15.0,64.10190999661013,-23.0,-27.0,-28.0,-98.0,92.0,-96.0,-61.0,-47.0,43.0,-39.0,-14.0,-3.0,39.0904759259006,50.9937725652357,67.0,-74.0,44.0,-35.0,-11.0,-41.150045298008465,21.090475925900602,-99.97719862155257,-83.0,-4.0,-69.0,-62.0,44.0,-39.89523937066612,-95.0,68.0,-55.0,85.0,-30.0,-75.0,83.0,70.99802352824422,-19.0,79.0,-73.0,62.99914901554729,23.108882051535605,94.0,0.8519311737473148,-16.0,66.0,9.0,64.10190999661013,87.0,83.0,30.0,-33.0,92.0,-65.0,54.99716136971425,-88.07533646479034,58.0,38.0,66.0,-51.0,75.0,68.0,46.0,47.277282532595905,38.0,38.0,-99.0,-71.0,89.06649048445017,89.06649048445017,-45.0,-99.0,69.0,-84.0170845305044,-46.0,-66.0,-22.0,-19.0,-75.0,-19.0,-0.008394382987283252,-50.0,-20.0,64.10190999661013,92.0,78.06649048445017,-94.16116659796212,-66.0,-50.0,11.0,-17.0,70.0,30.0,-71.0,56.0,-71.0,26.0,-11.0,64.10190999661013,-96.0,26.0,17.022801378447433,83.0,70.99802352824422,-20.94460043220906,-12.0,90.0,-63.0,-42.0,-6.0,-16.0,70.99802352824422,-98.0,-91.0,77.2772825325959,75.0,-78.82308284392555,-2.0,7.0,39.0904759259006,-27.0,-25.0,47.277282532595905,-43.0,31.0,-78.0,-94.16116659796212,70.0,-26.0,-96.97719862155257,-26.0,66.0,70.99802352824422,46.0,-71.0,-35.0,-12.0,-46.0,35.0,21.090475925900602,35.0,75.0,-29.0,56.0,17.022801378447433,35.0,27.022801378447433,-78.0,99.0,9.0,7.0,66.0,-55.0,27.022801378447433,-50.0,-19.0,3.0,90.99802352824422,-71.0,41.0,-22.0,90.0,-25.0,62.99914901554729,47.277282532595905,60.16423392856282,30.0,93.0,-88.07533646479034,24.0,50.9937725652357,94.0,-18.0,-35.0,-99.97719862155257,-0.008394382987283252,-84.0170845305044,-60.0,-20.94460043220906,-91.0,17.022801378447433,-8.0,39.0904759259006,-62.0,-71.0,0.8519311737473148,-39.89523937066612,-26.0,-12.0,16.0,87.0,68.0,30.0,66.0,-43.0,62.99914901554729,-27.0,36.98965568330485,32.0,-47.0,62.06709618085486,21.090475925900602,-12.0,-46.0,12.0,-28.0,-82.0,48.0,74.0,-0.008394382987283252,-6.0,-57.0,-18.0,24.0,-7.0,85.0,-41.150045298008465,-67.0,66.0,-90.0,8.0,45.0,70.99802352824422,-69.0,-58.008394382987284,-60.0,-33.0,13.0,-73.0,32.0,-31.0,-11.0,-9.0,69.0,26.0,90.99802352824422,54.0,-82.0,49.0,-96.97719862155257,14.0,48.0,-65.0,88.0,-39.0,23.108882051535605,-78.82308284392555,-78.0,56.0,81.84719007289999,-98.0,-37.0,-30.0,-18.0,29.0,-68.0,-65.0,-13.0,-26.0,-37.944600432209064,-65.0,-70.0,-5.0,50.0,22.0,79.0,-71.0,-25.0,93.0,-54.0,49.0,-95.0,-7.0,3.0,-19.0,47.277282532595905,43.0,23.108882051535605,30.0,73.0,58.0,41.0,30.0,-86.0,-99.97719862155257,-31.0,-99.0,-59.0,7.0,-45.0,18.0,86.0,-25.0,39.0904759259006,60.16423392856282,-99.97719862155257,36.0,33.0,-99.0,41.0,50.9937725652357,74.0,-82.0,83.0,-68.0,-13.0,18.0,29.0,39.0904759259006,-96.0,59.0,-59.0,61.0,85.0,-85.0,-9.0,-67.0,24.0,-71.0,8.0,-84.0170845305044,54.99716136971425,-51.0,81.0641051713214,-99.0,-96.0,-3.0,27.022801378447433,23.108882051535605,6.0,-18.0,24.991605617012716,90.99802352824422,-4.0,90.99802352824422,-19.0,24.991605617012716,-85.0,24.0,98.0,-70.0,-39.0,-66.0,-4.0,-99.97719862155257,-52.0,-87.0,72.0,-8.0,29.0,-4.0,24.0,38.0,46.0,-4.0,-92.0,-2.0,97.0,-39.0,-23.0,-23.0,-93.0,81.0641051713214,34.0,-50.0,-7.0,36.98965568330485,26.0,-78.0,61.0,79.0,-50.0,-7.0,6.0,-69.0,80.0,32.0,-28.0,-75.0,39.0904759259006,-2.0,-19.0,24.0,35.0,-17.0,-65.0,9.0,47.277282532595905,-68.0,-9.0,75.0,-39.89523937066612,73.0,10.0,72.0,44.0,-37.0,-67.0,-68.0,-59.0,17.022801378447433,-63.0,-71.0,81.0641051713214,17.022801378447433,-17.0,-1.0,-44.0,90.0,-24.0,54.0,42.0,44.0,-82.0,36.0,-90.0,-36.0,32.0,70.0,59.0,83.0,-24.0,0.8519311737473148,-50.0,-99.0,-12.0,0.8519311737473148,14.0,77.2772825325959,11.0,-9.835766071437174,41.0,-25.0,96.0,-47.0,-92.0,40.0,-62.0,46.0,-93.0,49.0,39.0904759259006,18.0,-41.150045298008465,-87.0,-78.82308284392555,-26.0,80.0,87.0,77.2772825325959,-2.0,92.0,-8.0,-51.0,70.0,48.0,73.0,-22.0,70.0,45.0,-88.97719862155257,76.0,-96.0,-68.0,-96.97719862155257,-35.0,24.991605617012716,-93.0,61.0,-34.0,-52.0,10.0,-75.0,30.0,-66.0,-4.0,0.8519311737473148,-86.0,-96.97719862155257,94.0,90.0,64.91359455371796,-69.0,-88.97719862155257,5.0,75.0,-36.0,39.0904759259006,38.0,-1.0,-17.0,-0.008394382987283252,-68.0,36.98965568330485,-11.0,48.0,-91.0,-74.0,-64.0,-64.0,-27.0,31.0,-90.0,-1.0,50.0,31.0,3.0,39.0904759259006,64.91359455371796,34.0,81.84719007289999,-85.0,-22.0,34.0,93.0,-70.0,64.10190999661013,8.0,-96.97719862155257,54.99716136971425,-66.0,8.0,-84.0170845305044,81.0641051713214,52.0,72.0,59.0,44.0,-85.0,53.0,-2.0,74.0,-66.0,50.0,54.0,11.0,72.0,-16.0,-32.0,-93.0,-91.0,-26.0,-26.0,-70.0,36.98965568330485,46.0,88.0,-84.0170845305044,-60.0,86.0,-24.0,62.99914901554729,-94.16116659796212,61.0,-67.0,73.0,73.0,22.0,-0.008394382987283252,-20.94460043220906,-84.0170845305044,47.277282532595905,-8.0,-66.0,17.022801378447433,-12.0,-99.0,-33.0,-22.0,26.0,-5.0,-37.944600432209064,-6.0,-74.0,18.0,-39.89523937066612,-24.0,19.0,-51.0,-67.0,9.0,-46.0,62.99914901554729,-77.0,-70.0,-32.0,28.0,18.0,-30.0,-72.0,-45.0,76.0,-58.008394382987284,7.0,69.0,-16.0,-56.0,-3.0,85.0,77.2772825325959,-47.0,-20.94460043220906,-25.0,23.108882051535605,10.0,-6.0,0.8519311737473148,-0.008394382987283252,-99.0,34.0,75.0,50.9937725652357,49.0,36.98965568330485,86.0,39.0904759259006,-25.0,-43.0,43.0,58.0,57.0949221212962,26.0,39.0904759259006,58.0,36.98965568330485,87.0,-78.82308284392555,-24.0,-32.0,-27.0,7.0,-76.0,50.9937725652357,50.0,-51.0,64.91359455371796,20.0,83.0,-53.0,94.99160561701272,81.0641051713214,7.0,57.0949221212962,41.0,100.0,30.0,-83.0,-52.0,61.0,-99.0,-90.0,75.0,-73.0,-71.0,54.99716136971425,-25.0,49.0,-69.0,-17.0,14.0,-67.0,-88.97719862155257,23.108882051535605,98.0,-7.0,-13.0,93.0,-81.0,-37.944600432209064,-42.0,79.0,46.0,90.99802352824422,24.991605617012716,-83.0,78.06649048445017,-32.0,75.0,-78.82308284392555,11.0,22.0,41.0,83.0,-13.0,31.0,85.0,29.0,13.0,-52.0,16.0,81.0641051713214,92.0,45.0,-5.0,16.0,-52.0,73.0,-5.0,-50.0,-32.0,10.0,5.0,88.0,42.0,57.0949221212962,50.0,-90.0,54.99716136971425,15.0,99.0,40.0,5.0,-52.0,38.0,-65.0,100.0,77.2772825325959,-71.0,19.0,57.0949221212962,13.0,-43.0,24.0,-25.0,66.0,17.022801378447433,-25.0,45.0,-56.0,47.277282532595905,29.0,-42.0,-69.0,94.99160561701272,-4.0,98.0,16.0,-37.944600432209064,87.0,-63.0,16.0,-28.0,-86.0,14.0,-99.97719862155257,-83.0,92.0,-81.0,14.0,-39.89523937066612,81.84719007289999,-63.0,11.0,-99.0,-69.0,-83.0,-31.0,44.0,-35.0,50.9937725652357,90.99802352824422,41.0,12.0,18.0,-51.0,-93.0,-1.0,-69.0,-3.0,-91.0,-64.0,-20.0,50.0,57.0949221212962,-63.0,-29.0,10.0,-42.0,8.0,14.0,77.2772825325959,-88.07533646479034,-88.97719862155257,-22.0,32.0,-68.0,-99.0,-93.0,-23.0,99.0,24.0,-65.0,-48.0,30.0,-78.0,-73.0,36.98965568330485,43.0,80.0,83.0,-35.0,60.16423392856282,92.0,81.84719007289999,-12.0,18.0,7.0,-67.0,32.0,-71.0,8.0,53.0,75.0,-84.0170845305044,47.277282532595905,-88.97719862155257,-70.0,-95.0,4.0,35.0,-16.0,8.0,62.99914901554729,39.0904759259006,81.84719007289999,-62.0,-18.0,16.0,-35.0,73.0,-99.0,11.0,75.0,30.0,15.0,81.0641051713214,73.0,3.0,96.0,54.0,-90.0,-57.0,75.0,-22.0,-56.0,-30.0,-42.0,-31.0,-98.0,61.0,28.0,-16.0,-26.0,-59.0,-59.0,-49.0,-58.008394382987284,-16.0,-27.0,35.0,73.0,-99.0,5.0,-75.0,24.991605617012716,74.0,-57.0,38.0,99.0,14.0,-6.0,60.16423392856282,64.10190999661013,-46.0,-50.0,94.99160561701272,-51.0,-48.0,52.0,57.0949221212962,-98.0,-29.0,81.0641051713214,59.0,33.0,-19.0,64.10190999661013,-9.0,97.0,88.0,93.0,-74.0,100.0,-86.0,-22.0,49.0,-59.0,-99.0,73.0,-87.0,18.0,-71.0,-82.0,-76.0,16.0,-1.0,38.0,94.0,-64.0,29.0,-67.0,-25.0,-17.0,-9.0,-13.0,99.0,-25.0,50.0,-37.944600432209064,77.2772825325959,-37.944600432209064,-27.0,-54.0,-51.0,83.0,36.98965568330485,53.0,72.0,-24.0,9.0,-96.97719862155257,-60.0,54.0,33.0,-37.944600432209064,6.0,3.0,50.0,-66.0,30.0,89.06649048445017,36.0,57.0949221212962,39.0904759259006,-84.0170845305044,67.0,7.0,29.0,-1.0,12.0,85.0,-18.0,17.022801378447433,36.98965568330485,70.99802352824422,74.0,-14.0,-70.0,-19.0,-39.0,-37.944600432209064,-87.0,-88.07533646479034,78.06649048445017,9.0,76.0,70.0,-22.0,-4.0,-8.0,-37.944600432209064,-17.0,9.0,50.9937725652357,58.0,1.8530793022565297,67.0,33.0,77.2772825325959,-45.0,-90.0,9.0,-90.0,69.0,-61.0,28.0,400
G,97.00590048489317,-37.0,-33.0,-87.0,91.1155669667991,47.0,15.0,39.0,19.0,20.94313276084547,15.0,73.0,-83.0,27.0,57.0,48.96631656078032,-21.0,-54.997983393847136,42.0,-10.0,16.0,-52.0,-33.0,48.96631656078032,-15.998587174262923,98.0,-35.0,-96.0,73.94382472081024,-52.99691061379066,-19.0,44.0,-39.0,52.94411736135296,-96.0,-29.0,-75.0,0.0,52.94411736135296,83.94382472081024,-17.93921992445859,27.0,-75.0,2.0830095349696856,-73.98266439160213,48.04093448704719,-48.83509713756257,2.0830095349696856,-88.0,73.94382472081024,30.01143512350469,46.15277577896797,-65.83711374371543,62.0,-39.0,-59.0,-50.993678939305696,-7.098563827791931,52.029616449932696,97.00590048489317,-89.91351631091277,-88.0,-96.0,43.0,-27.879192278047626,-4.996570568110056,70.15892184742374,99.98476687529971,73.0,51.02502608831322,-42.992978908892745,9.005900484893177,-59.0,32.06078007554141,-4.996570568110056,-52.99691061379066,2.0830095349696856,25.0,-33.0,-35.0,-12.0,-40.0,99.98476687529971,-42.0,-4.0,-47.0,90.0,99.0,91.1155669667991,-77.0,52.029616449932696,41.0,24.0,24.0,-60.0,-94.99409951510683,4.0,23.0,75.0,99.98476687529971,37.0,-35.0,75.0,36.005900484893175,81.0,26.0,-11.0,42.0,94.0,90.0,-83.0,60.0,34.0,45.0,80.0,52.029616449932696,15.0,2.0830095349696856,-64.0,65.0,-17.0,42.0,97.00590048489317,-92.0,-78.0,8.0,-44.0,99.0,86.0,-24.0,-76.0,-15.998587174262923,24.0,9.005900484893177,29.0,81.0,-87.0,-58.0,41.0,-33.0,-82.0,-15.998587174262923,13.0,-27.0,-78.0,83.0,19.0,30.01143512350469,-40.0,81.0,0.0,83.0,-54.0,-59.0,-47.0,-56.0,39.0,-27.0,4.0,-11.0,-1.0,-24.0,-68.0,76.0,-65.83711374371543,-12.0,-14.0,37.0,-20.0,-17.93921992445859,-54.0,-85.0,13.0,-33.0,-84.0,-42.992978908892745,6.0,-79.0,-17.0,-88.99409951510683,-52.99691061379066,-42.992978908892745,-50.993678939305696,-99.0,99.98476687529971,51.02502608831322,29.0,-99.99409951510683,85.0,75.0,-72.0,-37.0,-58.0,-83.0,-29.0,-48.83509713756257,-52.0,7.0,-77.0,-34.0,-64.0,-88.99409951510683,-50.0,83.0,63.0,41.0,51.02502608831322,52.94411736135296,73.94382472081024,22.0,30.01143512350469,-94.99409951510683,25.0,-48.83509713756257,-29.0,50.0,-97.0,-15.998587174262923,-24.0,75.0,-30.0,-33.0,29.0,40.0,16.0,-35.0,-32.0,6.0,8.0,-26.0,32.06078007554141,-60.0,-98.0,59.02502608831322,79.0,30.01143512350469,26.0,-88.0,-75.0,48.04093448704719,96.0,-76.0,-75.0,50.0,-7.098563827791931,-8.0,85.0,22.0,4.0,-94.99409951510683,36.005900484893175,19.0,-52.99691061379066,52.029616449932696,83.0,76.0,85.0,-50.993678939305696,65.0,19.0,-94.99409951510683,7.0,12.0,12.0,-94.0,-37.0,-38.0,-56.0,83.0,-86.0,-36.0,67.0,44.0,-99.99409951510683,76.0,78.0,-6.0,22.0,-76.0,-88.99409951510683,-2.0,-97.0,75.0,-22.0,-50.993678939305696,-71.0,-34.0,65.0,-82.0,99.98476687529971,-48.0,-52.0,86.0,-93.0,-54.997983393847136,-32.0,80.0,-93.0,28.0,-15.0,39.0,39.0,67.0,98.0,-32.0,87.0,8.0,-30.0,41.0,-73.98266439160213,86.0,-12.0,-52.0,-94.0,47.0,66.0,-80.0,26.0,-81.0,17.0,28.0,-50.993678939305696,-4.0,-23.0,14.025026088313217,1.0,-72.0,26.0,9.005900484893177,25.0,19.0,25.0,-60.0,30.01143512350469,15.0,-11.0,48.96631656078032,-68.0,-54.997983393847136,-30.0,-2.0,-96.0,-6.0,-85.0,26.0,-76.0,3.0,-72.0,14.025026088313217,99.0,-76.0,-34.0,90.0,-38.0,-31.0,93.0,78.0,26.0,-1.0,65.0,-58.0,60.0,-27.879192278047626,16.0,50.0,-34.0,37.0,-81.0,8.0,-17.93921992445859,-57.0,98.0,81.0,78.0,2.0830095349696856,-25.0,-80.0,65.0,-31.0,56.0,-72.0,90.0,-42.0,-20.0,94.0,-83.0,6.0,-67.0,-70.0,22.0,73.94382472081024,-94.0,-11.0,-34.0,51.02502608831322,-37.0,78.0,-40.0,90.0,4.0,-22.0,43.0,45.0,-83.0,23.0,-68.0,43.0,-59.0,-48.83509713756257,-72.99930804003523,-61.0,8.0,-58.0,-36.0,46.15277577896797,-42.992978908892745,97.00590048489317,59.02502608831322,-65.0,7.0,2.0830095349696856,-72.99930804003523,-73.98266439160213,-71.0,-50.0,10.0,32.06078007554141,57.0,-13.0,16.0,5.0,19.0,-45.0,-97.0,-78.0,-50.993678939305696,-17.0,-4.0,18.0,27.0,48.96631656078032,85.0,19.0,73.94382472081024,82.0,95.0,-73.98266439160213,-52.99691061379066,-98.0,22.0,26.0,22.0,79.0,94.0,28.0,-83.0,26.0,-96.0,-7.098563827791931,55.0,57.0,-63.0,69.0,-22.0,48.96631656078032,36.005900484893175,-24.0,9.005900484893177,-40.0,-88.99409951510683,-8.0,55.0,24.0,-91.08120136750297,-97.0,-75.0,-73.98266439160213,-15.0,-46.0,77.0,-9.05686723915453,3.0,92.0,-58.0,-23.0,-62.0,-58.0,-48.0,85.0,-52.99691061379066,-21.0,-60.0,77.0,-17.0,-83.0,46.15277577896797,-54.0,-56.0,77.0,-65.0,45.0,-54.997983393847136,2.0830095349696856,85.0,69.0,-27.879192278047626,83.0,-76.0,15.0,-26.0,8.0,-72.99930804003523,-62.0,-78.0,-10.0,8.0,71.0607800755414,-88.99409951510683,18.0,-25.0,-13.0,83.0,-6.0,-65.0,-9.05686723915453,30.01143512350469,-34.0,-78.0,-50.993678939305696,-27.879192278047626,-52.0,-14.0,-39.0,-21.0,68.0,59.02502608831322,33.0,-97.0,-94.99409951510683,-14.0,-22.0,79.0,-37.0,82.0,-83.0,-65.83711374371543,99.0,-89.91351631091277,90.0,86.0,6.0,31.0,-17.93921992445859,39.0,-81.0,-13.0,71.0607800755414,33.0,-35.0,92.0,-40.0,46.15277577896797,42.0,-71.0,42.0,-46.0,7.0,-46.0,79.0,36.005900484893175,26.0,38.0,-17.0,73.0,41.0,39.0,-81.0,57.0,-64.0,-46.0,86.0,-1.0,20.94313276084547,19.0,33.0,-37.0,-65.0,20.0,33.0,27.0,-56.0,-15.0,-79.0,-33.0,-27.0,69.0,-64.0,-84.0,57.0,4.0,-54.0,-89.91351631091277,7.0,32.06078007554141,79.0,-77.0,14.025026088313217,3.0,-15.998587174262923,-19.0,78.0,-59.0,30.01143512350469,-48.83509713756257,-12.0,76.0,89.0,-78.0,69.0,28.0,-68.0,-89.91351631091277,-34.0,39.0,-76.0,-88.0,38.0,64.05104589950864,62.0,63.0,-65.0,-65.0,-76.0,3.0,-87.0,54.00412946230289,-44.0,-89.91351631091277,-46.0,93.0,-54.0,47.0,-29.0,-20.0,42.0,-36.0,-72.0,-61.0,-37.0,-98.0,88.0,-45.0,-45.0,-25.0,46.15277577896797,92.0,20.94313276084547,-38.0,-88.0,-81.0,5.0,-11.0,-20.0,60.0,83.94382472081024,-48.0,-33.0,99.0,14.025026088313217,-99.99409951510683,73.94382472081024,66.0,56.0,31.0,41.0,-9.05686723915453,15.0,97.00590048489317,6.0,-27.0,69.0,47.0,-27.0,-71.0,-19.0,52.029616449932696,70.15892184742374,-20.0,-81.0,23.0,-35.0,12.0,-21.0,-71.0,29.0,-13.0,42.0,45.0,-72.99930804003523,17.0,-87.0,-10.0,-44.0,33.0,-48.0,63.0,26.0,-80.0,12.0,23.0,29.0,-93.0,58.0,-59.0,51.02502608831322,56.0,-8.0,17.0,73.0,-14.0,57.0,-83.0,46.15277577896797,26.0,73.0,-52.99691061379066,46.15277577896797,-45.0,99.0,18.0,-87.0,91.1155669667991,-34.0,87.0,-10.0,62.0,-94.0,-65.83711374371543,38.0,-37.0,73.0,-52.99691061379066,-44.0,34.0,-98.0,44.0,-80.0,96.0,-50.993678939305696,97.00590048489317,-99.99409951510683,-34.0,-15.0,-45.0,-67.0,36.005900484893175,23.0,-88.99409951510683,-31.0,-97.0,-35.0,83.94382472081024,17.0,56.0,6.0,43.0,77.0,-40.0,-42.0,-48.83509713756257,66.0,-50.0,37.0,-11.0,39.0,-47.0,-14.0,-73.98266439160213,-22.0,17.0,76.0,78.0,-71.0,63.0,-69.0,-57.0,-83.0,-86.0,-14.0,94.0,-45.0,-85.0,76.0,-72.0,-15.0,-72.99930804003523,-54.997983393847136,83.0,-93.0,-96.0,17.0,-48.83509713756257,-84.0,-12.0,96.0,71.0607800755414,-38.0,52.94411736135296,5.0,99.98476687529971,19.0,97.00590048489317,11.0,25.0,-96.0,76.0,68.0,-64.0,1.0,35.0,83.94382472081024,-14.0,-82.0,-52.99691061379066,-54.997983393847136,-48.0,-56.0,-99.0,-38.0,83.94382472081024,-2.0,66.0,35.0,16.0,-13.0,-72.0,-71.0,-42.0,-6.0,-72.0,20.0,28.0,34.0,-57.0,-71.0,-86.0,95.0,-88.0,55.0,96.0,79.0,25.0,38.0,2.0830095349696856,59.02502608831322,20.94313276084547,98.0,40.0,-72.0,71.0607800755414,97.00590048489317,94.0,26.0,-77.0,-79.0,-84.0,78.0,75.0,40.0,-46.0,-84.0,20.94313276084547,61.0,43.0,-32.0,52.029616449932696,-92.0,76.0,14.025026088313217,-96.0,18.0,-57.0,5.0,13.0,-41.0,65.0,-77.0,48.96631656078032,-89.91351631091277,-94.99409951510683,-94.99409951510683,-72.0,-17.0,-88.0,-80.0,-60.0,12.0,32.06078007554141,-1.0,11.0,10.0,41.0,26.0,-78.0,-47.0,-86.0,22.0,-14.0,-78.0,-72.0,-60.0,78.0,64.05104589950864,-77.0,-17.93921992445859,-67.0,-21.0,-54.0,-47.0,-31.0,-38.0,22.0,-91.08120136750297,-46.0,-65.83711374371543,51.02502608831322,-76.0,-19.0,17.0,72.0063210606943,-34.0,-65.0,32.06078007554141,14.025026088313217,-38.0,-42.0,76.0,60.0,69.0,-91.08120136750297,78.0,-2.9246702128591324,98.0,96.0,15.0,9.005900484893177,-65.83711374371543,-72.99930804003523,-70.0,91.1155669667991,45.0,48.04093448704719,10.0,19.0,-62.0,-50.993678939305696,-25.0,14.025026088313217,63.0,31.0,-48.83509713756257,-50.993678939305696,94.0,-96.0,-35.0,52.94411736135296,17.0,99.98476687529971,85.0,-50.993678939305696,88.0,83.94382472081024,22.0,-67.0,77.0,35.0,-57.0,-85.0,-84.0,98.0,-92.0,91.1155669667991,-68.0,95.0,31.0,-54.997983393847136,-96.0,52.029616449932696,-25.0,-52.0,83.0,-97.0,18.0,-82.0,75.0,18.0,11.0,-62.0,20.94313276084547,83.0,-88.0,-63.0,69.0,-37.0,14.025026088313217,0.0,-86.0,65.0,45.0,7.0,19.0,98.0,10.0,91.1155669667991,-23.0,13.0,35.0,34.0,20.0,-62.0,81.0,-17.0,41.0,34.0,-79.0,-73.98266439160213,-38.0,-57.0,34.0,11.0,-29.0,25.0,48.96631656078032,-21.0,4.0,-91.08120136750297,99.0,56.0,-6.0,30.01143512350469,-22.0,-46.0,20.94313276084547,-7.098563827791931,67.0,59.02502608831322,59.02502608831322,19.0,-75.0,-69.0,-1.0,-86.0,-23.0,65.0,79.0,-79.0,87.0,28.0,97.00590048489317,-15.0,-88.99409951510683,28.0,4.0,16.0,-81.0,2.0830095349696856,73.94382472081024,67.0,37.0,-61.0,-65.83711374371543,41.0,-80.0,63.0,90.0,-24.0,-59.0,79.0,72.0063210606943,-82.0,-37.0,-15.0,68.0,31.0,-38.0,70.15892184742374,15.0,-99.0,34.0,19.0,15.0,-94.0,-92.0,27.0,-93.0,8.0,-34.0,62.0,-13.0,-93.0,36.005900484893175,-50.993678939305696,-48.83509713756257,-36.0,3.0,99.98476687529971,-8.0,-60.0,14.025026088313217,52.029616449932696,22.0,57.0,-29.0,-70.0,91.1155669667991,18.0,-84.0,99.0,10.0,48.04093448704719,90.0,-77.0,-83.0,-15.0,-84.0,-50.0,-89.91351631091277,-20.0,-69.0,73.94382472081024,-68.0,36.005900484893175,-29.0,-21.0,-65.0,-98.0,-97.0,-45.0,59.02502608831322,75.0,-4.996570568110056,13.0,-12.0,-17.93921992445859,-68.0,99.0,-38.0,82.0,54.00412946230289,7.0,95.0,29.0,-65.83711374371543,73.94382472081024,-25.0,-52.0,-84.0,48.04093448704719,-54.997983393847136,26.0,69.0,-72.99930804003523,-44.0,52.029616449932696,-9.05686723915453,-54.0,-58.0,87.0,-50.0,-15.998587174262923,-97.0,-94.0,20.94313276084547,-99.0,-35.0,-19.0,-77.0,-77.0,59.02502608831322,-29.0,-50.0,-84.0,65.0,-10.0,26.0,89.0,68.0,-26.0,-59.0,43.0,-81.0,75.0,44.0,-17.0,-27.879192278047626,-78.0,-64.0,-8.0,48.96631656078032,69.0,-89.91351631091277,-27.879192278047626,-67.0,-72.0,64.05104589950864,29.0,67.0,19.0,-98.0,-19.0,-52.99691061379066,91.1155669667991,29.0,26.0,91.1155669667991,33.0,81.0,27.0,47.0,-65.0,17.0,40.0,26.0,43.0,-99.99409951510683,-99.99409951510683,-38.0,69.0,36.005900484893175,80.0,-45.0,15.0,30.01143512350469,3.0,-7.098563827791931,-4.996570568110056,44.0,67.0,-1.0,48.04093448704719,5.0,-81.0,-47.0,81.0,-15.0,-21.0,67.0,17.0,-2.9246702128591324,-4.996570568110056,27.0,-40.0,-15.998587174262923,13.0,22.0,38.0,40.0,55.0,-65.83711374371543,78.0,-57.0,-99.0,-4.0,68.0,6.0,43.0,-35.0,-82.0,52.029616449932696,36.005900484893175,-23.0,16.0,58.0,-20.0,25.0,-4.0,3.0,-52.0,30.01143512350469,-65.0,-68.0,-11.0,52.94411736135296,41.0,-88.99409951510683,79.0,-44.0,-31.0,-65.0,-94.0,72.0063210606943,5.0,63.0,-63.0,-9.05686723915453,89.0,-86.0,54.00412946230289,37.0,99.0,61.0,26.0,45.0,12.0,-7.098563827791931,-54.0,81.0,-63.0,-2.9246702128591324,67.0,77.0,75.0,51.02502608831322,20.94313276084547,75.0,-39.0,32.06078007554141,92.0,65.0,46.15277577896797,-87.0,-80.0,-15.0,-20.0,-30.0,4.0,-39.0,-8.0,67.0,73.0,-76.0,-46.0,52.94411736135296,-78.0,-2.0,22.0,45.0,-2.9246702128591324,1.0,-25.0,71.0607800755414,-6.0,-35.0,36.005900484893175,37.0,73.0,83.94382472081024,44.0,46.15277577896797,23.0,73.94382472081024,-11.0,44.0,42.0,-93.0,-92.0,-59.0,-30.0,-15.0,-48.0,33.0,-80.0,-41.0,-22.0,71.0607800755414,54.00412946230289,77.0,-54.997983393847136,-42.992978908892745,36.005900484893175,76.0,-15.0,95.0,-50.0,75.0,67.0,-91.08120136750297,86.0,41.0,46.15277577896797,27.0,-52.0,2.0830095349696856,9.005900484893177,92.0,25.0,-88.99409951510683,24.0,10.0,15.0,94.0,25.0,-88.99409951510683,-6.0,46.15277577896797,-54.997983393847136,-78.0,27.0,99.0,-15.0,46.15277577896797,66.0,72.0063210606943,52.94411736135296,76.0,-23.0,-82.0,43.0,2.0830095349696856,-39.0,-57.0,99.0,71.0607800755414,-42.992978908892745,-99.99409951510683,60.0,94.0,-37.0,-40.0,52.029616449932696,80.0,13.0,-63.0,-10.0,90.0,-91.08120136750297,32.06078007554141,-79.0,64.05104589950864,23.0,-71.0,-40.0,-96.0,80.0,75.0,-17.0,29.0,-86.0,-4.996570568110056,92.0,78.0,-63.0,-82.0,-65.0,58.0,-93.0,-62.0,56.0,18.0,80.0,-41.0,-67.0,-89.91351631091277,67.0,-9.05686723915453,-23.0,28.0,6.0,57.0,2.0830095349696856,29.0,63.0,-1.0,-39.0,50.0,70.15892184742374,-78.0,-76.0,-17.93921992445859,-81.0,71.0607800755414,54.00412946230289,24.0,-94.99409951510683,1.0,36.005900484893175,57.0,-1.0,-11.0,5.0,-81.0,88.0,-70.0,37.0,-98.0,-4.0,-21.0,11.0,99.0,10.0,-83.0,99.98476687529971,43.0,43.0,25.0,-60.0,47.0,-69.0,80.0,-69.0,64.05104589950864,-23.0,26.0,-45.0,57.0,94.0,59.02502608831322,-23.0,-2.0,-72.0,-44.0,0.0,71.0607800755414,5.0,-9.05686723915453,77.0,-65.0,24.0,-61.0,-52.99691061379066,-97.0,-8.0,17.0,44.0,99.0,-62.0,-59.0,10.0,-54.997983393847136,-48.0,32.06078007554141,65.0,24.0,72.0063210606943,73.0,-61.0,-29.0,-44.0,-69.0,41.0,42.0,9.005900484893177,15.0,86.0,-73.98266439160213,73.0,18.0,-93.0,32.06078007554141,-10.0,14.025026088313217,-27.879192278047626,82.0,54.00412946230289,89.0,-47.0,-64.0,-2.9246702128591324,-62.0,-81.0,-81.0,-86.0,78.0,-72.99930804003523,57.0,56.0,-26.0,94.0,22.0,32.06078007554141,27.0,56.0,-67.0,33.0,-67.0,-79.0,79.0,96.0,-97.0,-57.0,-91.08120136750297,20.94313276084547,14.025026088313217,-59.0,13.0,20.94313276084547,45.0,20.94313276084547,41.0,72.0063210606943,-75.0,-94.0,80.0,-59.0,-32.0,-36.0,-27.879192278047626,52.029616449932696,6.0,-70.0,-39.0,51.02502608831322,48.04093448704719,-60.0,60.0,33.0,-72.0,36.005900484893175,-67.0,-15.0,-76.0,48.04093448704719,-83.0,-19.0,-72.0,23.0,-77.0,58.0,-67.0,-36.0,-75.0,-98.0,-56.0,52.029616449932696,83.0,-59.0,-85.0,-79.0,-54.0,13.0,10.0,77.0,-15.998587174262923,-37.0,-88.99409951510683,-36.0,32.06078007554141,-8.0,55.0,35.0,-34.0,83.0,-96.0,33.0,59.02502608831322,24.0,-35.0,7.0,94.0,65.0,69.0,30.01143512350469,36.005900484893175,83.0,56.0,-54.997983393847136,48.04093448704719,19.0,-46.0,59.02502608831322,-93.0,-60.0,62.0,70.15892184742374,90.0,-60.0,-6.0,2.0830095349696856,-40.0,-98.0,-99.0,71.0607800755414,23.0,68.0,-50.993678939305696,83.94382472081024,-40.0,-59.0,43.0,36.005900484893175,-33.0,7.0,-42.0,-7.098563827791931,-68.0,-27.879192278047626,-86.0,36.005900484893175,-52.0,-27.0,12.0,-7.098563827791931,-87.0,86.0,-70.0,25.0,22.0,-81.0,-77.0,48.96631656078032,69.0,14.025026088313217,-6.0,48.96631656078032,-89.91351631091277,75.0,-50.993678939305696,70.15892184742374,77.0,-54.0,-91.08120136750297,63.0,35.0,86.0,-85.0,85.0,52.029616449932696,-56.0,-57.0,83.0,-67.0,-36.0,92.0,3.0,40.0,-36.0,-42.992978908892745,-52.0,99.98476687529971,58.0,37.0,-33.0,24.0,87.0,13.0,6.0,-64.0,-76.0,27.0,-97.0,-31.0,-52.99691061379066,81.0,-12.0,24.0,-81.0,83.0,-63.0,-89.91351631091277,99.98476687529971,82.0,22.0,-82.0,-96.0,-27.0,41.0,35.0,-21.0,-83.0,-94.0,-86.0,-14.0,78.0,20.94313276084547,48.96631656078032,-48.83509713756257,50.0,-17.0,3.0,73.94382472081024,-62.0,-60.0,50.0,57.0,68.0,47.0,99.0,-83.0,-50.0,-29.0,-84.0,-84.0,77.0,55.0,-33.0,-65.83711374371543,55.0,56.0,-40.0,76.0,-7.098563827791931,-27.879192278047626,98.0,-99.99409951510683,38.0,64.05104589950864,-8.0,28.0,37.0,-45.0,-75.0,-38.0,19.0,24.0,81.0,-94.0,10.0,-4.996570568110056,87.0,-97.0,88.0,-84.0,75.0,27.0,83.0,-29.0,4.0,63.0,-69.0,-44.0,42.0,-94.0,-15.998587174262923,23.0,-76.0,6.0,16.0,-11.0,62.0,-63.0,52.029616449932696,80.0,43.0,51.02502608831322,26.0,14.025026088313217,83.0,40.0,-85.0,43.0,76.0,42.0,-81.0,-2.0,25.0,41.0,61.0,-98.0,94.0,-84.0,-88.99409951510683,-2.0,2.0830095349696856,83.94382472081024,-41.0,-77.0,-38.0,91.1155669667991,73.94382472081024,13.0,-75.0,22.0,-80.0,44.0,-48.83509713756257,-9.05686723915453,-6.0,-88.99409951510683,44.0,-2.9246702128591324,50.0,3.0,58.0,-27.879192278047626,4.0,45.0,-37.0,50.0,10.0,68.0,6.0,34.0,-1.0,-6.0,58.0,54.00412946230289,89.0,-46.0,-99.0,64.05104589950864,37.0,-84.0,-93.0,15.0,45.0,59.02502608831322,1.0,-22.0,82.0,8.0,20.94313276084547,68.0,-39.0,-88.0,39.0,-45.0,91.1155669667991,-67.0,-78.0,8.0,97.00590048489317,-54.0,-88.0,91.1155669667991,10.0,-37.0,-8.0,-61.0,-63.0,-33.0,-2.9246702128591324,7.0,86.0,-2.9246702128591324,67.0,95.0,96.0,-57.0,26.0,-99.0,67.0,-71.0,24.0,65.0,-89.91351631091277,43.0,28.0,44.0,-42.992978908892745,-54.0,-86.0,5.0,-78.0,-56.0,-2.0,-1.0,52.94411736135296,-64.0,-78.0,85.0,-42.992978908892745,70.15892184742374,25.0,-78.0,-22.0,37.0,65.0,38.0,-13.0,-86.0,-67.0,-8.0,-52.99691061379066,33.0,-54.0,45.0,-48.0,8.0,-9.05686723915453,79.0,57.0,27.0,20.94313276084547,-17.0,-6.0,-92.0,-59.0,69.0,67.0,-93.0,-42.992978908892745,5.0,35.0,31.0,89.0,-87.0,95.0,47.0,13.0,-62.0,19.0,-54.997983393847136,63.0,-7.098563827791931,7.0,36.005900484893175,-17.0,-64.0,1.0,-88.99409951510683,-75.0,-25.0,-67.0,96.0,-58.0,36.005900484893175,32.06078007554141,-12.0,99.98476687529971,18.0,48.04093448704719,72.0063210606943,66.0,-2.0,29.0,-37.0,93.0,97.00590048489317,-34.0,35.0,26.0,-60.0,31.0,-22.0,45.0,-63.0,-50.993678939305696,92.0,-78.0,-37.0,98.0,-93.0,-14.0,79.0,70.15892184742374,94.0,-92.0,-15.0,13.0,-99.99409951510683,-17.0,36.005900484893175,-64.0,87.0,5.0,80.0,56.0,14.025026088313217,-48.83509713756257,-23.0,83.0,-14.0,96.0,64.05104589950864,-64.0,57.0,-75.0,-81.0,25.0,-27.0,-46.0,-32.0,-65.0,-89.91351631091277,70.15892184742374,23.0,-58.0,18.0,-78.0,33.0,-14.0,10.0,38.0,-98.0,-91.08120136750297,-29.0,61.0,-17.0,10.0,12.0,-15.998587174262923,79.0,-10.0,48.04093448704719,32.06078007554141,-85.0,63.0,59.02502608831322,-13.0,13.0,-75.0,-97.0,-37.0,-47.0,-26.0,-26.0,-20.0,-12.0,-85.0,-7.098563827791931,-85.0,-50.0,-15.0,-44.0,-58.0,-86.0,-27.879192278047626,-45.0,-2.0,78.0,-25.0,77.0,0.0,70.15892184742374,-92.0,47.0,6.0,-25.0,99.98476687529971,-20.0,27.0,33.0,85.0,51.02502608831322,68.0,52.029616449932696,-61.0,70.15892184742374,95.0,35.0,-21.0,-41.0,77.0,70.15892184742374,51.02502608831322,91.1155669667991,27.0,-20.0,-7.098563827791931,-56.0,19.0,-46.0,-60.0,-99.0,19.0,98.0,-29.0,32.06078007554141,33.0,-56.0,-30.0,70.15892184742374,-87.0,88.0,76.0,93.0,96.0,-79.0,-52.99691061379066,2.0830095349696856,-61.0,5.0,-64.0,-71.0,-82.0,-54.997983393847136,93.0,-86.0,-13.0,-37.0,2.0830095349696856,3.0,63.0,-61.0,-72.99930804003523,14.025026088313217,-42.992978908892745,-54.0,-27.0,93.0,-70.0,68.0,-17.0,-6.0,-33.0,-65.83711374371543,-9.05686723915453,-70.0,-75.0,-93.0,-84.0,82.0,-25.0,57.0,91.1155669667991,-91.08120136750297,-67.0,48.04093448704719,-2.0,57.0,60.0,19.0,8.0,-92.0,-37.0,0.0,16.0,62.0,-39.0,-85.0,-76.0,-63.0,89.0,69.0,-10.0,93.0,41.0,55.0,81.0,62.0,18.0,-92.0,16.0,8.0,-12.0,-58.0,-8.0,-27.0,-7.098563827791931,-84.0,-42.0,-40.0,5.0,-92.0,31.0,79.0,7.0,22.0,89.0,-12.0,20.0,-84.0,-61.0,13.0,-1.0,58.0,83.0,98.0,-93.0,-62.0,-76.0,-71.0,20.94313276084547,51.02502608831322,47.0,-82.0,99.98476687529971,22.0,-26.0,-15.998587174262923,-96.0,42.0,10.0,-88.0,18.0,-12.0,89.0,-96.0,-7.098563827791931,31.0,-72.0,19.0,30.01143512350469,-15.998587174262923,70.15892184742374,-81.0,55.0,83.94382472081024,20.94313276084547,20.94313276084547,-88.0,-24.0,25.0,-62.0,82.0,10.0,71.0607800755414,88.0,26.0,-96.0,6.0,-67.0,99.0,68.0,-86.0,-77.0,31.0,-45.0,-67.0,-67.0,34.0,-9.05686723915453,1.0,-46.0,-25.0,40.0,73.0,-65.83711374371543,-41.0,38.0,90.0,91.1155669667991,-19.0,38.0,-64.0,41.0,94.0,5.0,-57.0,8.0,-87.0,55.0,-64.0,85.0,30.01143512350469,-54.997983393847136,71.0607800755414,8.0,56.0,8.0,25.0,94.0,-32.0,-64.0,61.0,-75.0,68.0,85.0,81.0,60.0,41.0,14.025026088313217,-27.879192278047626,36.005900484893175,-37.0,95.0,28.0,68.0,-27.879192278047626,-57.0,35.0,-34.0,-50.993678939305696,-12.0,-94.0,76.0,29.0,31.0,44.0,61.0,44.0,-1.0,43.0,-46.0,23.0,2.0830095349696856,67.0,-89.91351631091277,92.0,40.0,-72.99930804003523,-97.0,-57.0,-27.879192278047626,-45.0,81.0,64.05104589950864,-41.0,15.0,-25.0,-57.0,42.0,20.0,-4.0,52.94411736135296,43.0,17.0,-65.83711374371543,-31.0,-45.0,-92.0,28.0,-89.91351631091277,20.0,40.0,50.0,-11.0,-73.98266439160213,64.05104589950864,-14.0,87.0,-35.0,16.0,83.0,-83.0,-20.0,72.0063210606943,9.005900484893177,-50.0,-65.83711374371543,80.0,-19.0,-80.0,97.00590048489317,-1.0,83.94382472081024,79.0,-25.0,-4.996570568110056,-26.0,11.0,-24.0,57.0,52.029616449932696,65.0,31.0,-96.0,-87.0,12.0,-35.0,80.0,26.0,-40.0,51.02502608831322,99.0,83.0,-25.0,93.0,69.0,94.0,0.0,51.02502608831322,92.0,-50.0,-70.0,98.0,-60.0,68.0,-72.99930804003523,23.0,-89.91351631091277,-27.879192278047626,-64.0,-54.0,-13.0,-41.0,85.0,23.0,-44.0,62.0,72.0063210606943,7.0,0.0,94.0,-94.99409951510683,36.005900484893175,-97.0,-78.0,-41.0,48.04093448704719,-88.0,-34.0,-9.05686723915453,85.0,-42.0,-25.0,73.94382472081024,-61.0,16.0,-17.93921992445859,59.02502608831322,16.0,72.0063210606943,-96.0,-44.0,99.0,97.00590048489317,-61.0,-94.0,-44.0,40.0,-27.879192278047626,72.0063210606943,83.94382472081024,43.0,9.005900484893177,43.0,9.005900484893177,-30.0,92.0,-17.93921992445859,15.0,48.96631656078032,-98.0,-45.0,98.0,-15.998587174262923,-23.0,0.0,57.0,-71.0,-10.0,-8.0,-69.0,-58.0,1.0,97.00590048489317,-9.05686723915453,48.96631656078032,-31.0,25.0,15.0,29.0,6.0,87.0,22.0,67.0,10.0,-2.9246702128591324,98.0,-41.0,-58.0,-81.0,39.0,-97.0,40.0,33.0,85.0,40.0,-47.0,-24.0,39.0,99.98476687529971,29.0,6.0,-60.0,-89.91351631091277,-86.0,-45.0,43.0,32.06078007554141,52.94411736135296,-65.0,3.0,-93.0,67.0,13.0,-77.0,35.0,63.0,-14.0,64.05104589950864,-72.0,20.0,43.0,85.0,51.02502608831322,-41.0,0.0,-47.0,-94.99409951510683,-78.0,55.0,-79.0,48.04093448704719,-89.91351631091277,52.029616449932696,-99.99409951510683,-1.0,-68.0,-67.0,-73.98266439160213,-6.0,-42.992978908892745,-57.0,-31.0,71.0607800755414,73.0,73.94382472081024,45.0,97.00590048489317,-73.98266439160213,18.0,-70.0,-87.0,-79.0,99.0,95.0,33.0,-41.0,-97.0,-79.0,17.0,4.0,56.0,-4.0,24.0,28.0,-73.98266439160213,-88.0,83.94382472081024,-60.0,1.0,12.0,79.0,14.025026088313217,59.02502608831322,35.0,-29.0,8.0,-72.99930804003523,-12.0,11.0,57.0,-59.0,29.0,44.0,52.029616449932696,-42.0,-38.0,-12.0,-9.05686723915453,-84.0,-57.0,9.005900484893177,39.0,-9.05686723915453,-25.0,22.0,48.96631656078032,-60.0,7.0,48.04093448704719,-48.83509713756257,13.0,-41.0,38.0,33.0,-37.0,83.0,-88.0,-7.098563827791931,28.0,54.00412946230289,41.0,-23.0,-58.0,94.0,-2.0,-9.05686723915453,-63.0,69.0,-13.0,99.0,22.0,92.0,30.01143512350469,-84.0,83.0,68.0,-54.0,-46.0,-84.0,4.0,-17.0,-77.0,-65.83711374371543,-54.0,-75.0,-21.0,41.0,-10.0,16.0,-27.0,-52.99691061379066,81.0,55.0,-59.0,82.0,-34.0,72.0063210606943,-54.997983393847136,7.0,-38.0,-34.0,54.00412946230289,10.0,-48.0,35.0,-61.0,85.0,90.0,26.0,-39.0,-92.0,58.0,3.0,52.94411736135296,96.0,57.0,70.15892184742374,25.0,93.0,-30.0,-10.0,-22.0,-19.0,-88.99409951510683,93.0,-71.0,99.0,-25.0,54.00412946230289,-33.0,-83.0,13.0,-92.0,-17.0,-20.0,-65.0,-29.0,-48.83509713756257,43.0,25.0,-10.0,16.0,37.0,24.0,23.0,400
B,-41.0,-64.0,-14.0,8.0,30.0,5.0,-8.0,57.0,-72.0,17.0,42.0,-74.0,-60.0,-55.91082134270424,-13.0,-98.0,5.0,-6.0,88.0,16.0,92.87461221885486,-67.28914935295376,3.0,-78.0,96.0,82.0,-5.0,85.08505344338265,-42.947172997609556,26.076670185896496,97.84226375315833,27.87494768701728,-28.0,5.0,85.08505344338265,92.87461221885486,-20.017656399055323,17.0,97.84226375315833,-3.168079722828219,79.95710029108382,-58.19692667541787,-35.07904359658839,96.0,10.080427886705063,-80.07535185404817,-55.12505231298272,-8.979248829874354,63.0,3.0,-29.935385831032065,27.87494768701728,-20.017656399055323,-11.0,-52.033642776050996,62.0,-25.006800750018364,-50.0,32.0,-69.13307456417691,11.121057364116531,89.07550030463425,-4.0,85.08505344338265,31.0,67.79827750112078,-55.12505231298272,-90.0,71.0,49.0,0.8483956246569168,-6.0,43.0,-66.0,9.0,-83.0,0.8483956246569168,79.0,48.0,-91.0,41.0,-16.0,81.0,-37.0,-85.0,-51.0,-77.0,84.0,-52.033642776050996,13.0,11.121057364116531,-89.0,10.080427886705063,-83.0,11.121057364116531,39.0,-58.19692667541787,-29.935385831032065,-63.0,-21.0,7.0,-19.037013284653316,-13.0,26.076670185896496,-66.0,43.0,31.0,34.0,-92.0,-95.03701328465331,-35.07904359658839,5.0,56.0,34.0,-10.0,90.0,62.0,6.0,-14.0,87.0,-88.0,-82.0,-74.0,-49.0,-8.979248829874354,-98.0,-84.0,-33.0,-65.0,21.962986715346684,84.0,21.0,-69.13307456417691,-19.037013284653316,0.8483956246569168,52.0,-74.0,-88.0,18.0,-81.0,-4.0,-90.0,-35.07904359658839,-20.017656399055323,38.0,40.0,-6.0,-87.0,-37.0,0.8483956246569168,73.0,4.0,0.8483956246569168,11.121057364116531,-35.07904359658839,-32.0,70.0,58.0,46.0,54.0,-68.0,85.96298671534669,-100.0,89.07550030463425,11.121057364116531,-90.0,-87.0,-64.0,18.0,9.0,-37.0,-54.0,27.0,46.0,83.0,-77.0,-67.28914935295376,24.0,81.0,5.0,97.84226375315833,-4.0,34.0,13.0,-42.0,-8.979248829874354,99.0,36.0,21.962986715346684,73.0,-69.13307456417691,-76.0,27.87494768701728,97.84226375315833,82.0,-27.0,10.080427886705063,-39.0,3.0,-79.0,-70.0,79.95710029108382,43.0,-81.0,-86.0,-41.0,83.0,-64.0,21.0,9.0,60.0,-16.0,17.0,74.0,92.87461221885486,-67.28914935295376,11.121057364116531,18.0,-15.0,87.0,38.0,-47.017656399055326,84.0,66.0,-3.168079722828219,56.0,-49.0,-76.0,63.0,8.0,9.0,-17.0,84.0,-68.0,3.0,-78.0,41.0,-65.0,-45.0,-96.0,-86.0,-36.0,-31.0,-63.0,-42.0,13.0,44.0,55.0,67.79827750112078,99.98234360094467,-25.006800750018364,59.0,12.0,37.0,-41.0,83.0,95.0,24.0,-50.0,-48.0,14.0,41.0,-25.006800750018364,40.0,34.0,-29.935385831032065,-93.0,-33.0,-14.0,-33.0,52.0,-14.0,0.8483956246569168,55.0,-13.0,95.0,27.0,0.8483956246569168,-84.0,-22.0,53.0,-32.0,48.0,12.0,-13.0,-23.0,-29.0,26.076670185896496,-20.017656399055323,-15.0,-89.0,97.0,49.0,-97.0,27.0,-82.0,-80.07535185404817,-19.037013284653316,99.0,84.0,99.98234360094467,24.982343600944677,-57.0,35.0,27.87494768701728,-44.0,77.0,24.982343600944677,6.0,-76.0,79.0,-19.037013284653316,-29.0,75.0,23.0,34.0,-83.0,69.0,-71.0,84.0,6.0,48.0,-41.0,60.0,79.0,74.0,11.121057364116531,-50.0,-37.0,-65.0,-6.0,75.0,-73.0,-35.07904359658839,-22.0,85.96298671534669,50.982343600944674,-89.0,-10.0,58.0,34.0,58.0,17.0,-55.91082134270424,7.0,41.0,-5.0,-90.0,-22.0,92.0,75.0,-78.0,81.0,-61.0,-65.0,-54.0,-90.0,-41.0,91.0,54.0,-78.0,-67.28914935295376,97.84226375315833,18.0,50.982343600944674,-60.0,24.982343600944677,-63.0,-25.006800750018364,-10.0,-18.0,-1.0,-62.0,-34.1504233237729,-7.0,-77.0,65.0,78.0,-52.033642776050996,-92.0,20.0,93.87481998608796,-94.0,99.0,8.0,63.83192027717178,55.0,53.0,-71.0,7.0,57.0,-36.0,77.0,-32.0,-14.0,33.0,3.0,11.121057364116531,23.0,-78.0,0.03635165490531128,-55.91082134270424,-75.0,-20.017656399055323,30.0,55.0,2.0,45.0,71.0,90.0,-75.0,-48.0,45.0,89.07550030463425,93.87481998608796,-29.0,55.0,-24.0,-8.0,21.0,85.08505344338265,-83.0,21.0,-45.0,50.982343600944674,-58.19692667541787,48.0,39.0,26.076670185896496,-44.0,46.0,-86.0,43.0,-1.0,76.0,-25.006800750018364,-69.13307456417691,-42.0,-82.0,88.0,-8.979248829874354,87.0,5.0,-10.0,48.0,66.0,-11.0,-29.0,84.0,23.0,-100.0,-60.0,-23.0,-12.0,-63.0,-42.947172997609556,91.0,13.0,11.121057364116531,-35.07904359658839,50.982343600944674,77.0,79.0,15.0,76.0,-77.0,-15.0,-15.0,60.874819986087964,-55.91082134270424,99.98234360094467,-75.0,49.83192027717178,96.0,-41.0,-70.0,-39.0,89.07550030463425,-5.0,-54.0,-36.0,70.0,-18.0,99.0,33.0,45.0,33.0,97.84226375315833,-72.0,-84.0,44.0,-75.0,-47.017656399055326,60.0,14.0,0.8483956246569168,17.0,-98.0,-72.0,-67.28914935295376,59.0,24.0,-84.0,67.0,59.0,-15.0,67.0,79.95710029108382,45.0,-16.0,-96.0,67.0,-31.0,-8.0,97.0,-20.017656399055323,-66.0,31.0,-51.0,-78.0,59.0,15.0,-72.0,69.0,-36.0,34.0,67.0,-36.0,50.982343600944674,-55.12505231298272,-94.0,8.0,90.0,-18.0,-41.0,-55.12505231298272,-45.0,-24.0,-86.0,-14.0,92.0,-65.0,32.0,-2.0,-64.0,90.0,-54.0,-5.0,4.0,-27.0,-79.0,-87.0,14.0,49.0,-55.91082134270424,11.121057364116531,-41.0,-51.0,-78.0,-71.0,52.0,19.0,97.0,6.0,92.87461221885486,41.0,63.83192027717178,-81.0,13.0,-75.0,-70.0,-22.0,39.0,58.0,39.0,-34.1504233237729,60.0,78.0,26.076670185896496,-51.0,-24.0,-29.0,15.0,-49.0,11.121057364116531,-29.935385831032065,-89.0,-14.0,87.0,79.95710029108382,-85.0,-55.91082134270424,56.0,-48.0,41.0,-8.0,6.0,-29.935385831032065,41.0,-68.0,92.87461221885486,49.0,-68.0,0.03635165490531128,31.0,-19.037013284653316,59.0,23.0,85.96298671534669,70.0,-22.0,13.0,15.0,-72.0,-55.91082134270424,59.0,42.0,-66.0,43.0,-47.017656399055326,-21.0,-29.0,47.0,-45.0,82.0,65.0,-31.0,2.0,-39.0,-25.006800750018364,-6.0,81.0,32.0,-4.0,-33.0,99.0,-80.07535185404817,10.080427886705063,-93.0,-25.006800750018364,78.0,63.83192027717178,-28.0,73.0,-90.0,48.0,31.0,-84.0,30.0,-81.0,7.0,-83.0,-31.0,70.0,13.0,77.0,36.0,65.0,-8.979248829874354,-54.0,3.0,53.0,-28.0,95.0,-76.0,76.0,92.87461221885486,-53.0,-100.0,-63.0,50.982343600944674,55.0,23.0,97.0,76.0,-32.0,-98.0,-90.0,-95.03701328465331,30.0,-98.0,-1.0,-8.979248829874354,-55.12505231298272,99.0,-33.0,-59.0,-59.0,15.0,-24.0,56.0,-35.07904359658839,39.0,-38.0,63.83192027717178,27.87494768701728,-71.0,-19.037013284653316,-31.0,-78.0,92.0,92.0,-23.0,39.0,-87.0,89.07550030463425,24.0,87.0,3.0,60.0,52.0,-60.0,85.08505344338265,21.962986715346684,65.0,65.0,84.0,-29.0,62.0,17.0,99.98234360094467,-72.0,-92.0,-75.0,-5.0,18.0,-3.168079722828219,15.0,54.0,-72.0,31.0,60.874819986087964,88.0,87.0,-85.0,-22.0,46.0,93.87481998608796,-8.979248829874354,4.0,32.0,-50.0,-17.0,90.0,-18.0,91.0,-44.0,-99.0,55.0,83.0,40.0,36.0,-81.0,-19.037013284653316,-17.0,43.0,-12.0,7.0,3.0,72.0,-74.0,-49.0,-38.0,35.0,69.0,21.962986715346684,46.0,-34.1504233237729,-8.0,-8.0,33.0,52.0,13.0,57.0,37.0,26.076670185896496,-64.0,-17.0,58.0,-65.0,-27.0,-55.91082134270424,-42.947172997609556,-54.0,10.080427886705063,-5.0,-23.0,-10.0,29.0,13.0,92.87461221885486,-71.0,99.98234360094467,69.0,-17.0,-93.0,-95.03701328465331,21.962986715346684,43.0,0.03635165490531128,19.0,-88.0,-52.033642776050996,-45.0,20.0,-94.0,32.0,-65.0,53.0,-63.0,-38.0,-3.168079722828219,-31.0,27.87494768701728,36.0,67.0,32.0,-63.0,-52.033642776050996,-26.0,-29.935385831032065,0.8483956246569168,21.0,63.83192027717178,95.0,-52.033642776050996,95.0,24.0,-45.0,12.0,-70.0,-74.0,-19.037013284653316,-74.0,96.0,-67.28914935295376,9.0,-26.0,-80.07535185404817,63.83192027717178,14.0,-64.0,-28.0,-59.0,-40.0,93.87481998608796,85.08505344338265,9.0,30.0,-29.935385831032065,24.0,-82.0,-4.0,-41.0,17.0,95.0,44.0,-85.0,7.0,-84.0,-97.0,71.0,-55.12505231298272,35.0,27.0,82.0,-35.07904359658839,-58.19692667541787,79.0,46.0,60.0,19.0,82.0,-99.0,18.0,-10.0,53.0,-29.0,-24.0,-11.0,-95.03701328465331,-59.0,54.0,20.0,-41.0,35.0,62.0,-95.03701328465331,10.080427886705063,-63.0,-67.28914935295376,-18.0,-42.0,42.0,17.0,-94.0,82.0,31.0,-5.0,21.0,49.83192027717178,18.0,-23.0,-95.03701328465331,-72.0,-92.0,-98.0,16.0,-91.0,53.0,-67.28914935295376,74.0,9.0,-68.0,53.0,-4.0,-66.0,-32.0,70.0,35.0,-25.006800750018364,30.0,-80.07535185404817,-82.0,41.0,67.79827750112078,7.0,-92.0,52.0,-45.0,-57.0,8.0,-78.0,-87.0,81.0,97.84226375315833,27.0,-55.12505231298272,-59.0,96.0,35.0,20.0,97.0,46.0,39.0,-63.0,41.0,-71.0,-54.0,-49.0,-83.0,-57.0,-40.0,-77.0,58.0,-78.0,0.8483956246569168,-76.0,-25.006800750018364,-25.006800750018364,43.0,-53.0,-17.0,-27.0,-37.0,-67.28914935295376,-82.0,53.0,20.0,65.0,-53.0,-6.0,5.0,-12.0,23.0,-99.0,31.0,-31.0,65.0,43.0,-21.0,-91.0,46.0,59.0,15.0,67.0,87.0,-50.0,60.874819986087964,-65.0,43.0,75.0,14.0,-75.0,-64.0,67.0,-54.0,-27.0,-14.0,10.080427886705063,5.0,-77.0,-32.0,-36.0,-14.0,41.0,-48.0,-10.0,18.0,8.0,-60.0,-12.0,-15.0,40.0,-74.0,75.0,60.874819986087964,37.0,-92.0,-69.13307456417691,-83.0,-14.0,85.96298671534669,-72.0,7.0,-65.0,-79.0,82.0,49.0,-31.0,-74.0,0.03635165490531128,-31.0,-61.0,95.0,-92.0,26.076670185896496,-34.1504233237729,17.0,-31.0,12.0,-61.0,-95.03701328465331,58.0,13.0,96.0,14.0,10.080427886705063,-70.0,90.0,26.076670185896496,-51.0,65.0,-100.0,55.0,-64.0,-8.979248829874354,-31.0,-74.0,-24.0,38.0,-7.0,-57.0,33.0,19.0,-80.07535185404817,83.0,-48.0,-86.0,49.0,79.95710029108382,83.0,50.982343600944674,27.0,95.0,76.0,27.0,26.076670185896496,-52.033642776050996,-95.03701328465331,0.8483956246569168,78.0,11.121057364116531,11.121057364116531,42.0,79.0,52.0,50.982343600944674,49.0,-26.0,-54.0,99.98234360094467,58.0,-8.0,-85.0,36.0,93.87481998608796,-32.0,-39.0,10.080427886705063,-42.947172997609556,23.0,16.0,-69.13307456417691,82.0,-81.0,9.0,75.0,-17.0,93.87481998608796,26.076670185896496,99.0,65.0,15.0,-85.0,-80.07535185404817,0.03635165490531128,27.87494768701728,-99.0,-39.0,-72.0,-45.930590551272736,-75.0,-70.0,-37.0,87.0,83.0,53.0,-13.0,-34.1504233237729,69.0,74.0,90.0,-47.017656399055326,-29.0,-95.03701328465331,66.0,91.0,75.0,92.87461221885486,79.95710029108382,-61.0,42.0,-49.0,40.0,-99.0,62.0,-13.0,-8.0,5.0,-27.0,87.0,-97.0,29.0,-12.0,70.0,76.0,38.0,37.0,-70.0,71.0,13.0,-10.0,42.0,-59.0,-5.0,92.87461221885486,76.0,87.0,-18.0,-21.0,90.0,-55.12505231298272,10.080427886705063,70.0,85.96298671534669,-58.19692667541787,63.0,70.0,27.87494768701728,-77.0,-94.0,27.87494768701728,63.83192027717178,-79.0,69.0,47.0,-96.0,19.0,-70.0,-51.0,13.0,75.0,38.0,-34.1504233237729,-69.13307456417691,-8.0,-89.0,55.0,76.0,55.0,13.0,70.0,-85.0,81.0,8.0,12.0,92.0,44.0,21.962986715346684,-48.0,-92.0,-68.0,92.0,92.87461221885486,21.0,-13.0,60.0,85.08505344338265,23.0,-31.0,17.0,-2.0,-76.0,59.0,32.0,90.0,83.0,32.0,39.0,70.0,23.0,-84.0,-87.0,7.0,92.0,-94.0,63.83192027717178,-82.0,-87.0,67.0,49.0,63.0,-75.0,82.0,45.0,-75.0,71.0,72.0,55.0,-15.0,77.0,-88.0,8.0,15.0,-69.13307456417691,58.0,-50.0,96.0,-70.0,37.0,48.0,27.87494768701728,81.0,-57.0,91.0,18.0,63.0,-11.0,8.0,-20.017656399055323,-79.0,81.0,92.0,45.0,-4.0,3.0,-85.0,92.87461221885486,-96.0,-81.0,-34.1504233237729,-74.0,-70.0,-7.0,-19.037013284653316,99.98234360094467,66.0,-83.0,-5.0,21.0,-42.947172997609556,-82.0,-54.0,79.0,99.98234360094467,23.0,-82.0,-95.03701328465331,21.962986715346684,87.0,-3.168079722828219,69.0,-90.0,67.79827750112078,-49.0,-69.13307456417691,-13.0,60.874819986087964,-94.0,-28.0,24.982343600944677,62.0,-96.0,-40.0,-41.0,-16.0,84.0,-39.0,49.0,60.0,0.8483956246569168,-14.0,8.0,-25.006800750018364,53.0,-74.0,10.080427886705063,-88.0,71.0,14.0,89.07550030463425,-31.0,-33.0,-33.0,27.0,43.0,92.87461221885486,-99.0,39.0,-23.0,-29.0,-42.0,60.874819986087964,-55.12505231298272,-31.0,14.0,59.0,-26.0,-22.0,33.0,-87.0,-89.0,76.0,99.0,-95.03701328465331,21.962986715346684,79.0,46.0,-73.0,89.07550030463425,-34.1504233237729,-96.0,63.83192027717178,-62.0,-20.017656399055323,70.0,-31.0,-8.979248829874354,-28.0,11.121057364116531,-44.0,81.0,-13.0,-81.0,31.0,39.0,-77.0,49.83192027717178,62.0,32.0,-98.0,-91.0,-98.0,27.87494768701728,55.0,79.0,60.0,-27.0,27.0,-63.0,18.0,15.0,-78.0,0.03635165490531128,34.0,21.0,-32.0,69.0,63.83192027717178,-13.0,82.0,57.0,60.0,-65.0,62.0,-13.0,7.0,32.0,14.0,-42.947172997609556,-63.0,49.83192027717178,59.0,96.0,-99.0,89.07550030463425,13.0,-45.930590551272736,-91.0,-49.0,-38.0,23.0,-6.0,73.0,-21.0,38.0,-41.0,54.0,-12.0,-14.0,88.0,-61.0,89.07550030463425,-89.0,50.982343600944674,-81.0,-83.0,-98.0,56.0,43.0,-34.1504233237729,-79.0,-24.0,-67.28914935295376,17.0,17.0,6.0,-34.1504233237729,53.0,9.0,66.0,-8.0,-23.0,-14.0,-52.033642776050996,33.0,49.83192027717178,-51.0,3.0,13.0,20.0,46.0,32.0,14.0,-11.0,-87.0,15.0,52.0,-11.0,16.0,-41.0,13.0,83.0,-33.0,-15.0,-92.0,-38.0,45.0,21.962986715346684,-3.168079722828219,79.0,-73.0,67.0,-39.0,-26.0,65.0,-40.0,6.0,-10.0,-6.0,-8.979248829874354,-72.0,99.0,33.0,36.0,-85.0,95.0,-22.0,-27.0,-55.12505231298272,-44.0,-48.0,-67.28914935295376,-11.0,49.83192027717178,-97.0,-23.0,-89.0,81.0,20.0,-71.0,-75.0,20.0,-26.0,10.080427886705063,-52.033642776050996,10.080427886705063,27.0,78.0,24.982343600944677,18.0,-44.0,-53.0,-17.0,85.08505344338265,93.87481998608796,54.0,7.0,14.0,-68.0,82.0,70.0,18.0,9.0,-28.0,-51.0,74.0,81.0,-55.91082134270424,-76.0,-50.0,-48.0,62.0,31.0,12.0,-14.0,-62.0,-94.0,-99.0,4.0,-94.0,-33.0,56.0,60.874819986087964,-2.0,16.0,-76.0,58.0,-1.0,-35.07904359658839,-14.0,-50.0,33.0,-14.0,-88.0,65.0,89.07550030463425,-19.037013284653316,-86.0,54.0,-60.0,71.0,-3.168079722828219,-79.0,-80.07535185404817,9.0,49.0,-75.0,-3.168079722828219,-96.0,72.0,63.0,46.0,-22.0,93.87481998608796,0.8483956246569168,-70.0,-100.0,89.07550030463425,20.0,72.0,-81.0,10.080427886705063,41.0,92.87461221885486,45.0,-52.033642776050996,-18.0,0.8483956246569168,69.0,18.0,-4.0,-58.19692667541787,66.0,-99.0,91.0,23.0,92.87461221885486,-4.0,95.0,49.83192027717178,13.0,-68.0,-38.0,-31.0,-89.0,24.982343600944677,-52.033642776050996,-3.168079722828219,-51.0,-36.0,-40.0,89.07550030463425,-19.037013284653316,-77.0,63.0,-23.0,-63.0,-55.91082134270424,19.0,20.0,13.0,39.0,-79.0,-98.0,84.0,-87.0,60.0,-7.0,-75.0,74.0,43.0,74.0,-83.0,67.79827750112078,-44.0,30.0,15.0,67.79827750112078,35.0,20.0,-71.0,-34.1504233237729,-20.017656399055323,46.0,-61.0,29.0,-2.0,-80.07535185404817,3.0,60.874819986087964,0.03635165490531128,35.0,-17.0,55.0,82.0,-32.0,81.0,89.07550030463425,-82.0,74.0,-42.947172997609556,-76.0,32.0,-59.0,-74.0,-72.0,-61.0,-17.0,7.0,-25.006800750018364,-95.03701328465331,-47.017656399055326,63.83192027717178,-8.0,33.0,-19.037013284653316,3.0,-44.0,0.03635165490531128,-15.0,-64.0,45.0,-2.0,79.95710029108382,-100.0,-100.0,63.0,-39.0,-68.0,-39.0,55.0,46.0,-77.0,-14.0,-42.0,-19.037013284653316,57.0,0.03635165490531128,82.0,-95.03701328465331,-8.979248829874354,-5.0,-65.0,-80.07535185404817,-42.947172997609556,27.0,87.0,-58.19692667541787,-42.947172997609556,88.0,-12.0,75.0,-73.0,59.0,-59.0,-60.0,75.0,-50.0,75.0,-14.0,-19.037013284653316,-94.0,-92.0,-81.0,-59.0,-13.0,-16.0,-82.0,-88.0,41.0,34.0,-11.0,47.0,97.84226375315833,73.0,-64.0,45.0,17.0,41.0,-17.0,55.0,24.0,66.0,69.0,45.0,5.0,95.0,-78.0,63.83192027717178,-44.0,48.0,-42.0,-98.0,13.0,95.0,-67.28914935295376,21.962986715346684,96.0,-55.91082134270424,-10.0,77.0,-95.03701328465331,-3.168079722828219,-22.0,-66.0,91.0,-67.28914935295376,27.0,63.0,85.08505344338265,-58.19692667541787,-100.0,52.0,-72.0,-79.0,-31.0,-38.0,-28.0,-10.0,-64.0,-13.0,-96.0,60.874819986087964,-1.0,60.874819986087964,84.0,53.0,78.0,99.0,18.0,27.0,-72.0,-54.0,-6.0,-55.91082134270424,-44.0,99.98234360094467,-37.0,3.0,-40.0,-59.0,-26.0,60.0,-7.0,-96.0,-70.0,88.0,-44.0,-74.0,-22.0,76.0,-61.0,-5.0,-88.0,-84.0,21.0,73.0,-11.0,-81.0,-21.0,74.0,11.121057364116531,-87.0,-59.0,52.0,-55.12505231298272,14.0,-21.0,-5.0,-72.0,-75.0,-54.0,-20.017656399055323,-84.0,6.0,49.83192027717178,-48.0,45.0,-84.0,82.0,-77.0,-71.0,40.0,-80.07535185404817,38.0,-36.0,-3.168079722828219,-99.0,14.0,46.0,-6.0,59.0,-25.006800750018364,-31.0,75.0,-42.947172997609556,27.0,-40.0,0.8483956246569168,-8.0,-79.0,37.0,60.0,29.0,-72.0,-98.0,-27.0,3.0,4.0,-66.0,27.0,27.87494768701728,35.0,75.0,66.0,-82.0,30.0,-31.0,-40.0,-15.0,0.03635165490531128,56.0,79.0,83.0,41.0,-42.0,-23.0,35.0,60.0,-80.07535185404817,50.982343600944674,20.0,49.83192027717178,-23.0,-75.0,57.0,70.0,54.0,54.0,-38.0,-92.0,-64.0,-60.0,21.962986715346684,29.0,62.0,-68.0,-85.0,-7.0,-45.930590551272736,35.0,-79.0,6.0,-16.0,71.0,-73.0,-35.07904359658839,-39.0,16.0,44.0,-96.0,-29.0,63.0,-53.0,32.0,18.0,-38.0,-37.0,96.0,87.0,-80.07535185404817,78.0,0.03635165490531128,56.0,85.08505344338265,-21.0,85.08505344338265,93.87481998608796,-21.0,49.0,85.08505344338265,3.0,-55.12505231298272,-22.0,70.0,96.0,-92.0,47.0,19.0,-32.0,58.0,85.96298671534669,-27.0,39.0,32.0,83.0,-68.0,-39.0,-73.0,31.0,12.0,11.121057364116531,60.0,18.0,10.080427886705063,-94.0,7.0,-63.0,59.0,-32.0,-35.07904359658839,-37.0,-67.28914935295376,23.0,79.95710029108382,-95.03701328465331,96.0,-73.0,-29.0,43.0,73.0,81.0,83.0,13.0,-98.0,-93.0,93.87481998608796,-79.0,-82.0,78.0,55.0,7.0,18.0,83.0,60.0,30.0,-29.935385831032065,60.874819986087964,21.0,-45.0,-89.0,67.0,19.0,84.0,67.79827750112078,54.0,-55.12505231298272,47.0,13.0,27.0,56.0,-16.0,-80.07535185404817,31.0,-87.0,57.0,-67.28914935295376,-39.0,97.0,-11.0,23.0,33.0,-100.0,-71.0,-54.0,-41.0,21.0,-82.0,77.0,-67.28914935295376,9.0,34.0,59.0,26.076670185896496,-93.0,-51.0,-11.0,-52.033642776050996,37.0,-60.0,69.0,41.0,-16.0,79.95710029108382,27.87494768701728,-50.0,-67.28914935295376,12.0,33.0,62.0,-68.0,-48.0,-28.0,-78.0,99.0,8.0,85.08505344338265,-78.0,-22.0,-89.0,-89.0,-13.0,-100.0,-33.0,2.0,59.0,-32.0,-8.979248829874354,77.0,-4.0,-75.0,-50.0,31.0,-78.0,-60.0,-40.0,-39.0,-68.0,-57.0,-14.0,-86.0,-100.0,-19.037013284653316,60.0,-29.935385831032065,59.0,46.0,-94.0,-26.0,-40.0,-8.0,58.0,63.0,39.0,-48.0,-61.0,-60.0,-58.19692667541787,-47.017656399055326,16.0,82.0,-85.0,85.08505344338265,0.03635165490531128,-4.0,-13.0,-81.0,32.0,31.0,75.0,-84.0,62.0,99.0,-33.0,-88.0,27.0,-54.0,-52.033642776050996,-8.0,-29.935385831032065,-77.0,90.0,-99.0,-84.0,-88.0,93.87481998608796,-55.12505231298272,-8.979248829874354,9.0,-52.033642776050996,-31.0,-50.0,6.0,73.0,27.0,-47.017656399055326,-87.0,87.0,-17.0,-44.0,-66.0,-11.0,-4.0,91.0,77.0,58.0,31.0,-55.91082134270424,87.0,-16.0,-49.0,-42.0,7.0,96.0,92.0,-92.0,-66.0,-80.07535185404817,-63.0,79.0,67.79827750112078,-70.0,-52.033642776050996,15.0,-28.0,-100.0,-51.0,-45.930590551272736,48.0,97.84226375315833,-29.0,-76.0,-97.0,0.03635165490531128,-51.0,-20.017656399055323,-98.0,-20.017656399055323,0.8483956246569168,65.0,-68.0,19.0,99.0,-17.0,7.0,-28.0,-7.0,-71.0,56.0,-71.0,-2.0,-34.1504233237729,14.0,-10.0,4.0,-67.28914935295376,20.0,-85.0,38.0,-99.0,24.0,47.0,-77.0,-4.0,99.0,-79.0,27.87494768701728,19.0,-3.168079722828219,74.0,14.0,82.0,10.080427886705063,78.0,27.87494768701728,7.0,27.87494768701728,69.0,45.0,-81.0,-99.0,-83.0,59.0,76.0,56.0,65.0,-22.0,-23.0,-38.0,-11.0,14.0,-18.0,-71.0,-71.0,-65.0,92.0,67.79827750112078,74.0,23.0,4.0,-69.13307456417691,26.076670185896496,50.982343600944674,-53.0,-15.0,90.0,-12.0,53.0,-70.0,-55.12505231298272,97.84226375315833,-82.0,54.0,19.0,63.83192027717178,96.0,78.0,-6.0,-1.0,-8.979248829874354,17.0,-98.0,69.0,-88.0,-10.0,-55.12505231298272,11.121057364116531,60.0,-73.0,-12.0,7.0,-75.0,49.83192027717178,-1.0,-64.0,-53.0,-32.0,-18.0,40.0,-20.017656399055323,-42.0,-90.0,83.0,-64.0,-67.28914935295376,45.0,-82.0,-60.0,93.87481998608796,87.0,38.0,37.0,-88.0,8.0,-14.0,77.0,-74.0,55.0,76.0,12.0,33.0,-98.0,34.0,85.08505344338265,16.0,-16.0,0.8483956246569168,-2.0,-86.0,-3.168079722828219,-52.033642776050996,-77.0,-2.0,-85.0,17.0,95.0,47.0,-90.0,63.0,-51.0,82.0,50.982343600944674,6.0,30.0,-80.07535185404817,-12.0,88.0,-10.0,17.0,-54.0,31.0,-80.07535185404817,-18.0,87.0,26.076670185896496,-22.0,-26.0,85.08505344338265,41.0,-2.0,30.0,34.0,44.0,-79.0,-29.935385831032065,-20.017656399055323,96.0,-45.0,83.0,-3.168079722828219,-82.0,-1.0,3.0,-22.0,82.0,69.0,-88.0,-37.0,-20.017656399055323,19.0,-16.0,2.0,-5.0,19.0,-91.0,14.0,-50.0,-55.12505231298272,69.0,-99.0,79.95710029108382,-68.0,19.0,-12.0,-7.0,8.0,91.0,53.0,-40.0,60.874819986087964,62.0,-94.0,-42.947172997609556,-55.91082134270424,-49.0,-34.1504233237729,27.87494768701728,87.0,-63.0,-91.0,-49.0,75.0,85.08505344338265,-96.0,-73.0,-52.033642776050996,39.0,-100.0,24.982343600944677,-86.0,58.0,-29.935385831032065,33.0,95.0,11.121057364116531,-6.0,-83.0,-35.07904359658839,52.0,-12.0,-29.0,-40.0,-32.0,-27.0,-67.28914935295376,-44.0,-95.03701328465331,24.982343600944677,70.0,-6.0,-66.0,-7.0,-54.0,-26.0,43.0,-7.0,67.0,75.0,-5.0,-12.0,17.0,63.0,63.83192027717178,-98.0,-55.12505231298272,-97.0,-61.0,-73.0,7.0,-26.0,-18.0,-98.0,-24.0,-61.0,9.0,40.0,79.0,81.0,-13.0,-63.0,-45.930590551272736,59.0,-22.0,46.0,-87.0,73.0,43.0,-38.0,14.0,38.0,5.0,99.98234360094467,46.0,-23.0,-29.935385831032065,-89.0,-57.0,8.0,-68.0,99.0,60.874819986087964,-53.0,-90.0,-13.0,-74.0,-57.0,-58.19692667541787,-82.0,82.0,5.0,-1.0,79.0,-34.1504233237729,21.962986715346684,73.0,97.84226375315833,-90.0,87.0,-74.0,-45.0,2.0,-6.0,-10.0,82.0,99.98234360094467,-98.0,-3.168079722828219,-13.0,-96.0,30.0,0.8483956246569168,3.0,83.0,-35.07904359658839,49.0,-21.0,-31.0,60.0,63.83192027717178,-4.0,30.0,36.0,39.0,-52.033642776050996,-16.0,23.0,-24.0,81.0,-55.12505231298272,-18.0,74.0,-57.0,-74.0,16.0,-18.0,-29.935385831032065,-17.0,-94.0,-86.0,-40.0,-90.0,-87.0,-18.0,-72.0,-62.0,-42.0,-42.0,-51.0,-70.0,35.0,-42.947172997609556,-68.0,27.0,-8.979248829874354,-3.168079722828219,-42.0,-19.037013284653316,-65.0,96.0,-100.0,5.0,41.0,-12.0,46.0,17.0,39.0,-99.0,-21.0,62.0,-51.0,0.8483956246569168,67.79827750112078,-88.0,-12.0,26.076670185896496,-90.0,49.0,59.0,-35.07904359658839,-60.0,-98.0,24.982343600944677,24.0,55.0,8.0,44.0,-15.0,45.0,-66.0,-85.0,-18.0,93.87481998608796,69.0,74.0,-81.0,-23.0,49.83192027717178,-5.0,36.0,50.982343600944674,88.0,54.0,-8.0,89.07550030463425,74.0,4.0,-17.0,62.0,-5.0,2.0,88.0,24.982343600944677,30.0,85.08505344338265,20.0,-21.0,0.03635165490531128,-15.0,97.0,67.79827750112078,92.87461221885486,96.0,10.080427886705063,-17.0,90.0,-17.0,-6.0,-48.0,33.0,-22.0,-53.0,-36.0,-91.0,-15.0,-75.0,-70.0,54.0,-31.0,-94.0,27.87494768701728,95.0,-19.037013284653316,99.98234360094467,11.121057364116531,92.87461221885486,-73.0,8.0,93.87481998608796,74.0,62.0,-24.0,-53.0,-11.0,-15.0,-77.0,-99.0,6.0,-20.017656399055323,-10.0,-57.0,-45.930590551272736,-71.0,-99.0,-12.0,-13.0,-4.0,2.0,76.0,29.0,-47.017656399055326,74.0,-39.0,-38.0,-18.0,54.0,21.962986715346684,-57.0,97.0,-87.0,-29.0,36.0,-42.947172997609556,-58.19692667541787,99.0,-38.0,26.076670185896496,-10.0,96.0,-22.0,-5.0,6.0,-100.0,91.0,-34.1504233237729,-83.0,63.0,-76.0,-7.0,-100.0,49.83192027717178,-70.0,-27.0,-93.0,11.121057364116531,-8.0,35.0,-90.0,21.962986715346684,78.0,53.0,70.0,-42.0,55.0,-66.0,21.0,-2.0,49.83192027717178,46.0,-6.0,65.0,79.0,21.962986715346684,65.0,32.0,-12.0,89.07550030463425,54.0,30.0,66.0,82.0,-1.0,-93.0,-77.0,12.0,76.0,21.962986715346684,-2.0,400
R,-99.0,-96.95399465383288,47.553626266578895,-37.88822303580422,57.19152073128013,64.20561928399164,21.179609438217902,-84.03417009542636,81.12629257729972,-41.30568000201101,89.13415477112427,-85.0,1.7061586132324897,36.97931143195961,81.69438016579646,0.6982729001269241,69.0,-42.0,-87.0,50.98754524288953,44.0,68.0,-88.15067280599804,64.82718909953006,69.0,70.0,96.0,-1.0,70.99604709786206,-64.0,61.0,36.0,30.0,-41.30568000201101,18.0,-18.0,-59.0,94.98321123420911,-35.0,-35.0,-54.0,-87.0,-9.0,-85.0,-63.0,-5.0,-96.95399465383288,-80.11247553143659,-80.11247553143659,-90.0,62.99829692005007,44.0,-9.66863160275689,-11.0,54.994322840803406,-71.0,96.0,23.21385221146298,-78.64151611407391,62.12958066865277,68.0,90.99604709786206,46.0,26.0,-39.793095046425144,-99.0,-94.32233432299728,-99.0,39.1796094382179,70.99604709786206,36.97931143195961,-41.30568000201101,-80.11247553143659,-20.88822303580421,19.0,-50.0,-22.0,-17.0,54.0,18.0,-13.0,-41.30568000201101,-43.0,-90.0,-27.0,-14.0,24.0,-80.11247553143659,-41.30568000201101,-30.0,1.7061586132324897,-49.0,34.0,57.19152073128013,-71.0,39.1796094382179,24.9832112342091,85.0,-91.0,-15.0,-86.0,28.0,-52.0,-31.0,89.13415477112427,-95.0,-13.0,-36.0,-30.0,-73.0,-34.0,61.0,-61.0,-86.0,21.179609438217902,-78.0,-37.0,26.0,-65.0,97.0,-58.0167887657909,-31.0,-26.0,-84.03417009542636,14.0,-96.95399465383288,21.179609438217902,20.0,-78.0,86.0,-75.0,45.0,-9.0,-12.0,-78.64151611407391,-28.0,87.0,40.0,6.0,70.99604709786206,94.0,-56.0,35.0,-63.0,26.0,100.0,41.0,-88.15067280599804,-5.0,21.179609438217902,-14.0,-88.15067280599804,-99.0,-59.0,-31.0,-9.66863160275689,81.12629257729972,88.0,12.0,-63.0,14.0,45.0,-41.30568000201101,-53.0,21.179609438217902,24.0,-28.0,76.0,-30.0,-13.0,-55.0,-44.0,90.99604709786206,29.0,-93.0,39.1796094382179,96.0,90.99604709786206,58.0,-80.11247553143659,54.0,34.0,-49.0,-3.0,-67.0,-59.0,20.0,-94.32233432299728,9.0,-94.32233432299728,-27.0,-29.0,70.0,-0.016788765790898216,-80.11247553143659,-63.0,38.0,87.0,40.0,-95.0,12.0,-96.95399465383288,54.0,-65.0,98.0,67.0,-72.0,-25.0,-78.64151611407391,29.0,-74.0,-18.0,-39.0,31.0,56.0,-3.0,-47.0,22.0,88.0,35.0,22.0,64.82718909953006,17.04600534616713,0.6982729001269241,-69.0,-62.0,11.0,61.0,-62.0,-62.0,24.0,31.0,42.0,-20.88822303580421,-60.0,-7.0,52.0,-59.0,-53.0,30.0,-46.0,13.0,-68.0,-84.03417009542636,73.0,86.0,-58.0167887657909,36.97931143195961,-72.0,15.0,-28.0,-20.0,23.21385221146298,-84.03417009542636,-7.0,-53.0,61.0,-90.0,24.9832112342091,-74.0,-98.0,-26.0,-39.793095046425144,46.0,-57.0,-14.0,75.0,47.553626266578895,-82.0,7.0,-5.0,6.0,-91.0,-96.0,54.994322840803406,34.0,11.0,-64.0,16.0,75.0,-88.15067280599804,13.0,47.553626266578895,69.0,-3.0,57.19152073128013,-64.0,-62.0,24.0,54.0,88.0,100.0,47.553626266578895,-49.0,-84.03417009542636,-99.95399465383288,-44.0,41.0,13.0,21.179609438217902,9.0,42.0,0.6982729001269241,-4.0,-5.0,-58.0167887657909,76.0,-74.0,-86.0,18.0,-69.0,-66.0,38.0,-54.0,-77.0,14.0,92.0,14.0,-28.0,15.0,-22.0,-99.0,-63.0,27.04600534616713,0.6982729001269241,-64.0,-55.0,-78.64151611407391,-83.0,-18.0,46.0,13.0,-2.0,-36.0,6.0,-65.0,-86.0,100.0,7.0,-88.95399465383288,-30.0,-50.0,62.12958066865277,47.553626266578895,-25.0,11.0,-0.016788765790898216,0.6982729001269241,-61.0,-6.0,28.0,20.0,75.0,-67.0,-32.0,-64.0,-53.0,93.0,-28.0,-5.0,54.994322840803406,19.0,36.97931143195961,78.13415477112427,-43.0,35.0,-20.0,29.0,17.04600534616713,-23.0,36.0,-35.0,47.553626266578895,64.20561928399164,-96.0,-1.0,-14.0,-90.0,-11.0,16.0,66.0,92.0,-20.88822303580421,-39.793095046425144,-51.0,-84.03417009542636,-37.88822303580422,54.0,-54.0,23.21385221146298,-76.0,96.0,-6.0,-51.0,-9.0,-18.0,-26.0,-11.0,-55.0,-88.95399465383288,-39.793095046425144,21.179609438217902,-55.0,74.0,-12.0,-41.30568000201101,-99.0,60.33136839724311,30.0,-84.03417009542636,-46.0,41.0,61.0,-0.016788765790898216,69.0,23.21385221146298,64.82718909953006,93.0,81.12629257729972,43.0,-48.0,7.0,-8.0,54.994322840803406,64.82718909953006,99.0,62.12958066865277,-71.0,70.99604709786206,34.0,57.19152073128013,-52.0,-77.0,86.0,-5.0,76.0,14.0,28.0,-84.03417009542636,48.0,-3.0,-49.0,-37.0,79.0,1.7061586132324897,-69.0,50.0,-37.0,-75.0,61.0,-7.0,40.0,-56.0,-86.0,-91.0,48.0,-3.0,99.0,-39.793095046425144,77.5536262665789,4.0,-3.0,-23.0,94.98321123420911,-6.0,5.0,46.0,21.179609438217902,89.13415477112427,3.0,-78.64151611407391,-8.0,-50.0,-42.0,-98.0,42.0,79.0,57.19152073128013,78.13415477112427,69.0,35.0,-81.0,41.0,-78.0,35.0,88.0,62.12958066865277,-46.0,-72.0,-39.793095046425144,-87.0,14.0,-98.0,1.7061586132324897,-15.0,15.0,-2.0,-59.0,-31.0,-8.0,54.0,-20.0,52.0,-85.0,34.0,-9.0,54.0,-20.88822303580421,-7.0,-6.0,-19.0,96.0,3.0,-34.0,-37.88822303580422,-72.0,52.0,79.0,80.0,-66.0,44.0,-34.0,-18.0,-57.0,-39.0,-35.0,10.0,64.82718909953006,24.0,100.0,83.0,90.99604709786206,-51.0,-64.0,-48.0,14.0,-95.0,54.0,-14.0,-99.95399465383288,54.994322840803406,-50.0,-58.0167887657909,94.98321123420911,-57.0,6.0,-85.0,62.99829692005007,-49.0,-3.0,-76.0,-29.0,14.0,0.6982729001269241,-35.0,-1.0,97.0,31.0,84.0,34.0,-39.0,78.13415477112427,-9.66863160275689,-31.0,100.0,-54.0,1.7061586132324897,-61.0,-9.0,-16.0,-4.0,-24.0,-8.0,-45.0,28.0,64.20561928399164,-25.0,-45.0,-31.0,87.0,-0.016788765790898216,35.0,9.0,-30.0,76.0,5.0,-39.0,14.0,10.0,-98.0,-36.0,4.0,-43.0,89.13415477112427,-82.0,78.13415477112427,36.97931143195961,29.0,-92.0,-94.32233432299728,24.0,49.0,83.0,98.0,-53.0,-47.0,-15.0,-13.0,-72.0,66.0,-15.0,-27.0,41.0,-57.0,-19.0,-96.95399465383288,-37.0,-88.15067280599804,31.0,-8.0,-62.0,-47.0,84.0,62.12958066865277,-74.0,-61.0,-20.88822303580421,70.99604709786206,-39.0,48.0,49.0,88.0,-37.0,18.0,-37.0,-36.0,-22.0,-1.0,47.553626266578895,36.0,-31.0,-91.0,39.1796094382179,-5.0,1.7061586132324897,12.0,26.0,-92.0,14.0,84.0,-73.0,-80.11247553143659,-61.0,38.0,-3.0,36.97931143195961,6.0,39.1796094382179,85.0,-20.88822303580421,-56.0,-62.0,13.0,-78.0,-15.0,38.0,-74.0,41.0,99.0,7.0,53.0,-33.0,-39.793095046425144,-47.0,-31.0,88.0,22.0,-37.88822303580422,93.0,-35.0,-61.0,-19.0,64.20561928399164,98.0,-33.0,-58.0167887657909,-33.0,-41.30568000201101,0.6982729001269241,-25.0,62.12958066865277,-81.0,-43.0,-64.0,-67.0,-22.0,-27.0,56.0,69.0,-86.0,39.1796094382179,19.0,-50.0,19.0,-70.0,28.0,68.0,61.0,49.0,96.0,-92.0,-94.32233432299728,-15.0,-13.0,-37.88822303580422,-95.0,-15.0,-17.0,92.0,100.0,10.0,-28.0,56.0,-31.0,94.0,94.98321123420911,-84.03417009542636,17.04600534616713,-7.0,-94.32233432299728,90.0,-18.0,-28.0,54.994322840803406,-93.0,-26.0,40.0,-98.0,-0.016788765790898216,-26.0,18.0,62.99829692005007,88.0,-44.0,15.0,58.0,20.0,54.0,81.69438016579646,-73.0,59.0,93.0,93.0,-94.32233432299728,-57.0,42.0,5.0,12.0,-19.0,40.0,-24.0,36.97931143195961,10.0,-39.793095046425144,8.0,62.99829692005007,-72.0,-1.0,50.98754524288953,-96.95399465383288,-88.15067280599804,44.0,90.99604709786206,-96.0,-39.0,-4.0,80.0,-81.0,66.0,-41.30568000201101,-43.0,92.0,10.0,-88.15067280599804,47.553626266578895,53.0,35.0,20.0,89.13415477112427,33.0,46.0,69.0,69.0,70.99604709786206,10.0,-55.0,20.0,39.1796094382179,22.0,-22.0,-28.0,98.0,64.82718909953006,45.0,-57.0,-17.0,-24.0,-49.0,58.0,7.0,6.0,-32.0,-25.0,-43.0,84.0,47.553626266578895,-96.95399465383288,50.98754524288953,-16.0,-18.0,75.0,92.0,-99.95399465383288,99.0,84.0,-65.0,19.0,-45.0,-91.0,-22.0,-84.03417009542636,57.19152073128013,70.99604709786206,68.0,-74.0,42.0,-93.0,-9.0,67.0,-47.0,-5.0,-19.0,-94.32233432299728,43.0,-14.0,99.0,68.0,67.0,34.0,-73.0,-68.0,-93.0,47.553626266578895,-73.0,-64.0,-83.0,-3.0,29.0,53.0,5.0,57.19152073128013,-49.0,-71.0,80.0,-16.0,-13.0,-8.0,-63.0,-94.32233432299728,14.0,-29.0,98.0,81.12629257729972,-55.0,88.0,-11.0,-41.30568000201101,-14.0,94.98321123420911,76.0,18.0,45.0,56.0,69.0,-2.0,-86.0,39.1796094382179,1.7061586132324897,-39.0,-76.0,-90.0,79.0,-99.0,-91.0,18.0,-41.30568000201101,75.0,35.0,-50.0,96.0,-12.0,20.0,53.0,-15.0,-56.0,-31.0,8.0,-85.0,-99.0,-51.0,-90.0,-51.0,3.0,38.0,72.0,83.0,83.0,-95.0,-57.0,41.0,13.0,1.7061586132324897,-99.95399465383288,-27.0,34.0,28.0,-27.0,67.0,-1.0,72.0,66.0,-49.0,-95.0,-88.95399465383288,-6.0,84.0,50.98754524288953,-65.0,58.0,44.0,-54.0,52.0,24.9832112342091,97.0,-12.0,38.0,23.21385221146298,62.12958066865277,99.0,12.0,54.0,70.99604709786206,-34.0,-0.016788765790898216,58.0,26.0,50.0,-0.016788765790898216,31.0,16.0,-72.0,-71.0,-80.11247553143659,96.0,15.0,83.0,24.9832112342091,-36.0,-76.0,3.0,-48.0,81.69438016579646,93.0,96.0,-91.0,64.20561928399164,67.0,73.0,-56.0,-33.0,-87.0,-61.0,26.0,-25.0,54.0,-35.0,-39.793095046425144,-11.0,-23.0,81.69438016579646,54.994322840803406,99.0,90.0,-87.0,45.0,-99.0,24.0,80.0,49.0,74.0,-46.0,64.82718909953006,94.0,74.0,54.0,5.0,-50.0,84.0,-32.0,-68.0,53.0,49.0,46.0,14.0,-31.0,23.21385221146298,21.179609438217902,-99.95399465383288,-70.0,96.0,62.12958066865277,90.0,-2.0,-5.0,-42.0,-6.0,73.0,38.0,11.0,-9.66863160275689,-76.0,-57.0,62.99829692005007,-50.0,40.0,-42.0,-63.0,30.0,89.13415477112427,-45.0,-36.0,38.0,78.13415477112427,24.9832112342091,-15.0,3.0,77.5536262665789,90.0,-58.0167887657909,-69.0,-20.0,-85.0,-78.64151611407391,58.0,-16.0,-39.0,-13.0,-54.0,13.0,-68.0,31.0,-7.0,-66.0,89.13415477112427,18.0,-51.0,-18.0,-13.0,34.0,84.0,-39.793095046425144,35.0,7.0,-77.0,-27.0,58.0,-5.0,-17.0,8.0,-58.0167887657909,-72.0,-60.0,27.04600534616713,-0.016788765790898216,-93.0,-22.0,79.0,-53.0,49.0,45.0,-49.0,-0.016788765790898216,86.0,-2.0,36.97931143195961,-20.88822303580421,10.0,11.0,-58.0167887657909,-76.0,81.69438016579646,-48.0,-85.0,-0.016788765790898216,-86.0,-44.0,15.0,33.0,64.20561928399164,-78.0,-3.0,-20.0,-17.0,3.0,99.0,60.33136839724311,-13.0,-17.0,-39.793095046425144,-64.0,99.0,62.12958066865277,-90.0,45.0,-30.0,-56.0,-9.66863160275689,-98.0,30.0,73.0,72.0,47.553626266578895,-93.0,-83.0,83.0,64.20561928399164,-35.0,80.0,9.0,-67.0,-91.0,-78.0,70.99604709786206,98.0,-39.793095046425144,6.0,60.33136839724311,83.0,61.0,70.0,72.0,69.0,-14.0,20.0,-46.0,-29.0,-55.0,17.04600534616713,32.0,79.0,98.0,52.0,-59.0,-52.0,-51.0,83.0,26.0,-46.0,47.553626266578895,-84.03417009542636,45.0,-64.0,64.20561928399164,-9.66863160275689,-32.0,36.0,1.7061586132324897,-13.0,-22.0,-55.0,-96.0,8.0,-24.0,-16.0,32.0,-93.0,83.0,-77.0,-83.0,62.12958066865277,13.0,87.0,-62.0,38.0,33.0,-99.95399465383288,-62.0,90.0,14.0,69.0,43.0,-48.0,-77.0,-72.0,30.0,36.0,-95.0,-37.88822303580422,14.0,81.69438016579646,72.0,76.0,-41.30568000201101,41.0,6.0,-44.0,-68.0,94.98321123420911,-88.95399465383288,-13.0,99.0,-23.0,-61.0,100.0,-14.0,16.0,87.0,96.0,-61.0,17.04600534616713,-81.0,-9.66863160275689,58.0,-52.0,-13.0,-85.0,-23.0,-2.0,11.0,5.0,-20.88822303580421,7.0,-0.016788765790898216,62.99829692005007,-43.0,-96.0,97.0,53.0,-2.0,-49.0,-75.0,-11.0,-56.0,1.7061586132324897,-0.016788765790898216,47.553626266578895,1.7061586132324897,-88.15067280599804,-64.0,-67.0,-8.0,76.0,40.0,75.0,11.0,-42.0,-80.11247553143659,-87.0,94.98321123420911,94.98321123420911,-42.0,50.98754524288953,-15.0,-92.0,84.0,62.12958066865277,13.0,-71.0,-41.30568000201101,94.98321123420911,-68.0,-88.15067280599804,-32.0,-33.0,-43.0,100.0,42.0,-68.0,-87.0,-88.15067280599804,21.179609438217902,72.0,18.0,78.13415477112427,-78.0,99.0,84.0,-20.88822303580421,-33.0,78.13415477112427,-71.0,0.6982729001269241,3.0,54.994322840803406,-92.0,15.0,94.98321123420911,-99.0,-87.0,29.0,-65.0,23.21385221146298,-12.0,96.0,87.0,29.0,-37.88822303580422,-23.0,-20.0,94.0,-1.0,-62.0,-98.0,16.0,-74.0,-46.0,-19.0,-0.016788765790898216,87.0,-88.95399465383288,33.0,3.0,-20.88822303580421,-2.0,24.0,41.0,9.0,-78.0,-29.0,-25.0,-61.0,-43.0,-35.0,20.0,-96.95399465383288,-71.0,-61.0,-11.0,-73.0,-23.0,11.0,-86.0,-37.0,94.0,-36.0,-42.0,57.19152073128013,-84.03417009542636,-83.0,39.1796094382179,-23.0,40.0,-87.0,-36.0,96.0,86.0,49.0,-63.0,70.0,-82.0,-54.0,-16.0,59.0,-95.0,60.33136839724311,97.0,28.0,58.0,-68.0,-48.0,-92.0,-91.0,43.0,-36.0,97.0,-92.0,15.0,-6.0,4.0,11.0,86.0,27.04600534616713,-87.0,-8.0,-96.0,49.0,-25.0,70.0,-78.64151611407391,77.5536262665789,-43.0,-73.0,-19.0,90.99604709786206,-44.0,48.0,-39.793095046425144,-96.0,-96.95399465383288,-98.0,66.0,-29.0,39.1796094382179,80.0,-39.793095046425144,86.0,92.0,38.0,12.0,45.0,30.0,48.0,5.0,93.0,75.0,-25.0,6.0,99.0,19.0,26.0,-44.0,-60.0,42.0,44.0,24.9832112342091,-25.0,-56.0,69.0,35.0,54.0,98.0,68.0,-99.95399465383288,-55.0,27.04600534616713,-42.0,-15.0,20.0,46.0,-84.03417009542636,96.0,1.7061586132324897,-24.0,-32.0,-88.15067280599804,-9.66863160275689,46.0,-78.0,66.0,-92.0,94.0,100.0,9.0,-92.0,9.0,-99.95399465383288,-24.0,83.0,-7.0,-99.0,-9.0,100.0,-23.0,-86.0,21.179609438217902,62.99829692005007,-60.0,-95.0,16.0,-6.0,-22.0,49.0,-55.0,-85.0,-91.0,-99.95399465383288,61.0,76.0,-5.0,-57.0,-76.0,-48.0,-22.0,34.0,83.0,42.0,83.0,-78.0,-29.0,-74.0,86.0,-94.32233432299728,-34.0,-77.0,-36.0,58.0,-83.0,34.0,54.0,-87.0,-14.0,-56.0,-2.0,44.0,-49.0,-70.0,54.0,-65.0,-55.0,-25.0,62.12958066865277,-64.0,-50.0,13.0,-29.0,17.04600534616713,-81.0,22.0,-60.0,-78.0,90.0,-39.793095046425144,-6.0,-42.0,35.0,-4.0,40.0,7.0,-2.0,16.0,87.0,-94.32233432299728,45.0,97.0,89.13415477112427,-69.0,64.20561928399164,-28.0,12.0,33.0,-98.0,94.98321123420911,-56.0,-36.0,-30.0,13.0,-81.0,-76.0,-27.0,-96.0,-39.793095046425144,8.0,-91.0,-95.0,-85.0,8.0,64.20561928399164,-5.0,99.0,-6.0,-43.0,73.0,100.0,-27.0,50.98754524288953,3.0,-16.0,53.0,-95.0,90.0,-6.0,-73.0,52.0,-7.0,75.0,-86.0,-19.0,83.0,-72.0,-61.0,-1.0,-67.0,-18.0,-90.0,14.0,69.0,-11.0,-20.0,70.99604709786206,49.0,9.0,78.13415477112427,-24.0,-9.66863160275689,15.0,70.0,-64.0,89.13415477112427,-99.0,64.82718909953006,-50.0,21.179609438217902,24.9832112342091,72.0,-41.30568000201101,67.0,-74.0,87.0,58.0,-54.0,72.0,-99.95399465383288,-35.0,100.0,-26.0,-46.0,52.0,22.0,81.69438016579646,-78.64151611407391,-80.11247553143659,-24.0,9.0,-22.0,-11.0,26.0,-23.0,30.0,86.0,-51.0,98.0,-82.0,96.0,-53.0,94.0,-65.0,33.0,88.0,-8.0,-93.0,19.0,-6.0,64.82718909953006,-95.0,67.0,-11.0,21.179609438217902,34.0,64.82718909953006,-7.0,-72.0,-86.0,-6.0,-95.0,-66.0,-94.32233432299728,-16.0,-32.0,-0.016788765790898216,-73.0,54.0,-11.0,56.0,90.99604709786206,-93.0,23.21385221146298,-14.0,-99.95399465383288,64.82718909953006,-37.0,-53.0,7.0,31.0,-51.0,-57.0,100.0,-35.0,30.0,67.0,-69.0,99.0,90.0,3.0,-9.0,-3.0,44.0,57.19152073128013,-27.0,-78.64151611407391,-96.0,-58.0167887657909,-99.95399465383288,93.0,77.5536262665789,28.0,36.97931143195961,-78.0,46.0,-41.30568000201101,-9.66863160275689,88.0,-87.0,28.0,-35.0,-90.0,-28.0,-32.0,-59.0,-37.0,93.0,-7.0,66.0,68.0,44.0,26.0,-63.0,94.98321123420911,11.0,-8.0,-95.0,-82.0,83.0,47.553626266578895,90.0,-69.0,59.0,83.0,0.6982729001269241,94.98321123420911,-63.0,-83.0,67.0,93.0,-67.0,-96.0,-47.0,-99.0,-9.0,-87.0,-51.0,-29.0,-81.0,-15.0,64.20561928399164,-23.0,-27.0,-28.0,-98.0,92.0,-96.0,-61.0,-47.0,43.0,-39.0,-14.0,-3.0,39.1796094382179,50.98754524288953,67.0,-74.0,44.0,-35.0,-11.0,-41.30568000201101,21.179609438217902,-99.95399465383288,-83.0,-4.0,-69.0,-62.0,44.0,-39.793095046425144,-95.0,68.0,-55.0,85.0,-30.0,-75.0,83.0,70.99604709786206,-19.0,79.0,-73.0,62.99829692005007,23.21385221146298,94.0,0.6982729001269241,-16.0,66.0,9.0,64.20561928399164,87.0,83.0,30.0,-33.0,92.0,-65.0,54.994322840803406,-88.15067280599804,58.0,38.0,66.0,-51.0,75.0,68.0,46.0,47.553626266578895,38.0,38.0,-99.0,-71.0,89.13415477112427,89.13415477112427,-45.0,-99.0,69.0,-84.03417009542636,-46.0,-66.0,-22.0,-19.0,-75.0,-19.0,-0.016788765790898216,-50.0,-20.0,64.20561928399164,92.0,78.13415477112427,-94.32233432299728,-66.0,-50.0,11.0,-17.0,70.0,30.0,-71.0,56.0,-71.0,26.0,-11.0,64.20561928399164,-96.0,26.0,17.04600534616713,83.0,70.99604709786206,-20.88822303580421,-12.0,90.0,-63.0,-42.0,-6.0,-16.0,70.99604709786206,-98.0,-91.0,77.5536262665789,75.0,-78.64151611407391,-2.0,7.0,39.1796094382179,-27.0,-25.0,47.553626266578895,-43.0,31.0,-78.0,-94.32233432299728,70.0,-26.0,-96.95399465383288,-26.0,66.0,70.99604709786206,46.0,-71.0,-35.0,-12.0,-46.0,35.0,21.179609438217902,35.0,75.0,-29.0,56.0,17.04600534616713,35.0,27.04600534616713,-78.0,99.0,9.0,7.0,66.0,-55.0,27.04600534616713,-50.0,-19.0,3.0,90.99604709786206,-71.0,41.0,-22.0,90.0,-25.0,62.99829692005007,47.553626266578895,60.33136839724311,30.0,93.0,-88.15067280599804,24.0,50.98754524288953,94.0,-18.0,-35.0,-99.95399465383288,-0.016788765790898216,-84.03417009542636,-60.0,-20.88822303580421,-91.0,17.04600534616713,-8.0,39.1796094382179,-62.0,-71.0,0.6982729001269241,-39.793095046425144,-26.0,-12.0,16.0,87.0,68.0,30.0,66.0,-43.0,62.99829692005007,-27.0,36.97931143195961,32.0,-47.0,62.12958066865277,21.179609438217902,-12.0,-46.0,12.0,-28.0,-82.0,48.0,74.0,-0.016788765790898216,-6.0,-57.0,-18.0,24.0,-7.0,85.0,-41.30568000201101,-67.0,66.0,-90.0,8.0,45.0,70.99604709786206,-69.0,-58.0167887657909,-60.0,-33.0,13.0,-73.0,32.0,-31.0,-11.0,-9.0,69.0,26.0,90.99604709786206,54.0,-82.0,49.0,-96.95399465383288,14.0,48.0,-65.0,88.0,-39.0,23.21385221146298,-78.64151611407391,-78.0,56.0,81.69438016579646,-98.0,-37.0,-30.0,-18.0,29.0,-68.0,-65.0,-13.0,-26.0,-37.88822303580422,-65.0,-70.0,-5.0,50.0,22.0,79.0,-71.0,-25.0,93.0,-54.0,49.0,-95.0,-7.0,3.0,-19.0,47.553626266578895,43.0,23.21385221146298,30.0,73.0,58.0,41.0,30.0,-86.0,-99.95399465383288,-31.0,-99.0,-59.0,7.0,-45.0,18.0,86.0,-25.0,39.1796094382179,60.33136839724311,-99.95399465383288,36.0,33.0,-99.0,41.0,50.98754524288953,74.0,-82.0,83.0,-68.0,-13.0,18.0,29.0,39.1796094382179,-96.0,59.0,-59.0,61.0,85.0,-85.0,-9.0,-67.0,24.0,-71.0,8.0,-84.03417009542636,54.994322840803406,-51.0,81.12629257729972,-99.0,-96.0,-3.0,27.04600534616713,23.21385221146298,6.0,-18.0,24.9832112342091,90.99604709786206,-4.0,90.99604709786206,-19.0,24.9832112342091,-85.0,24.0,98.0,-70.0,-39.0,-66.0,-4.0,-99.95399465383288,-52.0,-87.0,72.0,-8.0,29.0,-4.0,24.0,38.0,46.0,-4.0,-92.0,-2.0,97.0,-39.0,-23.0,-23.0,-93.0,81.12629257729972,34.0,-50.0,-7.0,36.97931143195961,26.0,-78.0,61.0,79.0,-50.0,-7.0,6.0,-69.0,80.0,32.0,-28.0,-75.0,39.1796094382179,-2.0,-19.0,24.0,35.0,-17.0,-65.0,9.0,47.553626266578895,-68.0,-9.0,75.0,-39.793095046425144,73.0,10.0,72.0,44.0,-37.0,-67.0,-68.0,-59.0,17.04600534616713,-63.0,-71.0,81.12629257729972,17.04600534616713,-17.0,-1.0,-44.0,90.0,-24.0,54.0,42.0,44.0,-82.0,36.0,-90.0,-36.0,32.0,70.0,59.0,83.0,-24.0,0.6982729001269241,-50.0,-99.0,-12.0,0.6982729001269241,14.0,77.5536262665789,11.0,-9.66863160275689,41.0,-25.0,96.0,-47.0,-92.0,40.0,-62.0,46.0,-93.0,49.0,39.1796094382179,18.0,-41.30568000201101,-87.0,-78.64151611407391,-26.0,80.0,87.0,77.5536262665789,-2.0,92.0,-8.0,-51.0,70.0,48.0,73.0,-22.0,70.0,45.0,-88.95399465383288,76.0,-96.0,-68.0,-96.95399465383288,-35.0,24.9832112342091,-93.0,61.0,-34.0,-52.0,10.0,-75.0,30.0,-66.0,-4.0,0.6982729001269241,-86.0,-96.95399465383288,94.0,90.0,64.82718909953006,-69.0,-88.95399465383288,5.0,75.0,-36.0,39.1796094382179,38.0,-1.0,-17.0,-0.016788765790898216,-68.0,36.97931143195961,-11.0,48.0,-91.0,-74.0,-64.0,-64.0,-27.0,31.0,-90.0,-1.0,50.0,31.0,3.0,39.1796094382179,64.82718909953006,34.0,81.69438016579646,-85.0,-22.0,34.0,93.0,-70.0,64.20561928399164,8.0,-96.95399465383288,54.994322840803406,-66.0,8.0,-84.03417009542636,81.12629257729972,52.0,72.0,59.0,44.0,-85.0,53.0,-2.0,74.0,-66.0,50.0,54.0,11.0,72.0,-16.0,-32.0,-93.0,-91.0,-26.0,-26.0,-70.0,36.97931143195961,46.0,88.0,-84.03417009542636,-60.0,86.0,-24.0,62.99829692005007,-94.32233432299728,61.0,-67.0,73.0,73.0,22.0,-0.016788765790898216,-20.88822303580421,-84.03417009542636,47.553626266578895,-8.0,-66.0,17.04600534616713,-12.0,-99.0,-33.0,-22.0,26.0,-5.0,-37.88822303580422,-6.0,-74.0,18.0,-39.793095046425144,-24.0,19.0,-51.0,-67.0,9.0,-46.0,62.99829692005007,-77.0,-70.0,-32.0,28.0,18.0,-30.0,-72.0,-45.0,76.0,-58.0167887657909,7.0,69.0,-16.0,-56.0,-3.0,85.0,77.5536262665789,-47.0,-20.88822303580421,-25.0,23.21385221146298,10.0,-6.0,0.6982729001269241,-0.016788765790898216,-99.0,34.0,75.0,50.98754524288953,49.0,36.97931143195961,86.0,39.1796094382179,-25.0,-43.0,43.0,58.0,57.19152073128013,26.0,39.1796094382179,58.0,36.97931143195961,87.0,-78.64151611407391,-24.0,-32.0,-27.0,7.0,-76.0,50.98754524288953,50.0,-51.0,64.82718909953006,20.0,83.0,-53.0,94.98321123420911,81.12629257729972,7.0,57.19152073128013,41.0,100.0,30.0,-83.0,-52.0,61.0,-99.0,-90.0,75.0,-73.0,-71.0,54.994322840803406,-25.0,49.0,-69.0,-17.0,14.0,-67.0,-88.95399465383288,23.21385221146298,98.0,-7.0,-13.0,93.0,-81.0,-37.88822303580422,-42.0,79.0,46.0,90.99604709786206,24.9832112342091,-83.0,78.13415477112427,-32.0,75.0,-78.64151611407391,11.0,22.0,41.0,83.0,-13.0,31.0,85.0,29.0,13.0,-52.0,16.0,81.12629257729972,92.0,45.0,-5.0,16.0,-52.0,73.0,-5.0,-50.0,-32.0,10.0,5.0,88.0,42.0,57.19152073128013,50.0,-90.0,54.994322840803406,15.0,99.0,40.0,5.0,-52.0,38.0,-65.0,100.0,77.5536262665789,-71.0,19.0,57.19152073128013,13.0,-43.0,24.0,-25.0,66.0,17.04600534616713,-25.0,45.0,-56.0,47.553626266578895,29.0,-42.0,-69.0,94.98321123420911,-4.0,98.0,16.0,-37.88822303580422,87.0,-63.0,16.0,-28.0,-86.0,14.0,-99.95399465383288,-83.0,92.0,-81.0,14.0,-39.793095046425144,81.69438016579646,-63.0,11.0,-99.0,-69.0,-83.0,-31.0,44.0,-35.0,50.98754524288953,90.99604709786206,41.0,12.0,18.0,-51.0,-93.0,-1.0,-69.0,-3.0,-91.0,-64.0,-20.0,50.0,57.19152073128013,-63.0,-29.0,10.0,-42.0,8.0,14.0,77.5536262665789,-88.15067280599804,-88.95399465383288,-22.0,32.0,-68.0,-99.0,-93.0,-23.0,99.0,24.0,-65.0,-48.0,30.0,-78.0,-73.0,36.97931143195961,43.0,80.0,83.0,-35.0,60.33136839724311,92.0,81.69438016579646,-12.0,18.0,7.0,-67.0,32.0,-71.0,8.0,53.0,75.0,-84.03417009542636,47.553626266578895,-88.95399465383288,-70.0,-95.0,4.0,35.0,-16.0,8.0,62.99829692005007,39.1796094382179,81.69438016579646,-62.0,-18.0,16.0,-35.0,73.0,-99.0,11.0,75.0,30.0,15.0,81.12629257729972,73.0,3.0,96.0,54.0,-90.0,-57.0,75.0,-22.0,-56.0,-30.0,-42.0,-31.0,-98.0,61.0,28.0,-16.0,-26.0,-59.0,-59.0,-49.0,-58.0167887657909,-16.0,-27.0,35.0,73.0,-99.0,5.0,-75.0,24.9832112342091,74.0,-57.0,38.0,99.0,14.0,-6.0,60.33136839724311,64.20561928399164,-46.0,-50.0,94.98321123420911,-51.0,-48.0,52.0,57.19152073128013,-98.0,-29.0,81.12629257729972,59.0,33.0,-19.0,64.20561928399164,-9.0,97.0,88.0,93.0,-74.0,100.0,-86.0,-22.0,49.0,-59.0,-99.0,73.0,-87.0,18.0,-71.0,-82.0,-76.0,16.0,-1.0,38.0,94.0,-64.0,29.0,-67.0,-25.0,-17.0,-9.0,-13.0,99.0,-25.0,50.0,-37.88822303580422,77.5536262665789,-37.88822303580422,-27.0,-54.0,-51.0,83.0,36.97931143195961,53.0,72.0,-24.0,9.0,-96.95399465383288,-60.0,54.0,33.0,-37.88822303580422,6.0,3.0,50.0,-66.0,30.0,89.13415477112427,36.0,57.19152073128013,39.1796094382179,-84.03417009542636,67.0,7.0,29.0,-1.0,12.0,85.0,-18.0,17.04600534616713,36.97931143195961,70.99604709786206,74.0,-14.0,-70.0,-19.0,-39.0,-37.88822303580422,-87.0,-88.15067280599804,78.13415477112427,9.0,76.0,70.0,-22.0,-4.0,-8.0,-37.88822303580422,-17.0,9.0,50.98754524288953,58.0,1.7061586132324897,67.0,33.0,77.5536262665789,-45.0,-90.0,9.0,-90.0,69.0,-61.0,28.0,400.0
